digraph Tree {
node [shape=box] ;
0 [label="X[4] <= 21166.5\ngini = 0.633\nsamples = 1000\nvalue = [[20, 16, 21 ... 0, 0, 0]\n[1, 1, 1 ... 1, 1, 1]\n[2, 225, 48 ... 0, 0, 0]\n[919, 3, 1 ... 0, 0, 0]\n[950, 1, 2 ... 0, 0, 0]\n[1, 7, 4 ... 0, 0, 0]]"] ;
1 [label="X[3] <= 81.5\ngini = 0.641\nsamples = 679\nvalue = [[20, 10, 11 ... 0, 0, 0]\n[1, 0, 1 ... 0, 1, 1]\n[2, 225, 48 ... 0, 0, 0]\n[618, 2, 1 ... 0, 0, 0]\n[639, 1, 2 ... 0, 0, 0]\n[1, 6, 3 ... 0, 0, 0]]"] ;
0 -> 1 [labeldistance=2.5, labelangle=45, headlabel="True"] ;
2 [label="X[3] <= 15.5\ngini = 0.649\nsamples = 454\nvalue = [[20, 9, 0 ... 0, 0, 0]\n[1, 0, 0 ... 0, 1, 1]\n[2, 0, 48 ... 0, 0, 0]\n[407, 2, 1 ... 0, 0, 0]\n[424, 0, 2 ... 0, 0, 0]\n[1, 4, 3 ... 0, 0, 0]]"] ;
1 -> 2 ;
3 [label="X[4] <= 1392.0\ngini = 0.637\nsamples = 208\nvalue = [[20, 9, 0 ... 0, 0, 0]\n[1, 0, 0 ... 0, 0, 0]\n[0, 0, 48 ... 0, 0, 0]\n[196, 1, 0 ... 0, 0, 0]\n[195, 0, 1 ... 0, 0, 0]\n[0, 3, 3 ... 0, 0, 0]]"] ;
2 -> 3 ;
4 [label="X[12] <= 18291.0\ngini = 0.5\nsamples = 48\nvalue = [[0, 0, 0 ... 0, 0, 0]\n[0, 0, 0 ... 0, 0, 0]\n[0, 0, 48 ... 0, 0, 0]\n[45, 0, 0 ... 0, 0, 0]\n[43, 0, 1 ... 0, 0, 0]\n[0, 0, 0 ... 0, 0, 0]]"] ;
3 -> 4 ;
5 [label="X[12] <= 17922.5\ngini = 0.448\nsamples = 34\nvalue = [[0, 0, 0 ... 0, 0, 0]\n[0, 0, 0 ... 0, 0, 0]\n[0, 0, 34 ... 0, 0, 0]\n[32, 0, 0 ... 0, 0, 0]\n[32, 0, 0 ... 0, 0, 0]\n[0, 0, 0 ... 0, 0, 0]]"] ;
4 -> 5 ;
6 [label="X[12] <= 14515.0\ngini = 0.431\nsamples = 12\nvalue = [[0, 0, 0 ... 0, 0, 0]\n[0, 0, 0 ... 0, 0, 0]\n[0, 0, 12 ... 0, 0, 0]\n[12, 0, 0 ... 0, 0, 0]\n[12, 0, 0 ... 0, 0, 0]\n[0, 0, 0 ... 0, 0, 0]]"] ;
5 -> 6 ;
7 [label="X[12] <= 6553.0\ngini = 0.396\nsamples = 8\nvalue = [[0, 0, 0 ... 0, 0, 0]\n[0, 0, 0 ... 0, 0, 0]\n[0, 0, 8 ... 0, 0, 0]\n[8, 0, 0 ... 0, 0, 0]\n[8, 0, 0 ... 0, 0, 0]\n[0, 0, 0 ... 0, 0, 0]]"] ;
6 -> 7 ;
8 [label="X[0] <= 12087.5\ngini = 0.167\nsamples = 2\nvalue = [[0, 0, 0 ... 0, 0, 0]\n[0, 0, 0 ... 0, 0, 0]\n[0, 0, 2 ... 0, 0, 0]\n[2, 0, 0 ... 0, 0, 0]\n[2, 0, 0 ... 0, 0, 0]\n[0, 0, 0 ... 0, 0, 0]]"] ;
7 -> 8 ;
9 [label="gini = 0.0\nsamples = 1\nvalue = [[0, 0, 0 ... 0, 0, 0]\n[0, 0, 0 ... 0, 0, 0]\n[0, 0, 1 ... 0, 0, 0]\n[1, 0, 0 ... 0, 0, 0]\n[1, 0, 0 ... 0, 0, 0]\n[0, 0, 0 ... 0, 0, 0]]"] ;
8 -> 9 ;
10 [label="gini = 0.0\nsamples = 1\nvalue = [[0, 0, 0 ... 0, 0, 0]\n[0, 0, 0 ... 0, 0, 0]\n[0, 0, 1 ... 0, 0, 0]\n[1, 0, 0 ... 0, 0, 0]\n[1, 0, 0 ... 0, 0, 0]\n[0, 0, 0 ... 0, 0, 0]]"] ;
8 -> 10 ;
11 [label="X[12] <= 10595.5\ngini = 0.352\nsamples = 6\nvalue = [[0, 0, 0 ... 0, 0, 0]\n[0, 0, 0 ... 0, 0, 0]\n[0, 0, 6 ... 0, 0, 0]\n[6, 0, 0 ... 0, 0, 0]\n[6, 0, 0 ... 0, 0, 0]\n[0, 0, 0 ... 0, 0, 0]]"] ;
7 -> 11 ;
12 [label="X[0] <= 20191.0\ngini = 0.25\nsamples = 4\nvalue = [[0, 0, 0 ... 0, 0, 0]\n[0, 0, 0 ... 0, 0, 0]\n[0, 0, 4 ... 0, 0, 0]\n[4, 0, 0 ... 0, 0, 0]\n[4, 0, 0 ... 0, 0, 0]\n[0, 0, 0 ... 0, 0, 0]]"] ;
11 -> 12 ;
13 [label="X[0] <= 18662.0\ngini = 0.167\nsamples = 2\nvalue = [[0, 0, 0 ... 0, 0, 0]\n[0, 0, 0 ... 0, 0, 0]\n[0, 0, 2 ... 0, 0, 0]\n[2, 0, 0 ... 0, 0, 0]\n[2, 0, 0 ... 0, 0, 0]\n[0, 0, 0 ... 0, 0, 0]]"] ;
12 -> 13 ;
14 [label="gini = 0.0\nsamples = 1\nvalue = [[0, 0, 0 ... 0, 0, 0]\n[0, 0, 0 ... 0, 0, 0]\n[0, 0, 1 ... 0, 0, 0]\n[1, 0, 0 ... 0, 0, 0]\n[1, 0, 0 ... 0, 0, 0]\n[0, 0, 0 ... 0, 0, 0]]"] ;
13 -> 14 ;
15 [label="gini = 0.0\nsamples = 1\nvalue = [[0, 0, 0 ... 0, 0, 0]\n[0, 0, 0 ... 0, 0, 0]\n[0, 0, 1 ... 0, 0, 0]\n[1, 0, 0 ... 0, 0, 0]\n[1, 0, 0 ... 0, 0, 0]\n[0, 0, 0 ... 0, 0, 0]]"] ;
13 -> 15 ;
16 [label="X[2] <= 17619.5\ngini = 0.167\nsamples = 2\nvalue = [[0, 0, 0 ... 0, 0, 0]\n[0, 0, 0 ... 0, 0, 0]\n[0, 0, 2 ... 0, 0, 0]\n[2, 0, 0 ... 0, 0, 0]\n[2, 0, 0 ... 0, 0, 0]\n[0, 0, 0 ... 0, 0, 0]]"] ;
12 -> 16 ;
17 [label="gini = 0.0\nsamples = 1\nvalue = [[0, 0, 0 ... 0, 0, 0]\n[0, 0, 0 ... 0, 0, 0]\n[0, 0, 1 ... 0, 0, 0]\n[1, 0, 0 ... 0, 0, 0]\n[1, 0, 0 ... 0, 0, 0]\n[0, 0, 0 ... 0, 0, 0]]"] ;
16 -> 17 ;
18 [label="gini = 0.0\nsamples = 1\nvalue = [[0, 0, 0 ... 0, 0, 0]\n[0, 0, 0 ... 0, 0, 0]\n[0, 0, 1 ... 0, 0, 0]\n[1, 0, 0 ... 0, 0, 0]\n[1, 0, 0 ... 0, 0, 0]\n[0, 0, 0 ... 0, 0, 0]]"] ;
16 -> 18 ;
19 [label="X[5] <= 40.5\ngini = 0.167\nsamples = 2\nvalue = [[0, 0, 0 ... 0, 0, 0]\n[0, 0, 0 ... 0, 0, 0]\n[0, 0, 2 ... 0, 0, 0]\n[2, 0, 0 ... 0, 0, 0]\n[2, 0, 0 ... 0, 0, 0]\n[0, 0, 0 ... 0, 0, 0]]"] ;
11 -> 19 ;
20 [label="gini = 0.0\nsamples = 1\nvalue = [[0, 0, 0 ... 0, 0, 0]\n[0, 0, 0 ... 0, 0, 0]\n[0, 0, 1 ... 0, 0, 0]\n[1, 0, 0 ... 0, 0, 0]\n[1, 0, 0 ... 0, 0, 0]\n[0, 0, 0 ... 0, 0, 0]]"] ;
19 -> 20 ;
21 [label="gini = 0.0\nsamples = 1\nvalue = [[0, 0, 0 ... 0, 0, 0]\n[0, 0, 0 ... 0, 0, 0]\n[0, 0, 1 ... 0, 0, 0]\n[1, 0, 0 ... 0, 0, 0]\n[1, 0, 0 ... 0, 0, 0]\n[0, 0, 0 ... 0, 0, 0]]"] ;
19 -> 21 ;
22 [label="X[0] <= 15905.0\ngini = 0.292\nsamples = 4\nvalue = [[0, 0, 0 ... 0, 0, 0]\n[0, 0, 0 ... 0, 0, 0]\n[0, 0, 4 ... 0, 0, 0]\n[4, 0, 0 ... 0, 0, 0]\n[4, 0, 0 ... 0, 0, 0]\n[0, 0, 0 ... 0, 0, 0]]"] ;
6 -> 22 ;
23 [label="X[7] <= 84.0\ngini = 0.167\nsamples = 2\nvalue = [[0, 0, 0 ... 0, 0, 0]\n[0, 0, 0 ... 0, 0, 0]\n[0, 0, 2 ... 0, 0, 0]\n[2, 0, 0 ... 0, 0, 0]\n[2, 0, 0 ... 0, 0, 0]\n[0, 0, 0 ... 0, 0, 0]]"] ;
22 -> 23 ;
24 [label="gini = 0.0\nsamples = 1\nvalue = [[0, 0, 0 ... 0, 0, 0]\n[0, 0, 0 ... 0, 0, 0]\n[0, 0, 1 ... 0, 0, 0]\n[1, 0, 0 ... 0, 0, 0]\n[1, 0, 0 ... 0, 0, 0]\n[0, 0, 0 ... 0, 0, 0]]"] ;
23 -> 24 ;
25 [label="gini = 0.0\nsamples = 1\nvalue = [[0, 0, 0 ... 0, 0, 0]\n[0, 0, 0 ... 0, 0, 0]\n[0, 0, 1 ... 0, 0, 0]\n[1, 0, 0 ... 0, 0, 0]\n[1, 0, 0 ... 0, 0, 0]\n[0, 0, 0 ... 0, 0, 0]]"] ;
23 -> 25 ;
26 [label="X[7] <= 70.0\ngini = 0.167\nsamples = 2\nvalue = [[0, 0, 0 ... 0, 0, 0]\n[0, 0, 0 ... 0, 0, 0]\n[0, 0, 2 ... 0, 0, 0]\n[2, 0, 0 ... 0, 0, 0]\n[2, 0, 0 ... 0, 0, 0]\n[0, 0, 0 ... 0, 0, 0]]"] ;
22 -> 26 ;
27 [label="gini = 0.0\nsamples = 1\nvalue = [[0, 0, 0 ... 0, 0, 0]\n[0, 0, 0 ... 0, 0, 0]\n[0, 0, 1 ... 0, 0, 0]\n[1, 0, 0 ... 0, 0, 0]\n[1, 0, 0 ... 0, 0, 0]\n[0, 0, 0 ... 0, 0, 0]]"] ;
26 -> 27 ;
28 [label="gini = 0.0\nsamples = 1\nvalue = [[0, 0, 0 ... 0, 0, 0]\n[0, 0, 0 ... 0, 0, 0]\n[0, 0, 1 ... 0, 0, 0]\n[1, 0, 0 ... 0, 0, 0]\n[1, 0, 0 ... 0, 0, 0]\n[0, 0, 0 ... 0, 0, 0]]"] ;
26 -> 28 ;
29 [label="X[11] <= 2304.0\ngini = 0.368\nsamples = 22\nvalue = [[0, 0, 0 ... 0, 0, 0]\n[0, 0, 0 ... 0, 0, 0]\n[0, 0, 22 ... 0, 0, 0]\n[20, 0, 0 ... 0, 0, 0]\n[20, 0, 0 ... 0, 0, 0]\n[0, 0, 0 ... 0, 0, 0]]"] ;
5 -> 29 ;
30 [label="X[10] <= 9403.0\ngini = 0.34\nsamples = 20\nvalue = [[0, 0, 0 ... 0, 0, 0]\n[0, 0, 0 ... 0, 0, 0]\n[0, 0, 20 ... 0, 0, 0]\n[18, 0, 0 ... 0, 0, 0]\n[20, 0, 0 ... 0, 0, 0]\n[0, 0, 0 ... 0, 0, 0]]"] ;
29 -> 30 ;
31 [label="X[2] <= 20179.5\ngini = 0.31\nsamples = 18\nvalue = [[0, 0, 0 ... 0, 0, 0]\n[0, 0, 0 ... 0, 0, 0]\n[0, 0, 18 ... 0, 0, 0]\n[18, 0, 0 ... 0, 0, 0]\n[18, 0, 0 ... 0, 0, 0]\n[0, 0, 0 ... 0, 0, 0]]"] ;
30 -> 31 ;
32 [label="X[0] <= 14826.5\ngini = 0.31\nsamples = 16\nvalue = [[0, 0, 0 ... 0, 0, 0]\n[0, 0, 0 ... 0, 0, 0]\n[0, 0, 16 ... 0, 0, 0]\n[16, 0, 0 ... 0, 0, 0]\n[16, 0, 0 ... 0, 0, 0]\n[0, 0, 0 ... 0, 0, 0]]"] ;
31 -> 32 ;
33 [label="X[0] <= 14393.5\ngini = 0.229\nsamples = 4\nvalue = [[0, 0, 0 ... 0, 0, 0]\n[0, 0, 0 ... 0, 0, 0]\n[0, 0, 4 ... 0, 0, 0]\n[4, 0, 0 ... 0, 0, 0]\n[4, 0, 0 ... 0, 0, 0]\n[0, 0, 0 ... 0, 0, 0]]"] ;
32 -> 33 ;
34 [label="X[2] <= 3177.0\ngini = 0.167\nsamples = 2\nvalue = [[0, 0, 0 ... 0, 0, 0]\n[0, 0, 0 ... 0, 0, 0]\n[0, 0, 2 ... 0, 0, 0]\n[2, 0, 0 ... 0, 0, 0]\n[2, 0, 0 ... 0, 0, 0]\n[0, 0, 0 ... 0, 0, 0]]"] ;
33 -> 34 ;
35 [label="gini = 0.0\nsamples = 1\nvalue = [[0, 0, 0 ... 0, 0, 0]\n[0, 0, 0 ... 0, 0, 0]\n[0, 0, 1 ... 0, 0, 0]\n[1, 0, 0 ... 0, 0, 0]\n[1, 0, 0 ... 0, 0, 0]\n[0, 0, 0 ... 0, 0, 0]]"] ;
34 -> 35 ;
36 [label="gini = 0.0\nsamples = 1\nvalue = [[0, 0, 0 ... 0, 0, 0]\n[0, 0, 0 ... 0, 0, 0]\n[0, 0, 1 ... 0, 0, 0]\n[1, 0, 0 ... 0, 0, 0]\n[1, 0, 0 ... 0, 0, 0]\n[0, 0, 0 ... 0, 0, 0]]"] ;
34 -> 36 ;
37 [label="X[7] <= 66.5\ngini = 0.083\nsamples = 2\nvalue = [[0, 0, 0 ... 0, 0, 0]\n[0, 0, 0 ... 0, 0, 0]\n[0, 0, 2 ... 0, 0, 0]\n[2, 0, 0 ... 0, 0, 0]\n[2, 0, 0 ... 0, 0, 0]\n[0, 0, 0 ... 0, 0, 0]]"] ;
33 -> 37 ;
38 [label="gini = 0.0\nsamples = 1\nvalue = [[0, 0, 0 ... 0, 0, 0]\n[0, 0, 0 ... 0, 0, 0]\n[0, 0, 1 ... 0, 0, 0]\n[1, 0, 0 ... 0, 0, 0]\n[1, 0, 0 ... 0, 0, 0]\n[0, 0, 0 ... 0, 0, 0]]"] ;
37 -> 38 ;
39 [label="gini = 0.0\nsamples = 1\nvalue = [[0, 0, 0 ... 0, 0, 0]\n[0, 0, 0 ... 0, 0, 0]\n[0, 0, 1 ... 0, 0, 0]\n[1, 0, 0 ... 0, 0, 0]\n[1, 0, 0 ... 0, 0, 0]\n[0, 0, 0 ... 0, 0, 0]]"] ;
37 -> 39 ;
40 [label="X[0] <= 18214.5\ngini = 0.303\nsamples = 12\nvalue = [[0, 0, 0 ... 0, 0, 0]\n[0, 0, 0 ... 0, 0, 0]\n[0, 0, 12 ... 0, 0, 0]\n[12, 0, 0 ... 0, 0, 0]\n[12, 0, 0 ... 0, 0, 0]\n[0, 0, 0 ... 0, 0, 0]]"] ;
32 -> 40 ;
41 [label="X[0] <= 15588.5\ngini = 0.278\nsamples = 6\nvalue = [[0, 0, 0 ... 0, 0, 0]\n[0, 0, 0 ... 0, 0, 0]\n[0, 0, 6 ... 0, 0, 0]\n[6, 0, 0 ... 0, 0, 0]\n[6, 0, 0 ... 0, 0, 0]\n[0, 0, 0 ... 0, 0, 0]]"] ;
40 -> 41 ;
42 [label="gini = 0.0\nsamples = 1\nvalue = [[0, 0, 0 ... 0, 0, 0]\n[0, 0, 0 ... 0, 0, 0]\n[0, 0, 1 ... 0, 0, 0]\n[1, 0, 0 ... 0, 0, 0]\n[1, 0, 0 ... 0, 0, 0]\n[0, 0, 0 ... 0, 0, 0]]"] ;
41 -> 42 ;
43 [label="X[6] <= 16.0\ngini = 0.267\nsamples = 5\nvalue = [[0, 0, 0 ... 0, 0, 0]\n[0, 0, 0 ... 0, 0, 0]\n[0, 0, 5 ... 0, 0, 0]\n[5, 0, 0 ... 0, 0, 0]\n[5, 0, 0 ... 0, 0, 0]\n[0, 0, 0 ... 0, 0, 0]]"] ;
41 -> 43 ;
44 [label="gini = 0.0\nsamples = 1\nvalue = [[0, 0, 0 ... 0, 0, 0]\n[0, 0, 0 ... 0, 0, 0]\n[0, 0, 1 ... 0, 0, 0]\n[1, 0, 0 ... 0, 0, 0]\n[1, 0, 0 ... 0, 0, 0]\n[0, 0, 0 ... 0, 0, 0]]"] ;
43 -> 44 ;
45 [label="X[2] <= 10345.0\ngini = 0.25\nsamples = 4\nvalue = [[0, 0, 0 ... 0, 0, 0]\n[0, 0, 0 ... 0, 0, 0]\n[0, 0, 4 ... 0, 0, 0]\n[4, 0, 0 ... 0, 0, 0]\n[4, 0, 0 ... 0, 0, 0]\n[0, 0, 0 ... 0, 0, 0]]"] ;
43 -> 45 ;
46 [label="X[8] <= 55.0\ngini = 0.167\nsamples = 2\nvalue = [[0, 0, 0 ... 0, 0, 0]\n[0, 0, 0 ... 0, 0, 0]\n[0, 0, 2 ... 0, 0, 0]\n[2, 0, 0 ... 0, 0, 0]\n[2, 0, 0 ... 0, 0, 0]\n[0, 0, 0 ... 0, 0, 0]]"] ;
45 -> 46 ;
47 [label="gini = 0.0\nsamples = 1\nvalue = [[0, 0, 0 ... 0, 0, 0]\n[0, 0, 0 ... 0, 0, 0]\n[0, 0, 1 ... 0, 0, 0]\n[1, 0, 0 ... 0, 0, 0]\n[1, 0, 0 ... 0, 0, 0]\n[0, 0, 0 ... 0, 0, 0]]"] ;
46 -> 47 ;
48 [label="gini = 0.0\nsamples = 1\nvalue = [[0, 0, 0 ... 0, 0, 0]\n[0, 0, 0 ... 0, 0, 0]\n[0, 0, 1 ... 0, 0, 0]\n[1, 0, 0 ... 0, 0, 0]\n[1, 0, 0 ... 0, 0, 0]\n[0, 0, 0 ... 0, 0, 0]]"] ;
46 -> 48 ;
49 [label="X[2] <= 17785.0\ngini = 0.167\nsamples = 2\nvalue = [[0, 0, 0 ... 0, 0, 0]\n[0, 0, 0 ... 0, 0, 0]\n[0, 0, 2 ... 0, 0, 0]\n[2, 0, 0 ... 0, 0, 0]\n[2, 0, 0 ... 0, 0, 0]\n[0, 0, 0 ... 0, 0, 0]]"] ;
45 -> 49 ;
50 [label="gini = 0.0\nsamples = 1\nvalue = [[0, 0, 0 ... 0, 0, 0]\n[0, 0, 0 ... 0, 0, 0]\n[0, 0, 1 ... 0, 0, 0]\n[1, 0, 0 ... 0, 0, 0]\n[1, 0, 0 ... 0, 0, 0]\n[0, 0, 0 ... 0, 0, 0]]"] ;
49 -> 50 ;
51 [label="gini = 0.0\nsamples = 1\nvalue = [[0, 0, 0 ... 0, 0, 0]\n[0, 0, 0 ... 0, 0, 0]\n[0, 0, 1 ... 0, 0, 0]\n[1, 0, 0 ... 0, 0, 0]\n[1, 0, 0 ... 0, 0, 0]\n[0, 0, 0 ... 0, 0, 0]]"] ;
49 -> 51 ;
52 [label="X[0] <= 18666.0\ngini = 0.269\nsamples = 6\nvalue = [[0, 0, 0 ... 0, 0, 0]\n[0, 0, 0 ... 0, 0, 0]\n[0, 0, 6 ... 0, 0, 0]\n[6, 0, 0 ... 0, 0, 0]\n[6, 0, 0 ... 0, 0, 0]\n[0, 0, 0 ... 0, 0, 0]]"] ;
40 -> 52 ;
53 [label="X[1] <= 82.0\ngini = 0.083\nsamples = 2\nvalue = [[0, 0, 0 ... 0, 0, 0]\n[0, 0, 0 ... 0, 0, 0]\n[0, 0, 2 ... 0, 0, 0]\n[2, 0, 0 ... 0, 0, 0]\n[2, 0, 0 ... 0, 0, 0]\n[0, 0, 0 ... 0, 0, 0]]"] ;
52 -> 53 ;
54 [label="gini = 0.0\nsamples = 1\nvalue = [[0, 0, 0 ... 0, 0, 0]\n[0, 0, 0 ... 0, 0, 0]\n[0, 0, 1 ... 0, 0, 0]\n[1, 0, 0 ... 0, 0, 0]\n[1, 0, 0 ... 0, 0, 0]\n[0, 0, 0 ... 0, 0, 0]]"] ;
53 -> 54 ;
55 [label="gini = 0.0\nsamples = 1\nvalue = [[0, 0, 0 ... 0, 0, 0]\n[0, 0, 0 ... 0, 0, 0]\n[0, 0, 1 ... 0, 0, 0]\n[1, 0, 0 ... 0, 0, 0]\n[1, 0, 0 ... 0, 0, 0]\n[0, 0, 0 ... 0, 0, 0]]"] ;
53 -> 55 ;
56 [label="X[0] <= 19165.5\ngini = 0.25\nsamples = 4\nvalue = [[0, 0, 0 ... 0, 0, 0]\n[0, 0, 0 ... 0, 0, 0]\n[0, 0, 4 ... 0, 0, 0]\n[4, 0, 0 ... 0, 0, 0]\n[4, 0, 0 ... 0, 0, 0]\n[0, 0, 0 ... 0, 0, 0]]"] ;
52 -> 56 ;
57 [label="X[6] <= 38.5\ngini = 0.167\nsamples = 2\nvalue = [[0, 0, 0 ... 0, 0, 0]\n[0, 0, 0 ... 0, 0, 0]\n[0, 0, 2 ... 0, 0, 0]\n[2, 0, 0 ... 0, 0, 0]\n[2, 0, 0 ... 0, 0, 0]\n[0, 0, 0 ... 0, 0, 0]]"] ;
56 -> 57 ;
58 [label="gini = 0.0\nsamples = 1\nvalue = [[0, 0, 0 ... 0, 0, 0]\n[0, 0, 0 ... 0, 0, 0]\n[0, 0, 1 ... 0, 0, 0]\n[1, 0, 0 ... 0, 0, 0]\n[1, 0, 0 ... 0, 0, 0]\n[0, 0, 0 ... 0, 0, 0]]"] ;
57 -> 58 ;
59 [label="gini = 0.0\nsamples = 1\nvalue = [[0, 0, 0 ... 0, 0, 0]\n[0, 0, 0 ... 0, 0, 0]\n[0, 0, 1 ... 0, 0, 0]\n[1, 0, 0 ... 0, 0, 0]\n[1, 0, 0 ... 0, 0, 0]\n[0, 0, 0 ... 0, 0, 0]]"] ;
57 -> 59 ;
60 [label="X[0] <= 19519.5\ngini = 0.167\nsamples = 2\nvalue = [[0, 0, 0 ... 0, 0, 0]\n[0, 0, 0 ... 0, 0, 0]\n[0, 0, 2 ... 0, 0, 0]\n[2, 0, 0 ... 0, 0, 0]\n[2, 0, 0 ... 0, 0, 0]\n[0, 0, 0 ... 0, 0, 0]]"] ;
56 -> 60 ;
61 [label="gini = 0.0\nsamples = 1\nvalue = [[0, 0, 0 ... 0, 0, 0]\n[0, 0, 0 ... 0, 0, 0]\n[0, 0, 1 ... 0, 0, 0]\n[1, 0, 0 ... 0, 0, 0]\n[1, 0, 0 ... 0, 0, 0]\n[0, 0, 0 ... 0, 0, 0]]"] ;
60 -> 61 ;
62 [label="gini = 0.0\nsamples = 1\nvalue = [[0, 0, 0 ... 0, 0, 0]\n[0, 0, 0 ... 0, 0, 0]\n[0, 0, 1 ... 0, 0, 0]\n[1, 0, 0 ... 0, 0, 0]\n[1, 0, 0 ... 0, 0, 0]\n[0, 0, 0 ... 0, 0, 0]]"] ;
60 -> 62 ;
63 [label="X[8] <= 55.0\ngini = 0.083\nsamples = 2\nvalue = [[0, 0, 0 ... 0, 0, 0]\n[0, 0, 0 ... 0, 0, 0]\n[0, 0, 2 ... 0, 0, 0]\n[2, 0, 0 ... 0, 0, 0]\n[2, 0, 0 ... 0, 0, 0]\n[0, 0, 0 ... 0, 0, 0]]"] ;
31 -> 63 ;
64 [label="gini = 0.0\nsamples = 1\nvalue = [[0, 0, 0 ... 0, 0, 0]\n[0, 0, 0 ... 0, 0, 0]\n[0, 0, 1 ... 0, 0, 0]\n[1, 0, 0 ... 0, 0, 0]\n[1, 0, 0 ... 0, 0, 0]\n[0, 0, 0 ... 0, 0, 0]]"] ;
63 -> 64 ;
65 [label="gini = 0.0\nsamples = 1\nvalue = [[0, 0, 0 ... 0, 0, 0]\n[0, 0, 0 ... 0, 0, 0]\n[0, 0, 1 ... 0, 0, 0]\n[1, 0, 0 ... 0, 0, 0]\n[1, 0, 0 ... 0, 0, 0]\n[0, 0, 0 ... 0, 0, 0]]"] ;
63 -> 65 ;
66 [label="X[2] <= 9263.0\ngini = 0.25\nsamples = 2\nvalue = [[0, 0, 0 ... 0, 0, 0]\n[0, 0, 0 ... 0, 0, 0]\n[0, 0, 2 ... 0, 0, 0]\n[0, 0, 0 ... 0, 0, 0]\n[2, 0, 0 ... 0, 0, 0]\n[0, 0, 0 ... 0, 0, 0]]"] ;
30 -> 66 ;
67 [label="gini = 0.0\nsamples = 1\nvalue = [[0, 0, 0 ... 0, 0, 0]\n[0, 0, 0 ... 0, 0, 0]\n[0, 0, 1 ... 0, 0, 0]\n[0, 0, 0 ... 0, 0, 0]\n[1, 0, 0 ... 0, 0, 0]\n[0, 0, 0 ... 0, 0, 0]]"] ;
66 -> 67 ;
68 [label="gini = 0.0\nsamples = 1\nvalue = [[0, 0, 0 ... 0, 0, 0]\n[0, 0, 0 ... 0, 0, 0]\n[0, 0, 1 ... 0, 0, 0]\n[0, 0, 0 ... 0, 0, 0]\n[1, 0, 0 ... 0, 0, 0]\n[0, 0, 0 ... 0, 0, 0]]"] ;
66 -> 68 ;
69 [label="X[2] <= 9897.0\ngini = 0.25\nsamples = 2\nvalue = [[0, 0, 0 ... 0, 0, 0]\n[0, 0, 0 ... 0, 0, 0]\n[0, 0, 2 ... 0, 0, 0]\n[2, 0, 0 ... 0, 0, 0]\n[0, 0, 0 ... 0, 0, 0]\n[0, 0, 0 ... 0, 0, 0]]"] ;
29 -> 69 ;
70 [label="gini = 0.0\nsamples = 1\nvalue = [[0, 0, 0 ... 0, 0, 0]\n[0, 0, 0 ... 0, 0, 0]\n[0, 0, 1 ... 0, 0, 0]\n[1, 0, 0 ... 0, 0, 0]\n[0, 0, 0 ... 0, 0, 0]\n[0, 0, 0 ... 0, 0, 0]]"] ;
69 -> 70 ;
71 [label="gini = 0.0\nsamples = 1\nvalue = [[0, 0, 0 ... 0, 0, 0]\n[0, 0, 0 ... 0, 0, 0]\n[0, 0, 1 ... 0, 0, 0]\n[1, 0, 0 ... 0, 0, 0]\n[0, 0, 0 ... 0, 0, 0]\n[0, 0, 0 ... 0, 0, 0]]"] ;
69 -> 71 ;
72 [label="X[12] <= 18528.0\ngini = 0.526\nsamples = 14\nvalue = [[0, 0, 0 ... 0, 0, 0]\n[0, 0, 0 ... 0, 0, 0]\n[0, 0, 14 ... 0, 0, 0]\n[13, 0, 0 ... 0, 0, 0]\n[11, 0, 1 ... 0, 0, 0]\n[0, 0, 0 ... 0, 0, 0]]"] ;
4 -> 72 ;
73 [label="X[6] <= 47.0\ngini = 0.25\nsamples = 2\nvalue = [[0, 0, 0 ... 0, 0, 0]\n[0, 0, 0 ... 0, 0, 0]\n[0, 0, 2 ... 0, 0, 0]\n[2, 0, 0 ... 0, 0, 0]\n[0, 0, 1 ... 0, 0, 0]\n[0, 0, 0 ... 0, 0, 0]]"] ;
72 -> 73 ;
74 [label="gini = 0.0\nsamples = 1\nvalue = [[0, 0, 0 ... 0, 0, 0]\n[0, 0, 0 ... 0, 0, 0]\n[0, 0, 1 ... 0, 0, 0]\n[1, 0, 0 ... 0, 0, 0]\n[0, 0, 1 ... 0, 0, 0]\n[0, 0, 0 ... 0, 0, 0]]"] ;
73 -> 74 ;
75 [label="gini = 0.0\nsamples = 1\nvalue = [[0, 0, 0 ... 0, 0, 0]\n[0, 0, 0 ... 0, 0, 0]\n[0, 0, 1 ... 0, 0, 0]\n[1, 0, 0 ... 0, 0, 0]\n[0, 0, 0 ... 0, 0, 0]\n[0, 0, 0 ... 0, 0, 0]]"] ;
73 -> 75 ;
76 [label="X[12] <= 19062.0\ngini = 0.481\nsamples = 12\nvalue = [[0, 0, 0 ... 0, 0, 0]\n[0, 0, 0 ... 0, 0, 0]\n[0, 0, 12 ... 0, 0, 0]\n[11, 0, 0 ... 0, 0, 0]\n[11, 0, 0 ... 0, 0, 0]\n[0, 0, 0 ... 0, 0, 0]]"] ;
72 -> 76 ;
77 [label="X[6] <= 54.0\ngini = 0.413\nsamples = 5\nvalue = [[0, 0, 0 ... 0, 0, 0]\n[0, 0, 0 ... 0, 0, 0]\n[0, 0, 5 ... 0, 0, 0]\n[4, 0, 0 ... 0, 0, 0]\n[4, 0, 0 ... 0, 0, 0]\n[0, 0, 0 ... 0, 0, 0]]"] ;
76 -> 77 ;
78 [label="X[11] <= 6035.5\ngini = 0.296\nsamples = 3\nvalue = [[0, 0, 0 ... 0, 0, 0]\n[0, 0, 0 ... 0, 0, 0]\n[0, 0, 3 ... 0, 0, 0]\n[3, 0, 0 ... 0, 0, 0]\n[2, 0, 0 ... 0, 0, 0]\n[0, 0, 0 ... 0, 0, 0]]"] ;
77 -> 78 ;
79 [label="X[9] <= 44.0\ngini = 0.167\nsamples = 2\nvalue = [[0, 0, 0 ... 0, 0, 0]\n[0, 0, 0 ... 0, 0, 0]\n[0, 0, 2 ... 0, 0, 0]\n[2, 0, 0 ... 0, 0, 0]\n[2, 0, 0 ... 0, 0, 0]\n[0, 0, 0 ... 0, 0, 0]]"] ;
78 -> 79 ;
80 [label="gini = 0.0\nsamples = 1\nvalue = [[0, 0, 0 ... 0, 0, 0]\n[0, 0, 0 ... 0, 0, 0]\n[0, 0, 1 ... 0, 0, 0]\n[1, 0, 0 ... 0, 0, 0]\n[1, 0, 0 ... 0, 0, 0]\n[0, 0, 0 ... 0, 0, 0]]"] ;
79 -> 80 ;
81 [label="gini = 0.0\nsamples = 1\nvalue = [[0, 0, 0 ... 0, 0, 0]\n[0, 0, 0 ... 0, 0, 0]\n[0, 0, 1 ... 0, 0, 0]\n[1, 0, 0 ... 0, 0, 0]\n[1, 0, 0 ... 0, 0, 0]\n[0, 0, 0 ... 0, 0, 0]]"] ;
79 -> 81 ;
82 [label="gini = 0.0\nsamples = 1\nvalue = [[0, 0, 0 ... 0, 0, 0]\n[0, 0, 0 ... 0, 0, 0]\n[0, 0, 1 ... 0, 0, 0]\n[1, 0, 0 ... 0, 0, 0]\n[0, 0, 0 ... 0, 0, 0]\n[0, 0, 0 ... 0, 0, 0]]"] ;
78 -> 82 ;
83 [label="X[2] <= 10139.5\ngini = 0.25\nsamples = 2\nvalue = [[0, 0, 0 ... 0, 0, 0]\n[0, 0, 0 ... 0, 0, 0]\n[0, 0, 2 ... 0, 0, 0]\n[1, 0, 0 ... 0, 0, 0]\n[2, 0, 0 ... 0, 0, 0]\n[0, 0, 0 ... 0, 0, 0]]"] ;
77 -> 83 ;
84 [label="gini = 0.0\nsamples = 1\nvalue = [[0, 0, 0 ... 0, 0, 0]\n[0, 0, 0 ... 0, 0, 0]\n[0, 0, 1 ... 0, 0, 0]\n[0, 0, 0 ... 0, 0, 0]\n[1, 0, 0 ... 0, 0, 0]\n[0, 0, 0 ... 0, 0, 0]]"] ;
83 -> 84 ;
85 [label="gini = 0.0\nsamples = 1\nvalue = [[0, 0, 0 ... 0, 0, 0]\n[0, 0, 0 ... 0, 0, 0]\n[0, 0, 1 ... 0, 0, 0]\n[1, 0, 0 ... 0, 0, 0]\n[1, 0, 0 ... 0, 0, 0]\n[0, 0, 0 ... 0, 0, 0]]"] ;
83 -> 85 ;
86 [label="X[2] <= 6983.5\ngini = 0.415\nsamples = 7\nvalue = [[0, 0, 0 ... 0, 0, 0]\n[0, 0, 0 ... 0, 0, 0]\n[0, 0, 7 ... 0, 0, 0]\n[7, 0, 0 ... 0, 0, 0]\n[7, 0, 0 ... 0, 0, 0]\n[0, 0, 0 ... 0, 0, 0]]"] ;
76 -> 86 ;
87 [label="X[0] <= 18621.0\ngini = 0.167\nsamples = 2\nvalue = [[0, 0, 0 ... 0, 0, 0]\n[0, 0, 0 ... 0, 0, 0]\n[0, 0, 2 ... 0, 0, 0]\n[2, 0, 0 ... 0, 0, 0]\n[2, 0, 0 ... 0, 0, 0]\n[0, 0, 0 ... 0, 0, 0]]"] ;
86 -> 87 ;
88 [label="gini = 0.0\nsamples = 1\nvalue = [[0, 0, 0 ... 0, 0, 0]\n[0, 0, 0 ... 0, 0, 0]\n[0, 0, 1 ... 0, 0, 0]\n[1, 0, 0 ... 0, 0, 0]\n[1, 0, 0 ... 0, 0, 0]\n[0, 0, 0 ... 0, 0, 0]]"] ;
87 -> 88 ;
89 [label="gini = 0.0\nsamples = 1\nvalue = [[0, 0, 0 ... 0, 0, 0]\n[0, 0, 0 ... 0, 0, 0]\n[0, 0, 1 ... 0, 0, 0]\n[1, 0, 0 ... 0, 0, 0]\n[1, 0, 0 ... 0, 0, 0]\n[0, 0, 0 ... 0, 0, 0]]"] ;
87 -> 89 ;
90 [label="X[12] <= 19728.5\ngini = 0.387\nsamples = 5\nvalue = [[0, 0, 0 ... 0, 0, 0]\n[0, 0, 0 ... 0, 0, 0]\n[0, 0, 5 ... 0, 0, 0]\n[5, 0, 0 ... 0, 0, 0]\n[5, 0, 0 ... 0, 0, 0]\n[0, 0, 0 ... 0, 0, 0]]"] ;
86 -> 90 ;
91 [label="X[5] <= 40.5\ngini = 0.167\nsamples = 2\nvalue = [[0, 0, 0 ... 0, 0, 0]\n[0, 0, 0 ... 0, 0, 0]\n[0, 0, 2 ... 0, 0, 0]\n[2, 0, 0 ... 0, 0, 0]\n[2, 0, 0 ... 0, 0, 0]\n[0, 0, 0 ... 0, 0, 0]]"] ;
90 -> 91 ;
92 [label="gini = 0.0\nsamples = 1\nvalue = [[0, 0, 0 ... 0, 0, 0]\n[0, 0, 0 ... 0, 0, 0]\n[0, 0, 1 ... 0, 0, 0]\n[1, 0, 0 ... 0, 0, 0]\n[1, 0, 0 ... 0, 0, 0]\n[0, 0, 0 ... 0, 0, 0]]"] ;
91 -> 92 ;
93 [label="gini = 0.0\nsamples = 1\nvalue = [[0, 0, 0 ... 0, 0, 0]\n[0, 0, 0 ... 0, 0, 0]\n[0, 0, 1 ... 0, 0, 0]\n[1, 0, 0 ... 0, 0, 0]\n[1, 0, 0 ... 0, 0, 0]\n[0, 0, 0 ... 0, 0, 0]]"] ;
91 -> 93 ;
94 [label="X[1] <= 64.5\ngini = 0.333\nsamples = 3\nvalue = [[0, 0, 0 ... 0, 0, 0]\n[0, 0, 0 ... 0, 0, 0]\n[0, 0, 3 ... 0, 0, 0]\n[3, 0, 0 ... 0, 0, 0]\n[3, 0, 0 ... 0, 0, 0]\n[0, 0, 0 ... 0, 0, 0]]"] ;
90 -> 94 ;
95 [label="gini = 0.0\nsamples = 1\nvalue = [[0, 0, 0 ... 0, 0, 0]\n[0, 0, 0 ... 0, 0, 0]\n[0, 0, 1 ... 0, 0, 0]\n[1, 0, 0 ... 0, 0, 0]\n[1, 0, 0 ... 0, 0, 0]\n[0, 0, 0 ... 0, 0, 0]]"] ;
94 -> 95 ;
96 [label="X[5] <= 42.5\ngini = 0.25\nsamples = 2\nvalue = [[0, 0, 0 ... 0, 0, 0]\n[0, 0, 0 ... 0, 0, 0]\n[0, 0, 2 ... 0, 0, 0]\n[2, 0, 0 ... 0, 0, 0]\n[2, 0, 0 ... 0, 0, 0]\n[0, 0, 0 ... 0, 0, 0]]"] ;
94 -> 96 ;
97 [label="gini = 0.0\nsamples = 1\nvalue = [[0, 0, 0 ... 0, 0, 0]\n[0, 0, 0 ... 0, 0, 0]\n[0, 0, 1 ... 0, 0, 0]\n[1, 0, 0 ... 0, 0, 0]\n[1, 0, 0 ... 0, 0, 0]\n[0, 0, 0 ... 0, 0, 0]]"] ;
96 -> 97 ;
98 [label="gini = 0.0\nsamples = 1\nvalue = [[0, 0, 0 ... 0, 0, 0]\n[0, 0, 0 ... 0, 0, 0]\n[0, 0, 1 ... 0, 0, 0]\n[1, 0, 0 ... 0, 0, 0]\n[1, 0, 0 ... 0, 0, 0]\n[0, 0, 0 ... 0, 0, 0]]"] ;
96 -> 98 ;
99 [label="X[4] <= 20216.0\ngini = 0.628\nsamples = 160\nvalue = [[20, 9, 0 ... 0, 0, 0]\n[1, 0, 0 ... 0, 0, 0]\n[0, 0, 0 ... 0, 0, 0]\n[151, 1, 0 ... 0, 0, 0]\n[152, 0, 0 ... 0, 0, 0]\n[0, 3, 3 ... 0, 0, 0]]"] ;
3 -> 99 ;
100 [label="X[3] <= 10.0\ngini = 0.611\nsamples = 105\nvalue = [[6, 0, 0 ... 0, 0, 0]\n[1, 0, 0 ... 0, 0, 0]\n[0, 0, 0 ... 0, 0, 0]\n[101, 1, 0 ... 0, 0, 0]\n[100, 0, 0 ... 0, 0, 0]\n[0, 1, 0 ... 0, 0, 0]]"] ;
99 -> 100 ;
101 [label="X[3] <= 1.5\ngini = 0.612\nsamples = 70\nvalue = [[6, 0, 0 ... 0, 0, 0]\n[0, 0, 0 ... 0, 0, 0]\n[0, 0, 0 ... 0, 0, 0]\n[67, 1, 0 ... 0, 0, 0]\n[66, 0, 0 ... 0, 0, 0]\n[0, 1, 0 ... 0, 0, 0]]"] ;
100 -> 101 ;
102 [label="X[0] <= 7875.0\ngini = 0.48\nsamples = 21\nvalue = [[3, 0, 0 ... 0, 0, 0]\n[0, 0, 0 ... 0, 0, 0]\n[0, 0, 0 ... 0, 0, 0]\n[20, 0, 0 ... 0, 0, 0]\n[20, 0, 0 ... 0, 0, 0]\n[0, 1, 0 ... 0, 0, 0]]"] ;
101 -> 102 ;
103 [label="X[1] <= 42.5\ngini = 0.296\nsamples = 3\nvalue = [[3, 0, 0 ... 0, 0, 0]\n[0, 0, 0 ... 0, 0, 0]\n[0, 0, 0 ... 0, 0, 0]\n[2, 0, 0 ... 0, 0, 0]\n[3, 0, 0 ... 0, 0, 0]\n[0, 0, 0 ... 0, 0, 0]]"] ;
102 -> 103 ;
104 [label="gini = 0.0\nsamples = 1\nvalue = [[1, 0, 0 ... 0, 0, 0]\n[0, 0, 0 ... 0, 0, 0]\n[0, 0, 0 ... 0, 0, 0]\n[0, 0, 0 ... 0, 0, 0]\n[1, 0, 0 ... 0, 0, 0]\n[0, 0, 0 ... 0, 0, 0]]"] ;
103 -> 104 ;
105 [label="X[12] <= 9545.5\ngini = 0.167\nsamples = 2\nvalue = [[2, 0, 0 ... 0, 0, 0]\n[0, 0, 0 ... 0, 0, 0]\n[0, 0, 0 ... 0, 0, 0]\n[2, 0, 0 ... 0, 0, 0]\n[2, 0, 0 ... 0, 0, 0]\n[0, 0, 0 ... 0, 0, 0]]"] ;
103 -> 105 ;
106 [label="gini = 0.0\nsamples = 1\nvalue = [[1, 0, 0 ... 0, 0, 0]\n[0, 0, 0 ... 0, 0, 0]\n[0, 0, 0 ... 0, 0, 0]\n[1, 0, 0 ... 0, 0, 0]\n[1, 0, 0 ... 0, 0, 0]\n[0, 0, 0 ... 0, 0, 0]]"] ;
105 -> 106 ;
107 [label="gini = 0.0\nsamples = 1\nvalue = [[1, 0, 0 ... 0, 0, 0]\n[0, 0, 0 ... 0, 0, 0]\n[0, 0, 0 ... 0, 0, 0]\n[1, 0, 0 ... 0, 0, 0]\n[1, 0, 0 ... 0, 0, 0]\n[0, 0, 0 ... 0, 0, 0]]"] ;
105 -> 107 ;
108 [label="X[11] <= 3958.5\ngini = 0.457\nsamples = 18\nvalue = [[0, 0, 0 ... 0, 0, 0]\n[0, 0, 0 ... 0, 0, 0]\n[0, 0, 0 ... 0, 0, 0]\n[18, 0, 0 ... 0, 0, 0]\n[17, 0, 0 ... 0, 0, 0]\n[0, 1, 0 ... 0, 0, 0]]"] ;
102 -> 108 ;
109 [label="X[12] <= 17517.5\ngini = 0.434\nsamples = 17\nvalue = [[0, 0, 0 ... 0, 0, 0]\n[0, 0, 0 ... 0, 0, 0]\n[0, 0, 0 ... 0, 0, 0]\n[17, 0, 0 ... 0, 0, 0]\n[17, 0, 0 ... 0, 0, 0]\n[0, 1, 0 ... 0, 0, 0]]"] ;
108 -> 109 ;
110 [label="X[12] <= 13575.0\ngini = 0.407\nsamples = 6\nvalue = [[0, 0, 0 ... 0, 0, 0]\n[0, 0, 0 ... 0, 0, 0]\n[0, 0, 0 ... 0, 0, 0]\n[6, 0, 0 ... 0, 0, 0]\n[6, 0, 0 ... 0, 0, 0]\n[0, 1, 0 ... 0, 0, 0]]"] ;
109 -> 110 ;
111 [label="X[2] <= 11251.5\ngini = 0.333\nsamples = 3\nvalue = [[0, 0, 0 ... 0, 0, 0]\n[0, 0, 0 ... 0, 0, 0]\n[0, 0, 0 ... 0, 0, 0]\n[3, 0, 0 ... 0, 0, 0]\n[3, 0, 0 ... 0, 0, 0]\n[0, 1, 0 ... 0, 0, 0]]"] ;
110 -> 111 ;
112 [label="gini = 0.0\nsamples = 1\nvalue = [[0, 0, 0 ... 0, 0, 0]\n[0, 0, 0 ... 0, 0, 0]\n[0, 0, 0 ... 0, 0, 0]\n[1, 0, 0 ... 0, 0, 0]\n[1, 0, 0 ... 0, 0, 0]\n[0, 0, 0 ... 0, 0, 0]]"] ;
111 -> 112 ;
113 [label="X[0] <= 18595.0\ngini = 0.25\nsamples = 2\nvalue = [[0, 0, 0 ... 0, 0, 0]\n[0, 0, 0 ... 0, 0, 0]\n[0, 0, 0 ... 0, 0, 0]\n[2, 0, 0 ... 0, 0, 0]\n[2, 0, 0 ... 0, 0, 0]\n[0, 1, 0 ... 0, 0, 0]]"] ;
111 -> 113 ;
114 [label="gini = 0.0\nsamples = 1\nvalue = [[0, 0, 0 ... 0, 0, 0]\n[0, 0, 0 ... 0, 0, 0]\n[0, 0, 0 ... 0, 0, 0]\n[1, 0, 0 ... 0, 0, 0]\n[1, 0, 0 ... 0, 0, 0]\n[0, 0, 0 ... 0, 0, 0]]"] ;
113 -> 114 ;
115 [label="gini = 0.0\nsamples = 1\nvalue = [[0, 0, 0 ... 0, 0, 0]\n[0, 0, 0 ... 0, 0, 0]\n[0, 0, 0 ... 0, 0, 0]\n[1, 0, 0 ... 0, 0, 0]\n[1, 0, 0 ... 0, 0, 0]\n[0, 1, 0 ... 0, 0, 0]]"] ;
113 -> 115 ;
116 [label="X[12] <= 15973.0\ngini = 0.296\nsamples = 3\nvalue = [[0, 0, 0 ... 0, 0, 0]\n[0, 0, 0 ... 0, 0, 0]\n[0, 0, 0 ... 0, 0, 0]\n[3, 0, 0 ... 0, 0, 0]\n[3, 0, 0 ... 0, 0, 0]\n[0, 0, 0 ... 0, 0, 0]]"] ;
110 -> 116 ;
117 [label="X[13] <= 51.5\ngini = 0.167\nsamples = 2\nvalue = [[0, 0, 0 ... 0, 0, 0]\n[0, 0, 0 ... 0, 0, 0]\n[0, 0, 0 ... 0, 0, 0]\n[2, 0, 0 ... 0, 0, 0]\n[2, 0, 0 ... 0, 0, 0]\n[0, 0, 0 ... 0, 0, 0]]"] ;
116 -> 117 ;
118 [label="gini = 0.0\nsamples = 1\nvalue = [[0, 0, 0 ... 0, 0, 0]\n[0, 0, 0 ... 0, 0, 0]\n[0, 0, 0 ... 0, 0, 0]\n[1, 0, 0 ... 0, 0, 0]\n[1, 0, 0 ... 0, 0, 0]\n[0, 0, 0 ... 0, 0, 0]]"] ;
117 -> 118 ;
119 [label="gini = 0.0\nsamples = 1\nvalue = [[0, 0, 0 ... 0, 0, 0]\n[0, 0, 0 ... 0, 0, 0]\n[0, 0, 0 ... 0, 0, 0]\n[1, 0, 0 ... 0, 0, 0]\n[1, 0, 0 ... 0, 0, 0]\n[0, 0, 0 ... 0, 0, 0]]"] ;
117 -> 119 ;
120 [label="gini = 0.0\nsamples = 1\nvalue = [[0, 0, 0 ... 0, 0, 0]\n[0, 0, 0 ... 0, 0, 0]\n[0, 0, 0 ... 0, 0, 0]\n[1, 0, 0 ... 0, 0, 0]\n[1, 0, 0 ... 0, 0, 0]\n[0, 0, 0 ... 0, 0, 0]]"] ;
116 -> 120 ;
121 [label="X[12] <= 18291.0\ngini = 0.375\nsamples = 11\nvalue = [[0, 0, 0 ... 0, 0, 0]\n[0, 0, 0 ... 0, 0, 0]\n[0, 0, 0 ... 0, 0, 0]\n[11, 0, 0 ... 0, 0, 0]\n[11, 0, 0 ... 0, 0, 0]\n[0, 0, 0 ... 0, 0, 0]]"] ;
109 -> 121 ;
122 [label="X[6] <= 26.0\ngini = 0.292\nsamples = 8\nvalue = [[0, 0, 0 ... 0, 0, 0]\n[0, 0, 0 ... 0, 0, 0]\n[0, 0, 0 ... 0, 0, 0]\n[8, 0, 0 ... 0, 0, 0]\n[8, 0, 0 ... 0, 0, 0]\n[0, 0, 0 ... 0, 0, 0]]"] ;
121 -> 122 ;
123 [label="X[0] <= 16196.5\ngini = 0.222\nsamples = 3\nvalue = [[0, 0, 0 ... 0, 0, 0]\n[0, 0, 0 ... 0, 0, 0]\n[0, 0, 0 ... 0, 0, 0]\n[3, 0, 0 ... 0, 0, 0]\n[3, 0, 0 ... 0, 0, 0]\n[0, 0, 0 ... 0, 0, 0]]"] ;
122 -> 123 ;
124 [label="gini = 0.0\nsamples = 1\nvalue = [[0, 0, 0 ... 0, 0, 0]\n[0, 0, 0 ... 0, 0, 0]\n[0, 0, 0 ... 0, 0, 0]\n[1, 0, 0 ... 0, 0, 0]\n[1, 0, 0 ... 0, 0, 0]\n[0, 0, 0 ... 0, 0, 0]]"] ;
123 -> 124 ;
125 [label="X[2] <= 21607.0\ngini = 0.167\nsamples = 2\nvalue = [[0, 0, 0 ... 0, 0, 0]\n[0, 0, 0 ... 0, 0, 0]\n[0, 0, 0 ... 0, 0, 0]\n[2, 0, 0 ... 0, 0, 0]\n[2, 0, 0 ... 0, 0, 0]\n[0, 0, 0 ... 0, 0, 0]]"] ;
123 -> 125 ;
126 [label="gini = 0.0\nsamples = 1\nvalue = [[0, 0, 0 ... 0, 0, 0]\n[0, 0, 0 ... 0, 0, 0]\n[0, 0, 0 ... 0, 0, 0]\n[1, 0, 0 ... 0, 0, 0]\n[1, 0, 0 ... 0, 0, 0]\n[0, 0, 0 ... 0, 0, 0]]"] ;
125 -> 126 ;
127 [label="gini = 0.0\nsamples = 1\nvalue = [[0, 0, 0 ... 0, 0, 0]\n[0, 0, 0 ... 0, 0, 0]\n[0, 0, 0 ... 0, 0, 0]\n[1, 0, 0 ... 0, 0, 0]\n[1, 0, 0 ... 0, 0, 0]\n[0, 0, 0 ... 0, 0, 0]]"] ;
125 -> 127 ;
128 [label="X[9] <= 44.0\ngini = 0.267\nsamples = 5\nvalue = [[0, 0, 0 ... 0, 0, 0]\n[0, 0, 0 ... 0, 0, 0]\n[0, 0, 0 ... 0, 0, 0]\n[5, 0, 0 ... 0, 0, 0]\n[5, 0, 0 ... 0, 0, 0]\n[0, 0, 0 ... 0, 0, 0]]"] ;
122 -> 128 ;
129 [label="X[1] <= 64.5\ngini = 0.167\nsamples = 2\nvalue = [[0, 0, 0 ... 0, 0, 0]\n[0, 0, 0 ... 0, 0, 0]\n[0, 0, 0 ... 0, 0, 0]\n[2, 0, 0 ... 0, 0, 0]\n[2, 0, 0 ... 0, 0, 0]\n[0, 0, 0 ... 0, 0, 0]]"] ;
128 -> 129 ;
130 [label="gini = 0.0\nsamples = 1\nvalue = [[0, 0, 0 ... 0, 0, 0]\n[0, 0, 0 ... 0, 0, 0]\n[0, 0, 0 ... 0, 0, 0]\n[1, 0, 0 ... 0, 0, 0]\n[1, 0, 0 ... 0, 0, 0]\n[0, 0, 0 ... 0, 0, 0]]"] ;
129 -> 130 ;
131 [label="gini = 0.0\nsamples = 1\nvalue = [[0, 0, 0 ... 0, 0, 0]\n[0, 0, 0 ... 0, 0, 0]\n[0, 0, 0 ... 0, 0, 0]\n[1, 0, 0 ... 0, 0, 0]\n[1, 0, 0 ... 0, 0, 0]\n[0, 0, 0 ... 0, 0, 0]]"] ;
129 -> 131 ;
132 [label="X[0] <= 11852.5\ngini = 0.222\nsamples = 3\nvalue = [[0, 0, 0 ... 0, 0, 0]\n[0, 0, 0 ... 0, 0, 0]\n[0, 0, 0 ... 0, 0, 0]\n[3, 0, 0 ... 0, 0, 0]\n[3, 0, 0 ... 0, 0, 0]\n[0, 0, 0 ... 0, 0, 0]]"] ;
128 -> 132 ;
133 [label="gini = 0.0\nsamples = 1\nvalue = [[0, 0, 0 ... 0, 0, 0]\n[0, 0, 0 ... 0, 0, 0]\n[0, 0, 0 ... 0, 0, 0]\n[1, 0, 0 ... 0, 0, 0]\n[1, 0, 0 ... 0, 0, 0]\n[0, 0, 0 ... 0, 0, 0]]"] ;
132 -> 133 ;
134 [label="X[6] <= 79.5\ngini = 0.167\nsamples = 2\nvalue = [[0, 0, 0 ... 0, 0, 0]\n[0, 0, 0 ... 0, 0, 0]\n[0, 0, 0 ... 0, 0, 0]\n[2, 0, 0 ... 0, 0, 0]\n[2, 0, 0 ... 0, 0, 0]\n[0, 0, 0 ... 0, 0, 0]]"] ;
132 -> 134 ;
135 [label="gini = 0.0\nsamples = 1\nvalue = [[0, 0, 0 ... 0, 0, 0]\n[0, 0, 0 ... 0, 0, 0]\n[0, 0, 0 ... 0, 0, 0]\n[1, 0, 0 ... 0, 0, 0]\n[1, 0, 0 ... 0, 0, 0]\n[0, 0, 0 ... 0, 0, 0]]"] ;
134 -> 135 ;
136 [label="gini = 0.0\nsamples = 1\nvalue = [[0, 0, 0 ... 0, 0, 0]\n[0, 0, 0 ... 0, 0, 0]\n[0, 0, 0 ... 0, 0, 0]\n[1, 0, 0 ... 0, 0, 0]\n[1, 0, 0 ... 0, 0, 0]\n[0, 0, 0 ... 0, 0, 0]]"] ;
134 -> 136 ;
137 [label="X[7] <= 70.0\ngini = 0.333\nsamples = 3\nvalue = [[0, 0, 0 ... 0, 0, 0]\n[0, 0, 0 ... 0, 0, 0]\n[0, 0, 0 ... 0, 0, 0]\n[3, 0, 0 ... 0, 0, 0]\n[3, 0, 0 ... 0, 0, 0]\n[0, 0, 0 ... 0, 0, 0]]"] ;
121 -> 137 ;
138 [label="gini = 0.0\nsamples = 1\nvalue = [[0, 0, 0 ... 0, 0, 0]\n[0, 0, 0 ... 0, 0, 0]\n[0, 0, 0 ... 0, 0, 0]\n[1, 0, 0 ... 0, 0, 0]\n[1, 0, 0 ... 0, 0, 0]\n[0, 0, 0 ... 0, 0, 0]]"] ;
137 -> 138 ;
139 [label="X[12] <= 19686.0\ngini = 0.25\nsamples = 2\nvalue = [[0, 0, 0 ... 0, 0, 0]\n[0, 0, 0 ... 0, 0, 0]\n[0, 0, 0 ... 0, 0, 0]\n[2, 0, 0 ... 0, 0, 0]\n[2, 0, 0 ... 0, 0, 0]\n[0, 0, 0 ... 0, 0, 0]]"] ;
137 -> 139 ;
140 [label="gini = 0.0\nsamples = 1\nvalue = [[0, 0, 0 ... 0, 0, 0]\n[0, 0, 0 ... 0, 0, 0]\n[0, 0, 0 ... 0, 0, 0]\n[1, 0, 0 ... 0, 0, 0]\n[1, 0, 0 ... 0, 0, 0]\n[0, 0, 0 ... 0, 0, 0]]"] ;
139 -> 140 ;
141 [label="gini = 0.0\nsamples = 1\nvalue = [[0, 0, 0 ... 0, 0, 0]\n[0, 0, 0 ... 0, 0, 0]\n[0, 0, 0 ... 0, 0, 0]\n[1, 0, 0 ... 0, 0, 0]\n[1, 0, 0 ... 0, 0, 0]\n[0, 0, 0 ... 0, 0, 0]]"] ;
139 -> 141 ;
142 [label="gini = 0.0\nsamples = 1\nvalue = [[0, 0, 0 ... 0, 0, 0]\n[0, 0, 0 ... 0, 0, 0]\n[0, 0, 0 ... 0, 0, 0]\n[1, 0, 0 ... 0, 0, 0]\n[0, 0, 0 ... 0, 0, 0]\n[0, 0, 0 ... 0, 0, 0]]"] ;
108 -> 142 ;
143 [label="X[3] <= 5.5\ngini = 0.596\nsamples = 49\nvalue = [[3, 0, 0 ... 0, 0, 0]\n[0, 0, 0 ... 0, 0, 0]\n[0, 0, 0 ... 0, 0, 0]\n[47, 1, 0 ... 0, 0, 0]\n[46, 0, 0 ... 0, 0, 0]\n[0, 0, 0 ... 0, 0, 0]]"] ;
101 -> 143 ;
144 [label="X[4] <= 16576.5\ngini = 0.56\nsamples = 33\nvalue = [[1, 0, 0 ... 0, 0, 0]\n[0, 0, 0 ... 0, 0, 0]\n[0, 0, 0 ... 0, 0, 0]\n[33, 0, 0 ... 0, 0, 0]\n[31, 0, 0 ... 0, 0, 0]\n[0, 0, 0 ... 0, 0, 0]]"] ;
143 -> 144 ;
145 [label="X[3] <= 3.5\ngini = 0.537\nsamples = 18\nvalue = [[1, 0, 0 ... 0, 0, 0]\n[0, 0, 0 ... 0, 0, 0]\n[0, 0, 0 ... 0, 0, 0]\n[18, 0, 0 ... 0, 0, 0]\n[17, 0, 0 ... 0, 0, 0]\n[0, 0, 0 ... 0, 0, 0]]"] ;
144 -> 145 ;
146 [label="X[12] <= 17517.5\ngini = 0.388\nsamples = 7\nvalue = [[0, 0, 0 ... 0, 0, 0]\n[0, 0, 0 ... 0, 0, 0]\n[0, 0, 0 ... 0, 0, 0]\n[7, 0, 0 ... 0, 0, 0]\n[7, 0, 0 ... 0, 0, 0]\n[0, 0, 0 ... 0, 0, 0]]"] ;
145 -> 146 ;
147 [label="X[0] <= 19974.0\ngini = 0.333\nsamples = 3\nvalue = [[0, 0, 0 ... 0, 0, 0]\n[0, 0, 0 ... 0, 0, 0]\n[0, 0, 0 ... 0, 0, 0]\n[3, 0, 0 ... 0, 0, 0]\n[3, 0, 0 ... 0, 0, 0]\n[0, 0, 0 ... 0, 0, 0]]"] ;
146 -> 147 ;
148 [label="gini = 0.0\nsamples = 1\nvalue = [[0, 0, 0 ... 0, 0, 0]\n[0, 0, 0 ... 0, 0, 0]\n[0, 0, 0 ... 0, 0, 0]\n[1, 0, 0 ... 0, 0, 0]\n[1, 0, 0 ... 0, 0, 0]\n[0, 0, 0 ... 0, 0, 0]]"] ;
147 -> 148 ;
149 [label="X[2] <= 17968.0\ngini = 0.25\nsamples = 2\nvalue = [[0, 0, 0 ... 0, 0, 0]\n[0, 0, 0 ... 0, 0, 0]\n[0, 0, 0 ... 0, 0, 0]\n[2, 0, 0 ... 0, 0, 0]\n[2, 0, 0 ... 0, 0, 0]\n[0, 0, 0 ... 0, 0, 0]]"] ;
147 -> 149 ;
150 [label="gini = 0.0\nsamples = 1\nvalue = [[0, 0, 0 ... 0, 0, 0]\n[0, 0, 0 ... 0, 0, 0]\n[0, 0, 0 ... 0, 0, 0]\n[1, 0, 0 ... 0, 0, 0]\n[1, 0, 0 ... 0, 0, 0]\n[0, 0, 0 ... 0, 0, 0]]"] ;
149 -> 150 ;
151 [label="gini = 0.0\nsamples = 1\nvalue = [[0, 0, 0 ... 0, 0, 0]\n[0, 0, 0 ... 0, 0, 0]\n[0, 0, 0 ... 0, 0, 0]\n[1, 0, 0 ... 0, 0, 0]\n[1, 0, 0 ... 0, 0, 0]\n[0, 0, 0 ... 0, 0, 0]]"] ;
149 -> 151 ;
152 [label="X[6] <= 38.0\ngini = 0.25\nsamples = 4\nvalue = [[0, 0, 0 ... 0, 0, 0]\n[0, 0, 0 ... 0, 0, 0]\n[0, 0, 0 ... 0, 0, 0]\n[4, 0, 0 ... 0, 0, 0]\n[4, 0, 0 ... 0, 0, 0]\n[0, 0, 0 ... 0, 0, 0]]"] ;
146 -> 152 ;
153 [label="X[7] <= 79.5\ngini = 0.167\nsamples = 2\nvalue = [[0, 0, 0 ... 0, 0, 0]\n[0, 0, 0 ... 0, 0, 0]\n[0, 0, 0 ... 0, 0, 0]\n[2, 0, 0 ... 0, 0, 0]\n[2, 0, 0 ... 0, 0, 0]\n[0, 0, 0 ... 0, 0, 0]]"] ;
152 -> 153 ;
154 [label="gini = 0.0\nsamples = 1\nvalue = [[0, 0, 0 ... 0, 0, 0]\n[0, 0, 0 ... 0, 0, 0]\n[0, 0, 0 ... 0, 0, 0]\n[1, 0, 0 ... 0, 0, 0]\n[1, 0, 0 ... 0, 0, 0]\n[0, 0, 0 ... 0, 0, 0]]"] ;
153 -> 154 ;
155 [label="gini = 0.0\nsamples = 1\nvalue = [[0, 0, 0 ... 0, 0, 0]\n[0, 0, 0 ... 0, 0, 0]\n[0, 0, 0 ... 0, 0, 0]\n[1, 0, 0 ... 0, 0, 0]\n[1, 0, 0 ... 0, 0, 0]\n[0, 0, 0 ... 0, 0, 0]]"] ;
153 -> 155 ;
156 [label="X[5] <= 57.5\ngini = 0.167\nsamples = 2\nvalue = [[0, 0, 0 ... 0, 0, 0]\n[0, 0, 0 ... 0, 0, 0]\n[0, 0, 0 ... 0, 0, 0]\n[2, 0, 0 ... 0, 0, 0]\n[2, 0, 0 ... 0, 0, 0]\n[0, 0, 0 ... 0, 0, 0]]"] ;
152 -> 156 ;
157 [label="gini = 0.0\nsamples = 1\nvalue = [[0, 0, 0 ... 0, 0, 0]\n[0, 0, 0 ... 0, 0, 0]\n[0, 0, 0 ... 0, 0, 0]\n[1, 0, 0 ... 0, 0, 0]\n[1, 0, 0 ... 0, 0, 0]\n[0, 0, 0 ... 0, 0, 0]]"] ;
156 -> 157 ;
158 [label="gini = 0.0\nsamples = 1\nvalue = [[0, 0, 0 ... 0, 0, 0]\n[0, 0, 0 ... 0, 0, 0]\n[0, 0, 0 ... 0, 0, 0]\n[1, 0, 0 ... 0, 0, 0]\n[1, 0, 0 ... 0, 0, 0]\n[0, 0, 0 ... 0, 0, 0]]"] ;
156 -> 158 ;
159 [label="X[11] <= 5911.0\ngini = 0.46\nsamples = 11\nvalue = [[1, 0, 0 ... 0, 0, 0]\n[0, 0, 0 ... 0, 0, 0]\n[0, 0, 0 ... 0, 0, 0]\n[11, 0, 0 ... 0, 0, 0]\n[10, 0, 0 ... 0, 0, 0]\n[0, 0, 0 ... 0, 0, 0]]"] ;
145 -> 159 ;
160 [label="X[12] <= 17922.5\ngini = 0.427\nsamples = 10\nvalue = [[1, 0, 0 ... 0, 0, 0]\n[0, 0, 0 ... 0, 0, 0]\n[0, 0, 0 ... 0, 0, 0]\n[10, 0, 0 ... 0, 0, 0]\n[10, 0, 0 ... 0, 0, 0]\n[0, 0, 0 ... 0, 0, 0]]"] ;
159 -> 160 ;
161 [label="X[13] <= 48.5\ngini = 0.375\nsamples = 4\nvalue = [[0, 0, 0 ... 0, 0, 0]\n[0, 0, 0 ... 0, 0, 0]\n[0, 0, 0 ... 0, 0, 0]\n[4, 0, 0 ... 0, 0, 0]\n[4, 0, 0 ... 0, 0, 0]\n[0, 0, 0 ... 0, 0, 0]]"] ;
160 -> 161 ;
162 [label="gini = 0.0\nsamples = 1\nvalue = [[0, 0, 0 ... 0, 0, 0]\n[0, 0, 0 ... 0, 0, 0]\n[0, 0, 0 ... 0, 0, 0]\n[1, 0, 0 ... 0, 0, 0]\n[1, 0, 0 ... 0, 0, 0]\n[0, 0, 0 ... 0, 0, 0]]"] ;
161 -> 162 ;
163 [label="X[0] <= 18999.5\ngini = 0.333\nsamples = 3\nvalue = [[0, 0, 0 ... 0, 0, 0]\n[0, 0, 0 ... 0, 0, 0]\n[0, 0, 0 ... 0, 0, 0]\n[3, 0, 0 ... 0, 0, 0]\n[3, 0, 0 ... 0, 0, 0]\n[0, 0, 0 ... 0, 0, 0]]"] ;
161 -> 163 ;
164 [label="gini = 0.0\nsamples = 1\nvalue = [[0, 0, 0 ... 0, 0, 0]\n[0, 0, 0 ... 0, 0, 0]\n[0, 0, 0 ... 0, 0, 0]\n[1, 0, 0 ... 0, 0, 0]\n[1, 0, 0 ... 0, 0, 0]\n[0, 0, 0 ... 0, 0, 0]]"] ;
163 -> 164 ;
165 [label="X[12] <= 13866.0\ngini = 0.25\nsamples = 2\nvalue = [[0, 0, 0 ... 0, 0, 0]\n[0, 0, 0 ... 0, 0, 0]\n[0, 0, 0 ... 0, 0, 0]\n[2, 0, 0 ... 0, 0, 0]\n[2, 0, 0 ... 0, 0, 0]\n[0, 0, 0 ... 0, 0, 0]]"] ;
163 -> 165 ;
166 [label="gini = 0.0\nsamples = 1\nvalue = [[0, 0, 0 ... 0, 0, 0]\n[0, 0, 0 ... 0, 0, 0]\n[0, 0, 0 ... 0, 0, 0]\n[1, 0, 0 ... 0, 0, 0]\n[1, 0, 0 ... 0, 0, 0]\n[0, 0, 0 ... 0, 0, 0]]"] ;
165 -> 166 ;
167 [label="gini = 0.0\nsamples = 1\nvalue = [[0, 0, 0 ... 0, 0, 0]\n[0, 0, 0 ... 0, 0, 0]\n[0, 0, 0 ... 0, 0, 0]\n[1, 0, 0 ... 0, 0, 0]\n[1, 0, 0 ... 0, 0, 0]\n[0, 0, 0 ... 0, 0, 0]]"] ;
165 -> 167 ;
168 [label="X[12] <= 18621.0\ngini = 0.352\nsamples = 6\nvalue = [[1, 0, 0 ... 0, 0, 0]\n[0, 0, 0 ... 0, 0, 0]\n[0, 0, 0 ... 0, 0, 0]\n[6, 0, 0 ... 0, 0, 0]\n[6, 0, 0 ... 0, 0, 0]\n[0, 0, 0 ... 0, 0, 0]]"] ;
160 -> 168 ;
169 [label="X[6] <= 60.5\ngini = 0.229\nsamples = 4\nvalue = [[0, 0, 0 ... 0, 0, 0]\n[0, 0, 0 ... 0, 0, 0]\n[0, 0, 0 ... 0, 0, 0]\n[4, 0, 0 ... 0, 0, 0]\n[4, 0, 0 ... 0, 0, 0]\n[0, 0, 0 ... 0, 0, 0]]"] ;
168 -> 169 ;
170 [label="X[7] <= 55.5\ngini = 0.167\nsamples = 2\nvalue = [[0, 0, 0 ... 0, 0, 0]\n[0, 0, 0 ... 0, 0, 0]\n[0, 0, 0 ... 0, 0, 0]\n[2, 0, 0 ... 0, 0, 0]\n[2, 0, 0 ... 0, 0, 0]\n[0, 0, 0 ... 0, 0, 0]]"] ;
169 -> 170 ;
171 [label="gini = 0.0\nsamples = 1\nvalue = [[0, 0, 0 ... 0, 0, 0]\n[0, 0, 0 ... 0, 0, 0]\n[0, 0, 0 ... 0, 0, 0]\n[1, 0, 0 ... 0, 0, 0]\n[1, 0, 0 ... 0, 0, 0]\n[0, 0, 0 ... 0, 0, 0]]"] ;
170 -> 171 ;
172 [label="gini = 0.0\nsamples = 1\nvalue = [[0, 0, 0 ... 0, 0, 0]\n[0, 0, 0 ... 0, 0, 0]\n[0, 0, 0 ... 0, 0, 0]\n[1, 0, 0 ... 0, 0, 0]\n[1, 0, 0 ... 0, 0, 0]\n[0, 0, 0 ... 0, 0, 0]]"] ;
170 -> 172 ;
173 [label="X[5] <= 59.0\ngini = 0.083\nsamples = 2\nvalue = [[0, 0, 0 ... 0, 0, 0]\n[0, 0, 0 ... 0, 0, 0]\n[0, 0, 0 ... 0, 0, 0]\n[2, 0, 0 ... 0, 0, 0]\n[2, 0, 0 ... 0, 0, 0]\n[0, 0, 0 ... 0, 0, 0]]"] ;
169 -> 173 ;
174 [label="gini = 0.0\nsamples = 1\nvalue = [[0, 0, 0 ... 0, 0, 0]\n[0, 0, 0 ... 0, 0, 0]\n[0, 0, 0 ... 0, 0, 0]\n[1, 0, 0 ... 0, 0, 0]\n[1, 0, 0 ... 0, 0, 0]\n[0, 0, 0 ... 0, 0, 0]]"] ;
173 -> 174 ;
175 [label="gini = 0.0\nsamples = 1\nvalue = [[0, 0, 0 ... 0, 0, 0]\n[0, 0, 0 ... 0, 0, 0]\n[0, 0, 0 ... 0, 0, 0]\n[1, 0, 0 ... 0, 0, 0]\n[1, 0, 0 ... 0, 0, 0]\n[0, 0, 0 ... 0, 0, 0]]"] ;
173 -> 175 ;
176 [label="X[5] <= 59.0\ngini = 0.25\nsamples = 2\nvalue = [[1, 0, 0 ... 0, 0, 0]\n[0, 0, 0 ... 0, 0, 0]\n[0, 0, 0 ... 0, 0, 0]\n[2, 0, 0 ... 0, 0, 0]\n[2, 0, 0 ... 0, 0, 0]\n[0, 0, 0 ... 0, 0, 0]]"] ;
168 -> 176 ;
177 [label="gini = 0.0\nsamples = 1\nvalue = [[0, 0, 0 ... 0, 0, 0]\n[0, 0, 0 ... 0, 0, 0]\n[0, 0, 0 ... 0, 0, 0]\n[1, 0, 0 ... 0, 0, 0]\n[1, 0, 0 ... 0, 0, 0]\n[0, 0, 0 ... 0, 0, 0]]"] ;
176 -> 177 ;
178 [label="gini = 0.0\nsamples = 1\nvalue = [[1, 0, 0 ... 0, 0, 0]\n[0, 0, 0 ... 0, 0, 0]\n[0, 0, 0 ... 0, 0, 0]\n[1, 0, 0 ... 0, 0, 0]\n[1, 0, 0 ... 0, 0, 0]\n[0, 0, 0 ... 0, 0, 0]]"] ;
176 -> 178 ;
179 [label="gini = 0.0\nsamples = 1\nvalue = [[0, 0, 0 ... 0, 0, 0]\n[0, 0, 0 ... 0, 0, 0]\n[0, 0, 0 ... 0, 0, 0]\n[1, 0, 0 ... 0, 0, 0]\n[0, 0, 0 ... 0, 0, 0]\n[0, 0, 0 ... 0, 0, 0]]"] ;
159 -> 179 ;
180 [label="X[12] <= 18476.5\ngini = 0.418\nsamples = 15\nvalue = [[0, 0, 0 ... 0, 0, 0]\n[0, 0, 0 ... 0, 0, 0]\n[0, 0, 0 ... 0, 0, 0]\n[15, 0, 0 ... 0, 0, 0]\n[14, 0, 0 ... 0, 0, 0]\n[0, 0, 0 ... 0, 0, 0]]"] ;
144 -> 180 ;
181 [label="X[12] <= 18121.5\ngini = 0.377\nsamples = 12\nvalue = [[0, 0, 0 ... 0, 0, 0]\n[0, 0, 0 ... 0, 0, 0]\n[0, 0, 0 ... 0, 0, 0]\n[12, 0, 0 ... 0, 0, 0]\n[11, 0, 0 ... 0, 0, 0]\n[0, 0, 0 ... 0, 0, 0]]"] ;
180 -> 181 ;
182 [label="X[6] <= 15.5\ngini = 0.25\nsamples = 2\nvalue = [[0, 0, 0 ... 0, 0, 0]\n[0, 0, 0 ... 0, 0, 0]\n[0, 0, 0 ... 0, 0, 0]\n[2, 0, 0 ... 0, 0, 0]\n[2, 0, 0 ... 0, 0, 0]\n[0, 0, 0 ... 0, 0, 0]]"] ;
181 -> 182 ;
183 [label="gini = 0.0\nsamples = 1\nvalue = [[0, 0, 0 ... 0, 0, 0]\n[0, 0, 0 ... 0, 0, 0]\n[0, 0, 0 ... 0, 0, 0]\n[1, 0, 0 ... 0, 0, 0]\n[1, 0, 0 ... 0, 0, 0]\n[0, 0, 0 ... 0, 0, 0]]"] ;
182 -> 183 ;
184 [label="gini = 0.0\nsamples = 1\nvalue = [[0, 0, 0 ... 0, 0, 0]\n[0, 0, 0 ... 0, 0, 0]\n[0, 0, 0 ... 0, 0, 0]\n[1, 0, 0 ... 0, 0, 0]\n[1, 0, 0 ... 0, 0, 0]\n[0, 0, 0 ... 0, 0, 0]]"] ;
182 -> 184 ;
185 [label="X[0] <= 14790.5\ngini = 0.327\nsamples = 10\nvalue = [[0, 0, 0 ... 0, 0, 0]\n[0, 0, 0 ... 0, 0, 0]\n[0, 0, 0 ... 0, 0, 0]\n[10, 0, 0 ... 0, 0, 0]\n[9, 0, 0 ... 0, 0, 0]\n[0, 0, 0 ... 0, 0, 0]]"] ;
181 -> 185 ;
186 [label="gini = 0.0\nsamples = 1\nvalue = [[0, 0, 0 ... 0, 0, 0]\n[0, 0, 0 ... 0, 0, 0]\n[0, 0, 0 ... 0, 0, 0]\n[1, 0, 0 ... 0, 0, 0]\n[0, 0, 0 ... 0, 0, 0]\n[0, 0, 0 ... 0, 0, 0]]"] ;
185 -> 186 ;
187 [label="X[6] <= 26.5\ngini = 0.292\nsamples = 9\nvalue = [[0, 0, 0 ... 0, 0, 0]\n[0, 0, 0 ... 0, 0, 0]\n[0, 0, 0 ... 0, 0, 0]\n[9, 0, 0 ... 0, 0, 0]\n[9, 0, 0 ... 0, 0, 0]\n[0, 0, 0 ... 0, 0, 0]]"] ;
185 -> 187 ;
188 [label="X[13] <= 18.0\ngini = 0.185\nsamples = 3\nvalue = [[0, 0, 0 ... 0, 0, 0]\n[0, 0, 0 ... 0, 0, 0]\n[0, 0, 0 ... 0, 0, 0]\n[3, 0, 0 ... 0, 0, 0]\n[3, 0, 0 ... 0, 0, 0]\n[0, 0, 0 ... 0, 0, 0]]"] ;
187 -> 188 ;
189 [label="gini = 0.0\nsamples = 1\nvalue = [[0, 0, 0 ... 0, 0, 0]\n[0, 0, 0 ... 0, 0, 0]\n[0, 0, 0 ... 0, 0, 0]\n[1, 0, 0 ... 0, 0, 0]\n[1, 0, 0 ... 0, 0, 0]\n[0, 0, 0 ... 0, 0, 0]]"] ;
188 -> 189 ;
190 [label="X[7] <= 54.5\ngini = 0.083\nsamples = 2\nvalue = [[0, 0, 0 ... 0, 0, 0]\n[0, 0, 0 ... 0, 0, 0]\n[0, 0, 0 ... 0, 0, 0]\n[2, 0, 0 ... 0, 0, 0]\n[2, 0, 0 ... 0, 0, 0]\n[0, 0, 0 ... 0, 0, 0]]"] ;
188 -> 190 ;
191 [label="gini = 0.0\nsamples = 1\nvalue = [[0, 0, 0 ... 0, 0, 0]\n[0, 0, 0 ... 0, 0, 0]\n[0, 0, 0 ... 0, 0, 0]\n[1, 0, 0 ... 0, 0, 0]\n[1, 0, 0 ... 0, 0, 0]\n[0, 0, 0 ... 0, 0, 0]]"] ;
190 -> 191 ;
192 [label="gini = 0.0\nsamples = 1\nvalue = [[0, 0, 0 ... 0, 0, 0]\n[0, 0, 0 ... 0, 0, 0]\n[0, 0, 0 ... 0, 0, 0]\n[1, 0, 0 ... 0, 0, 0]\n[1, 0, 0 ... 0, 0, 0]\n[0, 0, 0 ... 0, 0, 0]]"] ;
190 -> 192 ;
193 [label="X[2] <= 2276.0\ngini = 0.278\nsamples = 6\nvalue = [[0, 0, 0 ... 0, 0, 0]\n[0, 0, 0 ... 0, 0, 0]\n[0, 0, 0 ... 0, 0, 0]\n[6, 0, 0 ... 0, 0, 0]\n[6, 0, 0 ... 0, 0, 0]\n[0, 0, 0 ... 0, 0, 0]]"] ;
187 -> 193 ;
194 [label="gini = 0.0\nsamples = 1\nvalue = [[0, 0, 0 ... 0, 0, 0]\n[0, 0, 0 ... 0, 0, 0]\n[0, 0, 0 ... 0, 0, 0]\n[1, 0, 0 ... 0, 0, 0]\n[1, 0, 0 ... 0, 0, 0]\n[0, 0, 0 ... 0, 0, 0]]"] ;
193 -> 194 ;
195 [label="X[2] <= 7968.5\ngini = 0.267\nsamples = 5\nvalue = [[0, 0, 0 ... 0, 0, 0]\n[0, 0, 0 ... 0, 0, 0]\n[0, 0, 0 ... 0, 0, 0]\n[5, 0, 0 ... 0, 0, 0]\n[5, 0, 0 ... 0, 0, 0]\n[0, 0, 0 ... 0, 0, 0]]"] ;
193 -> 195 ;
196 [label="gini = 0.0\nsamples = 1\nvalue = [[0, 0, 0 ... 0, 0, 0]\n[0, 0, 0 ... 0, 0, 0]\n[0, 0, 0 ... 0, 0, 0]\n[1, 0, 0 ... 0, 0, 0]\n[1, 0, 0 ... 0, 0, 0]\n[0, 0, 0 ... 0, 0, 0]]"] ;
195 -> 196 ;
197 [label="X[7] <= 79.5\ngini = 0.25\nsamples = 4\nvalue = [[0, 0, 0 ... 0, 0, 0]\n[0, 0, 0 ... 0, 0, 0]\n[0, 0, 0 ... 0, 0, 0]\n[4, 0, 0 ... 0, 0, 0]\n[4, 0, 0 ... 0, 0, 0]\n[0, 0, 0 ... 0, 0, 0]]"] ;
195 -> 197 ;
198 [label="X[13] <= 77.0\ngini = 0.167\nsamples = 2\nvalue = [[0, 0, 0 ... 0, 0, 0]\n[0, 0, 0 ... 0, 0, 0]\n[0, 0, 0 ... 0, 0, 0]\n[2, 0, 0 ... 0, 0, 0]\n[2, 0, 0 ... 0, 0, 0]\n[0, 0, 0 ... 0, 0, 0]]"] ;
197 -> 198 ;
199 [label="gini = 0.0\nsamples = 1\nvalue = [[0, 0, 0 ... 0, 0, 0]\n[0, 0, 0 ... 0, 0, 0]\n[0, 0, 0 ... 0, 0, 0]\n[1, 0, 0 ... 0, 0, 0]\n[1, 0, 0 ... 0, 0, 0]\n[0, 0, 0 ... 0, 0, 0]]"] ;
198 -> 199 ;
200 [label="gini = 0.0\nsamples = 1\nvalue = [[0, 0, 0 ... 0, 0, 0]\n[0, 0, 0 ... 0, 0, 0]\n[0, 0, 0 ... 0, 0, 0]\n[1, 0, 0 ... 0, 0, 0]\n[1, 0, 0 ... 0, 0, 0]\n[0, 0, 0 ... 0, 0, 0]]"] ;
198 -> 200 ;
201 [label="X[13] <= 77.0\ngini = 0.167\nsamples = 2\nvalue = [[0, 0, 0 ... 0, 0, 0]\n[0, 0, 0 ... 0, 0, 0]\n[0, 0, 0 ... 0, 0, 0]\n[2, 0, 0 ... 0, 0, 0]\n[2, 0, 0 ... 0, 0, 0]\n[0, 0, 0 ... 0, 0, 0]]"] ;
197 -> 201 ;
202 [label="gini = 0.0\nsamples = 1\nvalue = [[0, 0, 0 ... 0, 0, 0]\n[0, 0, 0 ... 0, 0, 0]\n[0, 0, 0 ... 0, 0, 0]\n[1, 0, 0 ... 0, 0, 0]\n[1, 0, 0 ... 0, 0, 0]\n[0, 0, 0 ... 0, 0, 0]]"] ;
201 -> 202 ;
203 [label="gini = 0.0\nsamples = 1\nvalue = [[0, 0, 0 ... 0, 0, 0]\n[0, 0, 0 ... 0, 0, 0]\n[0, 0, 0 ... 0, 0, 0]\n[1, 0, 0 ... 0, 0, 0]\n[1, 0, 0 ... 0, 0, 0]\n[0, 0, 0 ... 0, 0, 0]]"] ;
201 -> 203 ;
204 [label="X[12] <= 18975.5\ngini = 0.333\nsamples = 3\nvalue = [[0, 0, 0 ... 0, 0, 0]\n[0, 0, 0 ... 0, 0, 0]\n[0, 0, 0 ... 0, 0, 0]\n[3, 0, 0 ... 0, 0, 0]\n[3, 0, 0 ... 0, 0, 0]\n[0, 0, 0 ... 0, 0, 0]]"] ;
180 -> 204 ;
205 [label="gini = 0.0\nsamples = 1\nvalue = [[0, 0, 0 ... 0, 0, 0]\n[0, 0, 0 ... 0, 0, 0]\n[0, 0, 0 ... 0, 0, 0]\n[1, 0, 0 ... 0, 0, 0]\n[1, 0, 0 ... 0, 0, 0]\n[0, 0, 0 ... 0, 0, 0]]"] ;
204 -> 205 ;
206 [label="X[0] <= 20053.0\ngini = 0.25\nsamples = 2\nvalue = [[0, 0, 0 ... 0, 0, 0]\n[0, 0, 0 ... 0, 0, 0]\n[0, 0, 0 ... 0, 0, 0]\n[2, 0, 0 ... 0, 0, 0]\n[2, 0, 0 ... 0, 0, 0]\n[0, 0, 0 ... 0, 0, 0]]"] ;
204 -> 206 ;
207 [label="gini = 0.0\nsamples = 1\nvalue = [[0, 0, 0 ... 0, 0, 0]\n[0, 0, 0 ... 0, 0, 0]\n[0, 0, 0 ... 0, 0, 0]\n[1, 0, 0 ... 0, 0, 0]\n[1, 0, 0 ... 0, 0, 0]\n[0, 0, 0 ... 0, 0, 0]]"] ;
206 -> 207 ;
208 [label="gini = 0.0\nsamples = 1\nvalue = [[0, 0, 0 ... 0, 0, 0]\n[0, 0, 0 ... 0, 0, 0]\n[0, 0, 0 ... 0, 0, 0]\n[1, 0, 0 ... 0, 0, 0]\n[1, 0, 0 ... 0, 0, 0]\n[0, 0, 0 ... 0, 0, 0]]"] ;
206 -> 208 ;
209 [label="X[10] <= 329.0\ngini = 0.486\nsamples = 16\nvalue = [[2, 0, 0 ... 0, 0, 0]\n[0, 0, 0 ... 0, 0, 0]\n[0, 0, 0 ... 0, 0, 0]\n[14, 1, 0 ... 0, 0, 0]\n[15, 0, 0 ... 0, 0, 0]\n[0, 0, 0 ... 0, 0, 0]]"] ;
143 -> 209 ;
210 [label="X[0] <= 19298.0\ngini = 0.437\nsamples = 14\nvalue = [[1, 0, 0 ... 0, 0, 0]\n[0, 0, 0 ... 0, 0, 0]\n[0, 0, 0 ... 0, 0, 0]\n[14, 0, 0 ... 0, 0, 0]\n[13, 0, 0 ... 0, 0, 0]\n[0, 0, 0 ... 0, 0, 0]]"] ;
209 -> 210 ;
211 [label="X[12] <= 18359.0\ngini = 0.402\nsamples = 11\nvalue = [[1, 0, 0 ... 0, 0, 0]\n[0, 0, 0 ... 0, 0, 0]\n[0, 0, 0 ... 0, 0, 0]\n[11, 0, 0 ... 0, 0, 0]\n[10, 0, 0 ... 0, 0, 0]\n[0, 0, 0 ... 0, 0, 0]]"] ;
210 -> 211 ;
212 [label="X[11] <= 3017.0\ngini = 0.358\nsamples = 9\nvalue = [[0, 0, 0 ... 0, 0, 0]\n[0, 0, 0 ... 0, 0, 0]\n[0, 0, 0 ... 0, 0, 0]\n[9, 0, 0 ... 0, 0, 0]\n[8, 0, 0 ... 0, 0, 0]\n[0, 0, 0 ... 0, 0, 0]]"] ;
211 -> 212 ;
213 [label="X[0] <= 19118.0\ngini = 0.323\nsamples = 8\nvalue = [[0, 0, 0 ... 0, 0, 0]\n[0, 0, 0 ... 0, 0, 0]\n[0, 0, 0 ... 0, 0, 0]\n[8, 0, 0 ... 0, 0, 0]\n[8, 0, 0 ... 0, 0, 0]\n[0, 0, 0 ... 0, 0, 0]]"] ;
212 -> 213 ;
214 [label="X[7] <= 65.0\ngini = 0.278\nsamples = 6\nvalue = [[0, 0, 0 ... 0, 0, 0]\n[0, 0, 0 ... 0, 0, 0]\n[0, 0, 0 ... 0, 0, 0]\n[6, 0, 0 ... 0, 0, 0]\n[6, 0, 0 ... 0, 0, 0]\n[0, 0, 0 ... 0, 0, 0]]"] ;
213 -> 214 ;
215 [label="X[0] <= 15973.0\ngini = 0.25\nsamples = 4\nvalue = [[0, 0, 0 ... 0, 0, 0]\n[0, 0, 0 ... 0, 0, 0]\n[0, 0, 0 ... 0, 0, 0]\n[4, 0, 0 ... 0, 0, 0]\n[4, 0, 0 ... 0, 0, 0]\n[0, 0, 0 ... 0, 0, 0]]"] ;
214 -> 215 ;
216 [label="X[7] <= 54.5\ngini = 0.167\nsamples = 2\nvalue = [[0, 0, 0 ... 0, 0, 0]\n[0, 0, 0 ... 0, 0, 0]\n[0, 0, 0 ... 0, 0, 0]\n[2, 0, 0 ... 0, 0, 0]\n[2, 0, 0 ... 0, 0, 0]\n[0, 0, 0 ... 0, 0, 0]]"] ;
215 -> 216 ;
217 [label="gini = 0.0\nsamples = 1\nvalue = [[0, 0, 0 ... 0, 0, 0]\n[0, 0, 0 ... 0, 0, 0]\n[0, 0, 0 ... 0, 0, 0]\n[1, 0, 0 ... 0, 0, 0]\n[1, 0, 0 ... 0, 0, 0]\n[0, 0, 0 ... 0, 0, 0]]"] ;
216 -> 217 ;
218 [label="gini = 0.0\nsamples = 1\nvalue = [[0, 0, 0 ... 0, 0, 0]\n[0, 0, 0 ... 0, 0, 0]\n[0, 0, 0 ... 0, 0, 0]\n[1, 0, 0 ... 0, 0, 0]\n[1, 0, 0 ... 0, 0, 0]\n[0, 0, 0 ... 0, 0, 0]]"] ;
216 -> 218 ;
219 [label="X[0] <= 17686.5\ngini = 0.167\nsamples = 2\nvalue = [[0, 0, 0 ... 0, 0, 0]\n[0, 0, 0 ... 0, 0, 0]\n[0, 0, 0 ... 0, 0, 0]\n[2, 0, 0 ... 0, 0, 0]\n[2, 0, 0 ... 0, 0, 0]\n[0, 0, 0 ... 0, 0, 0]]"] ;
215 -> 219 ;
220 [label="gini = 0.0\nsamples = 1\nvalue = [[0, 0, 0 ... 0, 0, 0]\n[0, 0, 0 ... 0, 0, 0]\n[0, 0, 0 ... 0, 0, 0]\n[1, 0, 0 ... 0, 0, 0]\n[1, 0, 0 ... 0, 0, 0]\n[0, 0, 0 ... 0, 0, 0]]"] ;
219 -> 220 ;
221 [label="gini = 0.0\nsamples = 1\nvalue = [[0, 0, 0 ... 0, 0, 0]\n[0, 0, 0 ... 0, 0, 0]\n[0, 0, 0 ... 0, 0, 0]\n[1, 0, 0 ... 0, 0, 0]\n[1, 0, 0 ... 0, 0, 0]\n[0, 0, 0 ... 0, 0, 0]]"] ;
219 -> 221 ;
222 [label="X[2] <= 15238.5\ngini = 0.167\nsamples = 2\nvalue = [[0, 0, 0 ... 0, 0, 0]\n[0, 0, 0 ... 0, 0, 0]\n[0, 0, 0 ... 0, 0, 0]\n[2, 0, 0 ... 0, 0, 0]\n[2, 0, 0 ... 0, 0, 0]\n[0, 0, 0 ... 0, 0, 0]]"] ;
214 -> 222 ;
223 [label="gini = 0.0\nsamples = 1\nvalue = [[0, 0, 0 ... 0, 0, 0]\n[0, 0, 0 ... 0, 0, 0]\n[0, 0, 0 ... 0, 0, 0]\n[1, 0, 0 ... 0, 0, 0]\n[1, 0, 0 ... 0, 0, 0]\n[0, 0, 0 ... 0, 0, 0]]"] ;
222 -> 223 ;
224 [label="gini = 0.0\nsamples = 1\nvalue = [[0, 0, 0 ... 0, 0, 0]\n[0, 0, 0 ... 0, 0, 0]\n[0, 0, 0 ... 0, 0, 0]\n[1, 0, 0 ... 0, 0, 0]\n[1, 0, 0 ... 0, 0, 0]\n[0, 0, 0 ... 0, 0, 0]]"] ;
222 -> 224 ;
225 [label="X[6] <= 60.5\ngini = 0.167\nsamples = 2\nvalue = [[0, 0, 0 ... 0, 0, 0]\n[0, 0, 0 ... 0, 0, 0]\n[0, 0, 0 ... 0, 0, 0]\n[2, 0, 0 ... 0, 0, 0]\n[2, 0, 0 ... 0, 0, 0]\n[0, 0, 0 ... 0, 0, 0]]"] ;
213 -> 225 ;
226 [label="gini = 0.0\nsamples = 1\nvalue = [[0, 0, 0 ... 0, 0, 0]\n[0, 0, 0 ... 0, 0, 0]\n[0, 0, 0 ... 0, 0, 0]\n[1, 0, 0 ... 0, 0, 0]\n[1, 0, 0 ... 0, 0, 0]\n[0, 0, 0 ... 0, 0, 0]]"] ;
225 -> 226 ;
227 [label="gini = 0.0\nsamples = 1\nvalue = [[0, 0, 0 ... 0, 0, 0]\n[0, 0, 0 ... 0, 0, 0]\n[0, 0, 0 ... 0, 0, 0]\n[1, 0, 0 ... 0, 0, 0]\n[1, 0, 0 ... 0, 0, 0]\n[0, 0, 0 ... 0, 0, 0]]"] ;
225 -> 227 ;
228 [label="gini = 0.0\nsamples = 1\nvalue = [[0, 0, 0 ... 0, 0, 0]\n[0, 0, 0 ... 0, 0, 0]\n[0, 0, 0 ... 0, 0, 0]\n[1, 0, 0 ... 0, 0, 0]\n[0, 0, 0 ... 0, 0, 0]\n[0, 0, 0 ... 0, 0, 0]]"] ;
212 -> 228 ;
229 [label="X[7] <= 54.5\ngini = 0.25\nsamples = 2\nvalue = [[1, 0, 0 ... 0, 0, 0]\n[0, 0, 0 ... 0, 0, 0]\n[0, 0, 0 ... 0, 0, 0]\n[2, 0, 0 ... 0, 0, 0]\n[2, 0, 0 ... 0, 0, 0]\n[0, 0, 0 ... 0, 0, 0]]"] ;
211 -> 229 ;
230 [label="gini = 0.0\nsamples = 1\nvalue = [[0, 0, 0 ... 0, 0, 0]\n[0, 0, 0 ... 0, 0, 0]\n[0, 0, 0 ... 0, 0, 0]\n[1, 0, 0 ... 0, 0, 0]\n[1, 0, 0 ... 0, 0, 0]\n[0, 0, 0 ... 0, 0, 0]]"] ;
229 -> 230 ;
231 [label="gini = 0.0\nsamples = 1\nvalue = [[1, 0, 0 ... 0, 0, 0]\n[0, 0, 0 ... 0, 0, 0]\n[0, 0, 0 ... 0, 0, 0]\n[1, 0, 0 ... 0, 0, 0]\n[1, 0, 0 ... 0, 0, 0]\n[0, 0, 0 ... 0, 0, 0]]"] ;
229 -> 231 ;
232 [label="X[5] <= 77.5\ngini = 0.333\nsamples = 3\nvalue = [[0, 0, 0 ... 0, 0, 0]\n[0, 0, 0 ... 0, 0, 0]\n[0, 0, 0 ... 0, 0, 0]\n[3, 0, 0 ... 0, 0, 0]\n[3, 0, 0 ... 0, 0, 0]\n[0, 0, 0 ... 0, 0, 0]]"] ;
210 -> 232 ;
233 [label="X[6] <= 31.0\ngini = 0.25\nsamples = 2\nvalue = [[0, 0, 0 ... 0, 0, 0]\n[0, 0, 0 ... 0, 0, 0]\n[0, 0, 0 ... 0, 0, 0]\n[2, 0, 0 ... 0, 0, 0]\n[2, 0, 0 ... 0, 0, 0]\n[0, 0, 0 ... 0, 0, 0]]"] ;
232 -> 233 ;
234 [label="gini = 0.0\nsamples = 1\nvalue = [[0, 0, 0 ... 0, 0, 0]\n[0, 0, 0 ... 0, 0, 0]\n[0, 0, 0 ... 0, 0, 0]\n[1, 0, 0 ... 0, 0, 0]\n[1, 0, 0 ... 0, 0, 0]\n[0, 0, 0 ... 0, 0, 0]]"] ;
233 -> 234 ;
235 [label="gini = 0.0\nsamples = 1\nvalue = [[0, 0, 0 ... 0, 0, 0]\n[0, 0, 0 ... 0, 0, 0]\n[0, 0, 0 ... 0, 0, 0]\n[1, 0, 0 ... 0, 0, 0]\n[1, 0, 0 ... 0, 0, 0]\n[0, 0, 0 ... 0, 0, 0]]"] ;
233 -> 235 ;
236 [label="gini = 0.0\nsamples = 1\nvalue = [[0, 0, 0 ... 0, 0, 0]\n[0, 0, 0 ... 0, 0, 0]\n[0, 0, 0 ... 0, 0, 0]\n[1, 0, 0 ... 0, 0, 0]\n[1, 0, 0 ... 0, 0, 0]\n[0, 0, 0 ... 0, 0, 0]]"] ;
232 -> 236 ;
237 [label="X[1] <= 42.5\ngini = 0.333\nsamples = 2\nvalue = [[1, 0, 0 ... 0, 0, 0]\n[0, 0, 0 ... 0, 0, 0]\n[0, 0, 0 ... 0, 0, 0]\n[0, 1, 0 ... 0, 0, 0]\n[2, 0, 0 ... 0, 0, 0]\n[0, 0, 0 ... 0, 0, 0]]"] ;
209 -> 237 ;
238 [label="gini = 0.0\nsamples = 1\nvalue = [[0, 0, 0 ... 0, 0, 0]\n[0, 0, 0 ... 0, 0, 0]\n[0, 0, 0 ... 0, 0, 0]\n[0, 0, 0 ... 0, 0, 0]\n[1, 0, 0 ... 0, 0, 0]\n[0, 0, 0 ... 0, 0, 0]]"] ;
237 -> 238 ;
239 [label="gini = 0.0\nsamples = 1\nvalue = [[1, 0, 0 ... 0, 0, 0]\n[0, 0, 0 ... 0, 0, 0]\n[0, 0, 0 ... 0, 0, 0]\n[0, 1, 0 ... 0, 0, 0]\n[1, 0, 0 ... 0, 0, 0]\n[0, 0, 0 ... 0, 0, 0]]"] ;
237 -> 239 ;
240 [label="X[12] <= 18291.0\ngini = 0.46\nsamples = 35\nvalue = [[0, 0, 0 ... 0, 0, 0]\n[1, 0, 0 ... 0, 0, 0]\n[0, 0, 0 ... 0, 0, 0]\n[34, 0, 0 ... 0, 0, 0]\n[34, 0, 0 ... 0, 0, 0]\n[0, 0, 0 ... 0, 0, 0]]"] ;
100 -> 240 ;
241 [label="X[12] <= 17663.0\ngini = 0.399\nsamples = 23\nvalue = [[0, 0, 0 ... 0, 0, 0]\n[1, 0, 0 ... 0, 0, 0]\n[0, 0, 0 ... 0, 0, 0]\n[22, 0, 0 ... 0, 0, 0]\n[23, 0, 0 ... 0, 0, 0]\n[0, 0, 0 ... 0, 0, 0]]"] ;
240 -> 241 ;
242 [label="X[6] <= 72.5\ngini = 0.398\nsamples = 6\nvalue = [[0, 0, 0 ... 0, 0, 0]\n[1, 0, 0 ... 0, 0, 0]\n[0, 0, 0 ... 0, 0, 0]\n[6, 0, 0 ... 0, 0, 0]\n[6, 0, 0 ... 0, 0, 0]\n[0, 0, 0 ... 0, 0, 0]]"] ;
241 -> 242 ;
243 [label="X[2] <= 7537.5\ngini = 0.167\nsamples = 2\nvalue = [[0, 0, 0 ... 0, 0, 0]\n[1, 0, 0 ... 0, 0, 0]\n[0, 0, 0 ... 0, 0, 0]\n[2, 0, 0 ... 0, 0, 0]\n[2, 0, 0 ... 0, 0, 0]\n[0, 0, 0 ... 0, 0, 0]]"] ;
242 -> 243 ;
244 [label="gini = 0.0\nsamples = 1\nvalue = [[0, 0, 0 ... 0, 0, 0]\n[1, 0, 0 ... 0, 0, 0]\n[0, 0, 0 ... 0, 0, 0]\n[1, 0, 0 ... 0, 0, 0]\n[1, 0, 0 ... 0, 0, 0]\n[0, 0, 0 ... 0, 0, 0]]"] ;
243 -> 244 ;
245 [label="gini = 0.0\nsamples = 1\nvalue = [[0, 0, 0 ... 0, 0, 0]\n[0, 0, 0 ... 0, 0, 0]\n[0, 0, 0 ... 0, 0, 0]\n[1, 0, 0 ... 0, 0, 0]\n[1, 0, 0 ... 0, 0, 0]\n[0, 0, 0 ... 0, 0, 0]]"] ;
243 -> 245 ;
246 [label="X[0] <= 18067.5\ngini = 0.354\nsamples = 4\nvalue = [[0, 0, 0 ... 0, 0, 0]\n[0, 0, 0 ... 0, 0, 0]\n[0, 0, 0 ... 0, 0, 0]\n[4, 0, 0 ... 0, 0, 0]\n[4, 0, 0 ... 0, 0, 0]\n[0, 0, 0 ... 0, 0, 0]]"] ;
242 -> 246 ;
247 [label="X[2] <= 15889.5\ngini = 0.25\nsamples = 2\nvalue = [[0, 0, 0 ... 0, 0, 0]\n[0, 0, 0 ... 0, 0, 0]\n[0, 0, 0 ... 0, 0, 0]\n[2, 0, 0 ... 0, 0, 0]\n[2, 0, 0 ... 0, 0, 0]\n[0, 0, 0 ... 0, 0, 0]]"] ;
246 -> 247 ;
248 [label="gini = 0.0\nsamples = 1\nvalue = [[0, 0, 0 ... 0, 0, 0]\n[0, 0, 0 ... 0, 0, 0]\n[0, 0, 0 ... 0, 0, 0]\n[1, 0, 0 ... 0, 0, 0]\n[1, 0, 0 ... 0, 0, 0]\n[0, 0, 0 ... 0, 0, 0]]"] ;
247 -> 248 ;
249 [label="gini = 0.0\nsamples = 1\nvalue = [[0, 0, 0 ... 0, 0, 0]\n[0, 0, 0 ... 0, 0, 0]\n[0, 0, 0 ... 0, 0, 0]\n[1, 0, 0 ... 0, 0, 0]\n[1, 0, 0 ... 0, 0, 0]\n[0, 0, 0 ... 0, 0, 0]]"] ;
247 -> 249 ;
250 [label="X[6] <= 84.0\ngini = 0.167\nsamples = 2\nvalue = [[0, 0, 0 ... 0, 0, 0]\n[0, 0, 0 ... 0, 0, 0]\n[0, 0, 0 ... 0, 0, 0]\n[2, 0, 0 ... 0, 0, 0]\n[2, 0, 0 ... 0, 0, 0]\n[0, 0, 0 ... 0, 0, 0]]"] ;
246 -> 250 ;
251 [label="gini = 0.0\nsamples = 1\nvalue = [[0, 0, 0 ... 0, 0, 0]\n[0, 0, 0 ... 0, 0, 0]\n[0, 0, 0 ... 0, 0, 0]\n[1, 0, 0 ... 0, 0, 0]\n[1, 0, 0 ... 0, 0, 0]\n[0, 0, 0 ... 0, 0, 0]]"] ;
250 -> 251 ;
252 [label="gini = 0.0\nsamples = 1\nvalue = [[0, 0, 0 ... 0, 0, 0]\n[0, 0, 0 ... 0, 0, 0]\n[0, 0, 0 ... 0, 0, 0]\n[1, 0, 0 ... 0, 0, 0]\n[1, 0, 0 ... 0, 0, 0]\n[0, 0, 0 ... 0, 0, 0]]"] ;
250 -> 252 ;
253 [label="X[10] <= 10664.0\ngini = 0.325\nsamples = 17\nvalue = [[0, 0, 0 ... 0, 0, 0]\n[0, 0, 0 ... 0, 0, 0]\n[0, 0, 0 ... 0, 0, 0]\n[16, 0, 0 ... 0, 0, 0]\n[17, 0, 0 ... 0, 0, 0]\n[0, 0, 0 ... 0, 0, 0]]"] ;
241 -> 253 ;
254 [label="X[0] <= 19025.5\ngini = 0.307\nsamples = 16\nvalue = [[0, 0, 0 ... 0, 0, 0]\n[0, 0, 0 ... 0, 0, 0]\n[0, 0, 0 ... 0, 0, 0]\n[16, 0, 0 ... 0, 0, 0]\n[16, 0, 0 ... 0, 0, 0]\n[0, 0, 0 ... 0, 0, 0]]"] ;
253 -> 254 ;
255 [label="X[0] <= 17517.5\ngini = 0.302\nsamples = 13\nvalue = [[0, 0, 0 ... 0, 0, 0]\n[0, 0, 0 ... 0, 0, 0]\n[0, 0, 0 ... 0, 0, 0]\n[13, 0, 0 ... 0, 0, 0]\n[13, 0, 0 ... 0, 0, 0]\n[0, 0, 0 ... 0, 0, 0]]"] ;
254 -> 255 ;
256 [label="X[0] <= 16163.5\ngini = 0.272\nsamples = 7\nvalue = [[0, 0, 0 ... 0, 0, 0]\n[0, 0, 0 ... 0, 0, 0]\n[0, 0, 0 ... 0, 0, 0]\n[7, 0, 0 ... 0, 0, 0]\n[7, 0, 0 ... 0, 0, 0]\n[0, 0, 0 ... 0, 0, 0]]"] ;
255 -> 256 ;
257 [label="X[0] <= 14551.0\ngini = 0.253\nsamples = 5\nvalue = [[0, 0, 0 ... 0, 0, 0]\n[0, 0, 0 ... 0, 0, 0]\n[0, 0, 0 ... 0, 0, 0]\n[5, 0, 0 ... 0, 0, 0]\n[5, 0, 0 ... 0, 0, 0]\n[0, 0, 0 ... 0, 0, 0]]"] ;
256 -> 257 ;
258 [label="X[6] <= 9.5\ngini = 0.222\nsamples = 3\nvalue = [[0, 0, 0 ... 0, 0, 0]\n[0, 0, 0 ... 0, 0, 0]\n[0, 0, 0 ... 0, 0, 0]\n[3, 0, 0 ... 0, 0, 0]\n[3, 0, 0 ... 0, 0, 0]\n[0, 0, 0 ... 0, 0, 0]]"] ;
257 -> 258 ;
259 [label="gini = 0.0\nsamples = 1\nvalue = [[0, 0, 0 ... 0, 0, 0]\n[0, 0, 0 ... 0, 0, 0]\n[0, 0, 0 ... 0, 0, 0]\n[1, 0, 0 ... 0, 0, 0]\n[1, 0, 0 ... 0, 0, 0]\n[0, 0, 0 ... 0, 0, 0]]"] ;
258 -> 259 ;
260 [label="X[9] <= 44.0\ngini = 0.167\nsamples = 2\nvalue = [[0, 0, 0 ... 0, 0, 0]\n[0, 0, 0 ... 0, 0, 0]\n[0, 0, 0 ... 0, 0, 0]\n[2, 0, 0 ... 0, 0, 0]\n[2, 0, 0 ... 0, 0, 0]\n[0, 0, 0 ... 0, 0, 0]]"] ;
258 -> 260 ;
261 [label="gini = 0.0\nsamples = 1\nvalue = [[0, 0, 0 ... 0, 0, 0]\n[0, 0, 0 ... 0, 0, 0]\n[0, 0, 0 ... 0, 0, 0]\n[1, 0, 0 ... 0, 0, 0]\n[1, 0, 0 ... 0, 0, 0]\n[0, 0, 0 ... 0, 0, 0]]"] ;
260 -> 261 ;
262 [label="gini = 0.0\nsamples = 1\nvalue = [[0, 0, 0 ... 0, 0, 0]\n[0, 0, 0 ... 0, 0, 0]\n[0, 0, 0 ... 0, 0, 0]\n[1, 0, 0 ... 0, 0, 0]\n[1, 0, 0 ... 0, 0, 0]\n[0, 0, 0 ... 0, 0, 0]]"] ;
260 -> 262 ;
263 [label="X[5] <= 40.5\ngini = 0.083\nsamples = 2\nvalue = [[0, 0, 0 ... 0, 0, 0]\n[0, 0, 0 ... 0, 0, 0]\n[0, 0, 0 ... 0, 0, 0]\n[2, 0, 0 ... 0, 0, 0]\n[2, 0, 0 ... 0, 0, 0]\n[0, 0, 0 ... 0, 0, 0]]"] ;
257 -> 263 ;
264 [label="gini = 0.0\nsamples = 1\nvalue = [[0, 0, 0 ... 0, 0, 0]\n[0, 0, 0 ... 0, 0, 0]\n[0, 0, 0 ... 0, 0, 0]\n[1, 0, 0 ... 0, 0, 0]\n[1, 0, 0 ... 0, 0, 0]\n[0, 0, 0 ... 0, 0, 0]]"] ;
263 -> 264 ;
265 [label="gini = 0.0\nsamples = 1\nvalue = [[0, 0, 0 ... 0, 0, 0]\n[0, 0, 0 ... 0, 0, 0]\n[0, 0, 0 ... 0, 0, 0]\n[1, 0, 0 ... 0, 0, 0]\n[1, 0, 0 ... 0, 0, 0]\n[0, 0, 0 ... 0, 0, 0]]"] ;
263 -> 265 ;
266 [label="X[2] <= 8422.0\ngini = 0.083\nsamples = 2\nvalue = [[0, 0, 0 ... 0, 0, 0]\n[0, 0, 0 ... 0, 0, 0]\n[0, 0, 0 ... 0, 0, 0]\n[2, 0, 0 ... 0, 0, 0]\n[2, 0, 0 ... 0, 0, 0]\n[0, 0, 0 ... 0, 0, 0]]"] ;
256 -> 266 ;
267 [label="gini = 0.0\nsamples = 1\nvalue = [[0, 0, 0 ... 0, 0, 0]\n[0, 0, 0 ... 0, 0, 0]\n[0, 0, 0 ... 0, 0, 0]\n[1, 0, 0 ... 0, 0, 0]\n[1, 0, 0 ... 0, 0, 0]\n[0, 0, 0 ... 0, 0, 0]]"] ;
266 -> 267 ;
268 [label="gini = 0.0\nsamples = 1\nvalue = [[0, 0, 0 ... 0, 0, 0]\n[0, 0, 0 ... 0, 0, 0]\n[0, 0, 0 ... 0, 0, 0]\n[1, 0, 0 ... 0, 0, 0]\n[1, 0, 0 ... 0, 0, 0]\n[0, 0, 0 ... 0, 0, 0]]"] ;
266 -> 268 ;
269 [label="X[7] <= 54.5\ngini = 0.269\nsamples = 6\nvalue = [[0, 0, 0 ... 0, 0, 0]\n[0, 0, 0 ... 0, 0, 0]\n[0, 0, 0 ... 0, 0, 0]\n[6, 0, 0 ... 0, 0, 0]\n[6, 0, 0 ... 0, 0, 0]\n[0, 0, 0 ... 0, 0, 0]]"] ;
255 -> 269 ;
270 [label="X[2] <= 12335.0\ngini = 0.185\nsamples = 3\nvalue = [[0, 0, 0 ... 0, 0, 0]\n[0, 0, 0 ... 0, 0, 0]\n[0, 0, 0 ... 0, 0, 0]\n[3, 0, 0 ... 0, 0, 0]\n[3, 0, 0 ... 0, 0, 0]\n[0, 0, 0 ... 0, 0, 0]]"] ;
269 -> 270 ;
271 [label="X[2] <= 7608.5\ngini = 0.083\nsamples = 2\nvalue = [[0, 0, 0 ... 0, 0, 0]\n[0, 0, 0 ... 0, 0, 0]\n[0, 0, 0 ... 0, 0, 0]\n[2, 0, 0 ... 0, 0, 0]\n[2, 0, 0 ... 0, 0, 0]\n[0, 0, 0 ... 0, 0, 0]]"] ;
270 -> 271 ;
272 [label="gini = 0.0\nsamples = 1\nvalue = [[0, 0, 0 ... 0, 0, 0]\n[0, 0, 0 ... 0, 0, 0]\n[0, 0, 0 ... 0, 0, 0]\n[1, 0, 0 ... 0, 0, 0]\n[1, 0, 0 ... 0, 0, 0]\n[0, 0, 0 ... 0, 0, 0]]"] ;
271 -> 272 ;
273 [label="gini = 0.0\nsamples = 1\nvalue = [[0, 0, 0 ... 0, 0, 0]\n[0, 0, 0 ... 0, 0, 0]\n[0, 0, 0 ... 0, 0, 0]\n[1, 0, 0 ... 0, 0, 0]\n[1, 0, 0 ... 0, 0, 0]\n[0, 0, 0 ... 0, 0, 0]]"] ;
271 -> 273 ;
274 [label="gini = 0.0\nsamples = 1\nvalue = [[0, 0, 0 ... 0, 0, 0]\n[0, 0, 0 ... 0, 0, 0]\n[0, 0, 0 ... 0, 0, 0]\n[1, 0, 0 ... 0, 0, 0]\n[1, 0, 0 ... 0, 0, 0]\n[0, 0, 0 ... 0, 0, 0]]"] ;
270 -> 274 ;
275 [label="X[5] <= 42.5\ngini = 0.222\nsamples = 3\nvalue = [[0, 0, 0 ... 0, 0, 0]\n[0, 0, 0 ... 0, 0, 0]\n[0, 0, 0 ... 0, 0, 0]\n[3, 0, 0 ... 0, 0, 0]\n[3, 0, 0 ... 0, 0, 0]\n[0, 0, 0 ... 0, 0, 0]]"] ;
269 -> 275 ;
276 [label="gini = 0.0\nsamples = 1\nvalue = [[0, 0, 0 ... 0, 0, 0]\n[0, 0, 0 ... 0, 0, 0]\n[0, 0, 0 ... 0, 0, 0]\n[1, 0, 0 ... 0, 0, 0]\n[1, 0, 0 ... 0, 0, 0]\n[0, 0, 0 ... 0, 0, 0]]"] ;
275 -> 276 ;
277 [label="X[7] <= 66.5\ngini = 0.167\nsamples = 2\nvalue = [[0, 0, 0 ... 0, 0, 0]\n[0, 0, 0 ... 0, 0, 0]\n[0, 0, 0 ... 0, 0, 0]\n[2, 0, 0 ... 0, 0, 0]\n[2, 0, 0 ... 0, 0, 0]\n[0, 0, 0 ... 0, 0, 0]]"] ;
275 -> 277 ;
278 [label="gini = 0.0\nsamples = 1\nvalue = [[0, 0, 0 ... 0, 0, 0]\n[0, 0, 0 ... 0, 0, 0]\n[0, 0, 0 ... 0, 0, 0]\n[1, 0, 0 ... 0, 0, 0]\n[1, 0, 0 ... 0, 0, 0]\n[0, 0, 0 ... 0, 0, 0]]"] ;
277 -> 278 ;
279 [label="gini = 0.0\nsamples = 1\nvalue = [[0, 0, 0 ... 0, 0, 0]\n[0, 0, 0 ... 0, 0, 0]\n[0, 0, 0 ... 0, 0, 0]\n[1, 0, 0 ... 0, 0, 0]\n[1, 0, 0 ... 0, 0, 0]\n[0, 0, 0 ... 0, 0, 0]]"] ;
277 -> 279 ;
280 [label="X[6] <= 79.5\ngini = 0.185\nsamples = 3\nvalue = [[0, 0, 0 ... 0, 0, 0]\n[0, 0, 0 ... 0, 0, 0]\n[0, 0, 0 ... 0, 0, 0]\n[3, 0, 0 ... 0, 0, 0]\n[3, 0, 0 ... 0, 0, 0]\n[0, 0, 0 ... 0, 0, 0]]"] ;
254 -> 280 ;
281 [label="X[9] <= 44.0\ngini = 0.083\nsamples = 2\nvalue = [[0, 0, 0 ... 0, 0, 0]\n[0, 0, 0 ... 0, 0, 0]\n[0, 0, 0 ... 0, 0, 0]\n[2, 0, 0 ... 0, 0, 0]\n[2, 0, 0 ... 0, 0, 0]\n[0, 0, 0 ... 0, 0, 0]]"] ;
280 -> 281 ;
282 [label="gini = 0.0\nsamples = 1\nvalue = [[0, 0, 0 ... 0, 0, 0]\n[0, 0, 0 ... 0, 0, 0]\n[0, 0, 0 ... 0, 0, 0]\n[1, 0, 0 ... 0, 0, 0]\n[1, 0, 0 ... 0, 0, 0]\n[0, 0, 0 ... 0, 0, 0]]"] ;
281 -> 282 ;
283 [label="gini = 0.0\nsamples = 1\nvalue = [[0, 0, 0 ... 0, 0, 0]\n[0, 0, 0 ... 0, 0, 0]\n[0, 0, 0 ... 0, 0, 0]\n[1, 0, 0 ... 0, 0, 0]\n[1, 0, 0 ... 0, 0, 0]\n[0, 0, 0 ... 0, 0, 0]]"] ;
281 -> 283 ;
284 [label="gini = 0.0\nsamples = 1\nvalue = [[0, 0, 0 ... 0, 0, 0]\n[0, 0, 0 ... 0, 0, 0]\n[0, 0, 0 ... 0, 0, 0]\n[1, 0, 0 ... 0, 0, 0]\n[1, 0, 0 ... 0, 0, 0]\n[0, 0, 0 ... 0, 0, 0]]"] ;
280 -> 284 ;
285 [label="gini = 0.0\nsamples = 1\nvalue = [[0, 0, 0 ... 0, 0, 0]\n[0, 0, 0 ... 0, 0, 0]\n[0, 0, 0 ... 0, 0, 0]\n[0, 0, 0 ... 0, 0, 0]\n[1, 0, 0 ... 0, 0, 0]\n[0, 0, 0 ... 0, 0, 0]]"] ;
253 -> 285 ;
286 [label="X[12] <= 19725.0\ngini = 0.456\nsamples = 12\nvalue = [[0, 0, 0 ... 0, 0, 0]\n[0, 0, 0 ... 0, 0, 0]\n[0, 0, 0 ... 0, 0, 0]\n[12, 0, 0 ... 0, 0, 0]\n[11, 0, 0 ... 0, 0, 0]\n[0, 0, 0 ... 0, 0, 0]]"] ;
240 -> 286 ;
287 [label="X[12] <= 19062.0\ngini = 0.407\nsamples = 9\nvalue = [[0, 0, 0 ... 0, 0, 0]\n[0, 0, 0 ... 0, 0, 0]\n[0, 0, 0 ... 0, 0, 0]\n[9, 0, 0 ... 0, 0, 0]\n[9, 0, 0 ... 0, 0, 0]\n[0, 0, 0 ... 0, 0, 0]]"] ;
286 -> 287 ;
288 [label="X[2] <= 10576.0\ngini = 0.32\nsamples = 5\nvalue = [[0, 0, 0 ... 0, 0, 0]\n[0, 0, 0 ... 0, 0, 0]\n[0, 0, 0 ... 0, 0, 0]\n[5, 0, 0 ... 0, 0, 0]\n[5, 0, 0 ... 0, 0, 0]\n[0, 0, 0 ... 0, 0, 0]]"] ;
287 -> 288 ;
289 [label="X[7] <= 65.0\ngini = 0.25\nsamples = 4\nvalue = [[0, 0, 0 ... 0, 0, 0]\n[0, 0, 0 ... 0, 0, 0]\n[0, 0, 0 ... 0, 0, 0]\n[4, 0, 0 ... 0, 0, 0]\n[4, 0, 0 ... 0, 0, 0]\n[0, 0, 0 ... 0, 0, 0]]"] ;
288 -> 289 ;
290 [label="X[5] <= 59.0\ngini = 0.167\nsamples = 2\nvalue = [[0, 0, 0 ... 0, 0, 0]\n[0, 0, 0 ... 0, 0, 0]\n[0, 0, 0 ... 0, 0, 0]\n[2, 0, 0 ... 0, 0, 0]\n[2, 0, 0 ... 0, 0, 0]\n[0, 0, 0 ... 0, 0, 0]]"] ;
289 -> 290 ;
291 [label="gini = 0.0\nsamples = 1\nvalue = [[0, 0, 0 ... 0, 0, 0]\n[0, 0, 0 ... 0, 0, 0]\n[0, 0, 0 ... 0, 0, 0]\n[1, 0, 0 ... 0, 0, 0]\n[1, 0, 0 ... 0, 0, 0]\n[0, 0, 0 ... 0, 0, 0]]"] ;
290 -> 291 ;
292 [label="gini = 0.0\nsamples = 1\nvalue = [[0, 0, 0 ... 0, 0, 0]\n[0, 0, 0 ... 0, 0, 0]\n[0, 0, 0 ... 0, 0, 0]\n[1, 0, 0 ... 0, 0, 0]\n[1, 0, 0 ... 0, 0, 0]\n[0, 0, 0 ... 0, 0, 0]]"] ;
290 -> 292 ;
293 [label="X[9] <= 44.0\ngini = 0.167\nsamples = 2\nvalue = [[0, 0, 0 ... 0, 0, 0]\n[0, 0, 0 ... 0, 0, 0]\n[0, 0, 0 ... 0, 0, 0]\n[2, 0, 0 ... 0, 0, 0]\n[2, 0, 0 ... 0, 0, 0]\n[0, 0, 0 ... 0, 0, 0]]"] ;
289 -> 293 ;
294 [label="gini = 0.0\nsamples = 1\nvalue = [[0, 0, 0 ... 0, 0, 0]\n[0, 0, 0 ... 0, 0, 0]\n[0, 0, 0 ... 0, 0, 0]\n[1, 0, 0 ... 0, 0, 0]\n[1, 0, 0 ... 0, 0, 0]\n[0, 0, 0 ... 0, 0, 0]]"] ;
293 -> 294 ;
295 [label="gini = 0.0\nsamples = 1\nvalue = [[0, 0, 0 ... 0, 0, 0]\n[0, 0, 0 ... 0, 0, 0]\n[0, 0, 0 ... 0, 0, 0]\n[1, 0, 0 ... 0, 0, 0]\n[1, 0, 0 ... 0, 0, 0]\n[0, 0, 0 ... 0, 0, 0]]"] ;
293 -> 295 ;
296 [label="gini = 0.0\nsamples = 1\nvalue = [[0, 0, 0 ... 0, 0, 0]\n[0, 0, 0 ... 0, 0, 0]\n[0, 0, 0 ... 0, 0, 0]\n[1, 0, 0 ... 0, 0, 0]\n[1, 0, 0 ... 0, 0, 0]\n[0, 0, 0 ... 0, 0, 0]]"] ;
288 -> 296 ;
297 [label="X[12] <= 19378.5\ngini = 0.312\nsamples = 4\nvalue = [[0, 0, 0 ... 0, 0, 0]\n[0, 0, 0 ... 0, 0, 0]\n[0, 0, 0 ... 0, 0, 0]\n[4, 0, 0 ... 0, 0, 0]\n[4, 0, 0 ... 0, 0, 0]\n[0, 0, 0 ... 0, 0, 0]]"] ;
287 -> 297 ;
298 [label="X[2] <= 4906.0\ngini = 0.222\nsamples = 3\nvalue = [[0, 0, 0 ... 0, 0, 0]\n[0, 0, 0 ... 0, 0, 0]\n[0, 0, 0 ... 0, 0, 0]\n[3, 0, 0 ... 0, 0, 0]\n[3, 0, 0 ... 0, 0, 0]\n[0, 0, 0 ... 0, 0, 0]]"] ;
297 -> 298 ;
299 [label="gini = 0.0\nsamples = 1\nvalue = [[0, 0, 0 ... 0, 0, 0]\n[0, 0, 0 ... 0, 0, 0]\n[0, 0, 0 ... 0, 0, 0]\n[1, 0, 0 ... 0, 0, 0]\n[1, 0, 0 ... 0, 0, 0]\n[0, 0, 0 ... 0, 0, 0]]"] ;
298 -> 299 ;
300 [label="X[5] <= 59.0\ngini = 0.167\nsamples = 2\nvalue = [[0, 0, 0 ... 0, 0, 0]\n[0, 0, 0 ... 0, 0, 0]\n[0, 0, 0 ... 0, 0, 0]\n[2, 0, 0 ... 0, 0, 0]\n[2, 0, 0 ... 0, 0, 0]\n[0, 0, 0 ... 0, 0, 0]]"] ;
298 -> 300 ;
301 [label="gini = 0.0\nsamples = 1\nvalue = [[0, 0, 0 ... 0, 0, 0]\n[0, 0, 0 ... 0, 0, 0]\n[0, 0, 0 ... 0, 0, 0]\n[1, 0, 0 ... 0, 0, 0]\n[1, 0, 0 ... 0, 0, 0]\n[0, 0, 0 ... 0, 0, 0]]"] ;
300 -> 301 ;
302 [label="gini = 0.0\nsamples = 1\nvalue = [[0, 0, 0 ... 0, 0, 0]\n[0, 0, 0 ... 0, 0, 0]\n[0, 0, 0 ... 0, 0, 0]\n[1, 0, 0 ... 0, 0, 0]\n[1, 0, 0 ... 0, 0, 0]\n[0, 0, 0 ... 0, 0, 0]]"] ;
300 -> 302 ;
303 [label="gini = 0.0\nsamples = 1\nvalue = [[0, 0, 0 ... 0, 0, 0]\n[0, 0, 0 ... 0, 0, 0]\n[0, 0, 0 ... 0, 0, 0]\n[1, 0, 0 ... 0, 0, 0]\n[1, 0, 0 ... 0, 0, 0]\n[0, 0, 0 ... 0, 0, 0]]"] ;
297 -> 303 ;
304 [label="X[0] <= 17517.5\ngini = 0.296\nsamples = 3\nvalue = [[0, 0, 0 ... 0, 0, 0]\n[0, 0, 0 ... 0, 0, 0]\n[0, 0, 0 ... 0, 0, 0]\n[3, 0, 0 ... 0, 0, 0]\n[2, 0, 0 ... 0, 0, 0]\n[0, 0, 0 ... 0, 0, 0]]"] ;
286 -> 304 ;
305 [label="X[0] <= 15540.0\ngini = 0.167\nsamples = 2\nvalue = [[0, 0, 0 ... 0, 0, 0]\n[0, 0, 0 ... 0, 0, 0]\n[0, 0, 0 ... 0, 0, 0]\n[2, 0, 0 ... 0, 0, 0]\n[2, 0, 0 ... 0, 0, 0]\n[0, 0, 0 ... 0, 0, 0]]"] ;
304 -> 305 ;
306 [label="gini = 0.0\nsamples = 1\nvalue = [[0, 0, 0 ... 0, 0, 0]\n[0, 0, 0 ... 0, 0, 0]\n[0, 0, 0 ... 0, 0, 0]\n[1, 0, 0 ... 0, 0, 0]\n[1, 0, 0 ... 0, 0, 0]\n[0, 0, 0 ... 0, 0, 0]]"] ;
305 -> 306 ;
307 [label="gini = 0.0\nsamples = 1\nvalue = [[0, 0, 0 ... 0, 0, 0]\n[0, 0, 0 ... 0, 0, 0]\n[0, 0, 0 ... 0, 0, 0]\n[1, 0, 0 ... 0, 0, 0]\n[1, 0, 0 ... 0, 0, 0]\n[0, 0, 0 ... 0, 0, 0]]"] ;
305 -> 307 ;
308 [label="gini = 0.0\nsamples = 1\nvalue = [[0, 0, 0 ... 0, 0, 0]\n[0, 0, 0 ... 0, 0, 0]\n[0, 0, 0 ... 0, 0, 0]\n[1, 0, 0 ... 0, 0, 0]\n[0, 0, 0 ... 0, 0, 0]\n[0, 0, 0 ... 0, 0, 0]]"] ;
304 -> 308 ;
309 [label="X[3] <= 1.5\ngini = 0.541\nsamples = 55\nvalue = [[14, 9, 0 ... 0, 0, 0]\n[0, 0, 0 ... 0, 0, 0]\n[0, 0, 0 ... 0, 0, 0]\n[50, 0, 0 ... 0, 0, 0]\n[52, 0, 0 ... 0, 0, 0]\n[0, 2, 3 ... 0, 0, 0]]"] ;
99 -> 309 ;
310 [label="X[0] <= 6273.0\ngini = 0.495\nsamples = 46\nvalue = [[12, 7, 0 ... 0, 0, 0]\n[0, 0, 0 ... 0, 0, 0]\n[0, 0, 0 ... 0, 0, 0]\n[42, 0, 0 ... 0, 0, 0]\n[43, 0, 0 ... 0, 0, 0]\n[0, 2, 3 ... 0, 0, 0]]"] ;
309 -> 310 ;
311 [label="X[2] <= 7322.5\ngini = 0.312\nsamples = 12\nvalue = [[12, 0, 0 ... 0, 0, 0]\n[0, 0, 0 ... 0, 0, 0]\n[0, 0, 0 ... 0, 0, 0]\n[11, 0, 0 ... 0, 0, 0]\n[12, 0, 0 ... 0, 0, 0]\n[0, 2, 3 ... 0, 0, 0]]"] ;
310 -> 311 ;
312 [label="gini = 0.0\nsamples = 1\nvalue = [[1, 0, 0 ... 0, 0, 0]\n[0, 0, 0 ... 0, 0, 0]\n[0, 0, 0 ... 0, 0, 0]\n[0, 0, 0 ... 0, 0, 0]\n[1, 0, 0 ... 0, 0, 0]\n[0, 0, 0 ... 0, 0, 0]]"] ;
311 -> 312 ;
313 [label="X[12] <= 5458.0\ngini = 0.281\nsamples = 11\nvalue = [[11, 0, 0 ... 0, 0, 0]\n[0, 0, 0 ... 0, 0, 0]\n[0, 0, 0 ... 0, 0, 0]\n[11, 0, 0 ... 0, 0, 0]\n[11, 0, 0 ... 0, 0, 0]\n[0, 2, 3 ... 0, 0, 0]]"] ;
311 -> 313 ;
314 [label="X[12] <= 973.0\ngini = 0.213\nsamples = 5\nvalue = [[5, 0, 0 ... 0, 0, 0]\n[0, 0, 0 ... 0, 0, 0]\n[0, 0, 0 ... 0, 0, 0]\n[5, 0, 0 ... 0, 0, 0]\n[5, 0, 0 ... 0, 0, 0]\n[0, 2, 3 ... 0, 0, 0]]"] ;
313 -> 314 ;
315 [label="X[2] <= 19410.5\ngini = 0.083\nsamples = 2\nvalue = [[2, 0, 0 ... 0, 0, 0]\n[0, 0, 0 ... 0, 0, 0]\n[0, 0, 0 ... 0, 0, 0]\n[2, 0, 0 ... 0, 0, 0]\n[2, 0, 0 ... 0, 0, 0]\n[0, 2, 0 ... 0, 0, 0]]"] ;
314 -> 315 ;
316 [label="gini = 0.0\nsamples = 1\nvalue = [[1, 0, 0 ... 0, 0, 0]\n[0, 0, 0 ... 0, 0, 0]\n[0, 0, 0 ... 0, 0, 0]\n[1, 0, 0 ... 0, 0, 0]\n[1, 0, 0 ... 0, 0, 0]\n[0, 1, 0 ... 0, 0, 0]]"] ;
315 -> 316 ;
317 [label="gini = 0.0\nsamples = 1\nvalue = [[1, 0, 0 ... 0, 0, 0]\n[0, 0, 0 ... 0, 0, 0]\n[0, 0, 0 ... 0, 0, 0]\n[1, 0, 0 ... 0, 0, 0]\n[1, 0, 0 ... 0, 0, 0]\n[0, 1, 0 ... 0, 0, 0]]"] ;
315 -> 317 ;
318 [label="X[6] <= 74.0\ngini = 0.111\nsamples = 3\nvalue = [[3, 0, 0 ... 0, 0, 0]\n[0, 0, 0 ... 0, 0, 0]\n[0, 0, 0 ... 0, 0, 0]\n[3, 0, 0 ... 0, 0, 0]\n[3, 0, 0 ... 0, 0, 0]\n[0, 0, 3 ... 0, 0, 0]]"] ;
314 -> 318 ;
319 [label="gini = 0.0\nsamples = 1\nvalue = [[1, 0, 0 ... 0, 0, 0]\n[0, 0, 0 ... 0, 0, 0]\n[0, 0, 0 ... 0, 0, 0]\n[1, 0, 0 ... 0, 0, 0]\n[1, 0, 0 ... 0, 0, 0]\n[0, 0, 1 ... 0, 0, 0]]"] ;
318 -> 319 ;
320 [label="X[2] <= 16261.5\ngini = 0.083\nsamples = 2\nvalue = [[2, 0, 0 ... 0, 0, 0]\n[0, 0, 0 ... 0, 0, 0]\n[0, 0, 0 ... 0, 0, 0]\n[2, 0, 0 ... 0, 0, 0]\n[2, 0, 0 ... 0, 0, 0]\n[0, 0, 2 ... 0, 0, 0]]"] ;
318 -> 320 ;
321 [label="gini = 0.0\nsamples = 1\nvalue = [[1, 0, 0 ... 0, 0, 0]\n[0, 0, 0 ... 0, 0, 0]\n[0, 0, 0 ... 0, 0, 0]\n[1, 0, 0 ... 0, 0, 0]\n[1, 0, 0 ... 0, 0, 0]\n[0, 0, 1 ... 0, 0, 0]]"] ;
320 -> 321 ;
322 [label="gini = 0.0\nsamples = 1\nvalue = [[1, 0, 0 ... 0, 0, 0]\n[0, 0, 0 ... 0, 0, 0]\n[0, 0, 0 ... 0, 0, 0]\n[1, 0, 0 ... 0, 0, 0]\n[1, 0, 0 ... 0, 0, 0]\n[0, 0, 1 ... 0, 0, 0]]"] ;
320 -> 322 ;
323 [label="X[12] <= 11620.5\ngini = 0.25\nsamples = 6\nvalue = [[6, 0, 0 ... 0, 0, 0]\n[0, 0, 0 ... 0, 0, 0]\n[0, 0, 0 ... 0, 0, 0]\n[6, 0, 0 ... 0, 0, 0]\n[6, 0, 0 ... 0, 0, 0]\n[0, 0, 0 ... 0, 0, 0]]"] ;
313 -> 323 ;
324 [label="X[1] <= 42.5\ngini = 0.111\nsamples = 3\nvalue = [[3, 0, 0 ... 0, 0, 0]\n[0, 0, 0 ... 0, 0, 0]\n[0, 0, 0 ... 0, 0, 0]\n[3, 0, 0 ... 0, 0, 0]\n[3, 0, 0 ... 0, 0, 0]\n[0, 0, 0 ... 0, 0, 0]]"] ;
323 -> 324 ;
325 [label="gini = 0.0\nsamples = 1\nvalue = [[1, 0, 0 ... 0, 0, 0]\n[0, 0, 0 ... 0, 0, 0]\n[0, 0, 0 ... 0, 0, 0]\n[1, 0, 0 ... 0, 0, 0]\n[1, 0, 0 ... 0, 0, 0]\n[0, 0, 0 ... 0, 0, 0]]"] ;
324 -> 325 ;
326 [label="X[9] <= 44.0\ngini = 0.083\nsamples = 2\nvalue = [[2, 0, 0 ... 0, 0, 0]\n[0, 0, 0 ... 0, 0, 0]\n[0, 0, 0 ... 0, 0, 0]\n[2, 0, 0 ... 0, 0, 0]\n[2, 0, 0 ... 0, 0, 0]\n[0, 0, 0 ... 0, 0, 0]]"] ;
324 -> 326 ;
327 [label="gini = 0.0\nsamples = 1\nvalue = [[1, 0, 0 ... 0, 0, 0]\n[0, 0, 0 ... 0, 0, 0]\n[0, 0, 0 ... 0, 0, 0]\n[1, 0, 0 ... 0, 0, 0]\n[1, 0, 0 ... 0, 0, 0]\n[0, 0, 0 ... 0, 0, 0]]"] ;
326 -> 327 ;
328 [label="gini = 0.0\nsamples = 1\nvalue = [[1, 0, 0 ... 0, 0, 0]\n[0, 0, 0 ... 0, 0, 0]\n[0, 0, 0 ... 0, 0, 0]\n[1, 0, 0 ... 0, 0, 0]\n[1, 0, 0 ... 0, 0, 0]\n[0, 0, 0 ... 0, 0, 0]]"] ;
326 -> 328 ;
329 [label="X[9] <= 44.0\ngini = 0.222\nsamples = 3\nvalue = [[3, 0, 0 ... 0, 0, 0]\n[0, 0, 0 ... 0, 0, 0]\n[0, 0, 0 ... 0, 0, 0]\n[3, 0, 0 ... 0, 0, 0]\n[3, 0, 0 ... 0, 0, 0]\n[0, 0, 0 ... 0, 0, 0]]"] ;
323 -> 329 ;
330 [label="gini = 0.0\nsamples = 1\nvalue = [[1, 0, 0 ... 0, 0, 0]\n[0, 0, 0 ... 0, 0, 0]\n[0, 0, 0 ... 0, 0, 0]\n[1, 0, 0 ... 0, 0, 0]\n[1, 0, 0 ... 0, 0, 0]\n[0, 0, 0 ... 0, 0, 0]]"] ;
329 -> 330 ;
331 [label="X[1] <= 42.5\ngini = 0.167\nsamples = 2\nvalue = [[2, 0, 0 ... 0, 0, 0]\n[0, 0, 0 ... 0, 0, 0]\n[0, 0, 0 ... 0, 0, 0]\n[2, 0, 0 ... 0, 0, 0]\n[2, 0, 0 ... 0, 0, 0]\n[0, 0, 0 ... 0, 0, 0]]"] ;
329 -> 331 ;
332 [label="gini = 0.0\nsamples = 1\nvalue = [[1, 0, 0 ... 0, 0, 0]\n[0, 0, 0 ... 0, 0, 0]\n[0, 0, 0 ... 0, 0, 0]\n[1, 0, 0 ... 0, 0, 0]\n[1, 0, 0 ... 0, 0, 0]\n[0, 0, 0 ... 0, 0, 0]]"] ;
331 -> 332 ;
333 [label="gini = 0.0\nsamples = 1\nvalue = [[1, 0, 0 ... 0, 0, 0]\n[0, 0, 0 ... 0, 0, 0]\n[0, 0, 0 ... 0, 0, 0]\n[1, 0, 0 ... 0, 0, 0]\n[1, 0, 0 ... 0, 0, 0]\n[0, 0, 0 ... 0, 0, 0]]"] ;
331 -> 333 ;
334 [label="X[0] <= 7943.5\ngini = 0.492\nsamples = 34\nvalue = [[0, 7, 0 ... 0, 0, 0]\n[0, 0, 0 ... 0, 0, 0]\n[0, 0, 0 ... 0, 0, 0]\n[31, 0, 0 ... 0, 0, 0]\n[31, 0, 0 ... 0, 0, 0]\n[0, 0, 0 ... 0, 0, 0]]"] ;
310 -> 334 ;
335 [label="X[2] <= 7197.0\ngini = 0.279\nsamples = 7\nvalue = [[0, 7, 0 ... 0, 0, 0]\n[0, 0, 0 ... 0, 0, 0]\n[0, 0, 0 ... 0, 0, 0]\n[7, 0, 0 ... 0, 0, 0]\n[7, 0, 0 ... 0, 0, 0]\n[0, 0, 0 ... 0, 0, 0]]"] ;
334 -> 335 ;
336 [label="X[2] <= 3902.5\ngini = 0.083\nsamples = 2\nvalue = [[0, 2, 0 ... 0, 0, 0]\n[0, 0, 0 ... 0, 0, 0]\n[0, 0, 0 ... 0, 0, 0]\n[2, 0, 0 ... 0, 0, 0]\n[2, 0, 0 ... 0, 0, 0]\n[0, 0, 0 ... 0, 0, 0]]"] ;
335 -> 336 ;
337 [label="gini = 0.0\nsamples = 1\nvalue = [[0, 1, 0 ... 0, 0, 0]\n[0, 0, 0 ... 0, 0, 0]\n[0, 0, 0 ... 0, 0, 0]\n[1, 0, 0 ... 0, 0, 0]\n[1, 0, 0 ... 0, 0, 0]\n[0, 0, 0 ... 0, 0, 0]]"] ;
336 -> 337 ;
338 [label="gini = 0.0\nsamples = 1\nvalue = [[0, 1, 0 ... 0, 0, 0]\n[0, 0, 0 ... 0, 0, 0]\n[0, 0, 0 ... 0, 0, 0]\n[1, 0, 0 ... 0, 0, 0]\n[1, 0, 0 ... 0, 0, 0]\n[0, 0, 0 ... 0, 0, 0]]"] ;
336 -> 338 ;
339 [label="X[12] <= 6940.0\ngini = 0.267\nsamples = 5\nvalue = [[0, 5, 0 ... 0, 0, 0]\n[0, 0, 0 ... 0, 0, 0]\n[0, 0, 0 ... 0, 0, 0]\n[5, 0, 0 ... 0, 0, 0]\n[5, 0, 0 ... 0, 0, 0]\n[0, 0, 0 ... 0, 0, 0]]"] ;
335 -> 339 ;
340 [label="gini = 0.0\nsamples = 1\nvalue = [[0, 1, 0 ... 0, 0, 0]\n[0, 0, 0 ... 0, 0, 0]\n[0, 0, 0 ... 0, 0, 0]\n[1, 0, 0 ... 0, 0, 0]\n[1, 0, 0 ... 0, 0, 0]\n[0, 0, 0 ... 0, 0, 0]]"] ;
339 -> 340 ;
341 [label="X[12] <= 11745.5\ngini = 0.25\nsamples = 4\nvalue = [[0, 4, 0 ... 0, 0, 0]\n[0, 0, 0 ... 0, 0, 0]\n[0, 0, 0 ... 0, 0, 0]\n[4, 0, 0 ... 0, 0, 0]\n[4, 0, 0 ... 0, 0, 0]\n[0, 0, 0 ... 0, 0, 0]]"] ;
339 -> 341 ;
342 [label="X[12] <= 9933.0\ngini = 0.167\nsamples = 2\nvalue = [[0, 2, 0 ... 0, 0, 0]\n[0, 0, 0 ... 0, 0, 0]\n[0, 0, 0 ... 0, 0, 0]\n[2, 0, 0 ... 0, 0, 0]\n[2, 0, 0 ... 0, 0, 0]\n[0, 0, 0 ... 0, 0, 0]]"] ;
341 -> 342 ;
343 [label="gini = 0.0\nsamples = 1\nvalue = [[0, 1, 0 ... 0, 0, 0]\n[0, 0, 0 ... 0, 0, 0]\n[0, 0, 0 ... 0, 0, 0]\n[1, 0, 0 ... 0, 0, 0]\n[1, 0, 0 ... 0, 0, 0]\n[0, 0, 0 ... 0, 0, 0]]"] ;
342 -> 343 ;
344 [label="gini = 0.0\nsamples = 1\nvalue = [[0, 1, 0 ... 0, 0, 0]\n[0, 0, 0 ... 0, 0, 0]\n[0, 0, 0 ... 0, 0, 0]\n[1, 0, 0 ... 0, 0, 0]\n[1, 0, 0 ... 0, 0, 0]\n[0, 0, 0 ... 0, 0, 0]]"] ;
342 -> 344 ;
345 [label="X[2] <= 14903.5\ngini = 0.167\nsamples = 2\nvalue = [[0, 2, 0 ... 0, 0, 0]\n[0, 0, 0 ... 0, 0, 0]\n[0, 0, 0 ... 0, 0, 0]\n[2, 0, 0 ... 0, 0, 0]\n[2, 0, 0 ... 0, 0, 0]\n[0, 0, 0 ... 0, 0, 0]]"] ;
341 -> 345 ;
346 [label="gini = 0.0\nsamples = 1\nvalue = [[0, 1, 0 ... 0, 0, 0]\n[0, 0, 0 ... 0, 0, 0]\n[0, 0, 0 ... 0, 0, 0]\n[1, 0, 0 ... 0, 0, 0]\n[1, 0, 0 ... 0, 0, 0]\n[0, 0, 0 ... 0, 0, 0]]"] ;
345 -> 346 ;
347 [label="gini = 0.0\nsamples = 1\nvalue = [[0, 1, 0 ... 0, 0, 0]\n[0, 0, 0 ... 0, 0, 0]\n[0, 0, 0 ... 0, 0, 0]\n[1, 0, 0 ... 0, 0, 0]\n[1, 0, 0 ... 0, 0, 0]\n[0, 0, 0 ... 0, 0, 0]]"] ;
345 -> 347 ;
348 [label="X[11] <= 3256.0\ngini = 0.498\nsamples = 27\nvalue = [[0, 0, 0 ... 0, 0, 0]\n[0, 0, 0 ... 0, 0, 0]\n[0, 0, 0 ... 0, 0, 0]\n[24, 0, 0 ... 0, 0, 0]\n[24, 0, 0 ... 0, 0, 0]\n[0, 0, 0 ... 0, 0, 0]]"] ;
334 -> 348 ;
349 [label="X[10] <= 7764.5\ngini = 0.474\nsamples = 24\nvalue = [[0, 0, 0 ... 0, 0, 0]\n[0, 0, 0 ... 0, 0, 0]\n[0, 0, 0 ... 0, 0, 0]\n[21, 0, 0 ... 0, 0, 0]\n[24, 0, 0 ... 0, 0, 0]\n[0, 0, 0 ... 0, 0, 0]]"] ;
348 -> 349 ;
350 [label="X[2] <= 13978.5\ngini = 0.429\nsamples = 21\nvalue = [[0, 0, 0 ... 0, 0, 0]\n[0, 0, 0 ... 0, 0, 0]\n[0, 0, 0 ... 0, 0, 0]\n[21, 0, 0 ... 0, 0, 0]\n[21, 0, 0 ... 0, 0, 0]\n[0, 0, 0 ... 0, 0, 0]]"] ;
349 -> 350 ;
351 [label="X[1] <= 31.0\ngini = 0.35\nsamples = 12\nvalue = [[0, 0, 0 ... 0, 0, 0]\n[0, 0, 0 ... 0, 0, 0]\n[0, 0, 0 ... 0, 0, 0]\n[12, 0, 0 ... 0, 0, 0]\n[12, 0, 0 ... 0, 0, 0]\n[0, 0, 0 ... 0, 0, 0]]"] ;
350 -> 351 ;
352 [label="gini = 0.0\nsamples = 1\nvalue = [[0, 0, 0 ... 0, 0, 0]\n[0, 0, 0 ... 0, 0, 0]\n[0, 0, 0 ... 0, 0, 0]\n[1, 0, 0 ... 0, 0, 0]\n[1, 0, 0 ... 0, 0, 0]\n[0, 0, 0 ... 0, 0, 0]]"] ;
351 -> 352 ;
353 [label="X[5] <= 40.5\ngini = 0.325\nsamples = 11\nvalue = [[0, 0, 0 ... 0, 0, 0]\n[0, 0, 0 ... 0, 0, 0]\n[0, 0, 0 ... 0, 0, 0]\n[11, 0, 0 ... 0, 0, 0]\n[11, 0, 0 ... 0, 0, 0]\n[0, 0, 0 ... 0, 0, 0]]"] ;
351 -> 353 ;
354 [label="gini = 0.0\nsamples = 1\nvalue = [[0, 0, 0 ... 0, 0, 0]\n[0, 0, 0 ... 0, 0, 0]\n[0, 0, 0 ... 0, 0, 0]\n[1, 0, 0 ... 0, 0, 0]\n[1, 0, 0 ... 0, 0, 0]\n[0, 0, 0 ... 0, 0, 0]]"] ;
353 -> 354 ;
355 [label="X[0] <= 14826.5\ngini = 0.293\nsamples = 10\nvalue = [[0, 0, 0 ... 0, 0, 0]\n[0, 0, 0 ... 0, 0, 0]\n[0, 0, 0 ... 0, 0, 0]\n[10, 0, 0 ... 0, 0, 0]\n[10, 0, 0 ... 0, 0, 0]\n[0, 0, 0 ... 0, 0, 0]]"] ;
353 -> 355 ;
356 [label="X[13] <= 66.5\ngini = 0.083\nsamples = 2\nvalue = [[0, 0, 0 ... 0, 0, 0]\n[0, 0, 0 ... 0, 0, 0]\n[0, 0, 0 ... 0, 0, 0]\n[2, 0, 0 ... 0, 0, 0]\n[2, 0, 0 ... 0, 0, 0]\n[0, 0, 0 ... 0, 0, 0]]"] ;
355 -> 356 ;
357 [label="gini = 0.0\nsamples = 1\nvalue = [[0, 0, 0 ... 0, 0, 0]\n[0, 0, 0 ... 0, 0, 0]\n[0, 0, 0 ... 0, 0, 0]\n[1, 0, 0 ... 0, 0, 0]\n[1, 0, 0 ... 0, 0, 0]\n[0, 0, 0 ... 0, 0, 0]]"] ;
356 -> 357 ;
358 [label="gini = 0.0\nsamples = 1\nvalue = [[0, 0, 0 ... 0, 0, 0]\n[0, 0, 0 ... 0, 0, 0]\n[0, 0, 0 ... 0, 0, 0]\n[1, 0, 0 ... 0, 0, 0]\n[1, 0, 0 ... 0, 0, 0]\n[0, 0, 0 ... 0, 0, 0]]"] ;
356 -> 358 ;
359 [label="X[0] <= 15764.0\ngini = 0.286\nsamples = 8\nvalue = [[0, 0, 0 ... 0, 0, 0]\n[0, 0, 0 ... 0, 0, 0]\n[0, 0, 0 ... 0, 0, 0]\n[8, 0, 0 ... 0, 0, 0]\n[8, 0, 0 ... 0, 0, 0]\n[0, 0, 0 ... 0, 0, 0]]"] ;
355 -> 359 ;
360 [label="X[6] <= 53.5\ngini = 0.083\nsamples = 2\nvalue = [[0, 0, 0 ... 0, 0, 0]\n[0, 0, 0 ... 0, 0, 0]\n[0, 0, 0 ... 0, 0, 0]\n[2, 0, 0 ... 0, 0, 0]\n[2, 0, 0 ... 0, 0, 0]\n[0, 0, 0 ... 0, 0, 0]]"] ;
359 -> 360 ;
361 [label="gini = 0.0\nsamples = 1\nvalue = [[0, 0, 0 ... 0, 0, 0]\n[0, 0, 0 ... 0, 0, 0]\n[0, 0, 0 ... 0, 0, 0]\n[1, 0, 0 ... 0, 0, 0]\n[1, 0, 0 ... 0, 0, 0]\n[0, 0, 0 ... 0, 0, 0]]"] ;
360 -> 361 ;
362 [label="gini = 0.0\nsamples = 1\nvalue = [[0, 0, 0 ... 0, 0, 0]\n[0, 0, 0 ... 0, 0, 0]\n[0, 0, 0 ... 0, 0, 0]\n[1, 0, 0 ... 0, 0, 0]\n[1, 0, 0 ... 0, 0, 0]\n[0, 0, 0 ... 0, 0, 0]]"] ;
360 -> 362 ;
363 [label="X[9] <= 44.0\ngini = 0.278\nsamples = 6\nvalue = [[0, 0, 0 ... 0, 0, 0]\n[0, 0, 0 ... 0, 0, 0]\n[0, 0, 0 ... 0, 0, 0]\n[6, 0, 0 ... 0, 0, 0]\n[6, 0, 0 ... 0, 0, 0]\n[0, 0, 0 ... 0, 0, 0]]"] ;
359 -> 363 ;
364 [label="X[2] <= 6297.0\ngini = 0.167\nsamples = 2\nvalue = [[0, 0, 0 ... 0, 0, 0]\n[0, 0, 0 ... 0, 0, 0]\n[0, 0, 0 ... 0, 0, 0]\n[2, 0, 0 ... 0, 0, 0]\n[2, 0, 0 ... 0, 0, 0]\n[0, 0, 0 ... 0, 0, 0]]"] ;
363 -> 364 ;
365 [label="gini = 0.0\nsamples = 1\nvalue = [[0, 0, 0 ... 0, 0, 0]\n[0, 0, 0 ... 0, 0, 0]\n[0, 0, 0 ... 0, 0, 0]\n[1, 0, 0 ... 0, 0, 0]\n[1, 0, 0 ... 0, 0, 0]\n[0, 0, 0 ... 0, 0, 0]]"] ;
364 -> 365 ;
366 [label="gini = 0.0\nsamples = 1\nvalue = [[0, 0, 0 ... 0, 0, 0]\n[0, 0, 0 ... 0, 0, 0]\n[0, 0, 0 ... 0, 0, 0]\n[1, 0, 0 ... 0, 0, 0]\n[1, 0, 0 ... 0, 0, 0]\n[0, 0, 0 ... 0, 0, 0]]"] ;
364 -> 366 ;
367 [label="X[8] <= 41.0\ngini = 0.25\nsamples = 4\nvalue = [[0, 0, 0 ... 0, 0, 0]\n[0, 0, 0 ... 0, 0, 0]\n[0, 0, 0 ... 0, 0, 0]\n[4, 0, 0 ... 0, 0, 0]\n[4, 0, 0 ... 0, 0, 0]\n[0, 0, 0 ... 0, 0, 0]]"] ;
363 -> 367 ;
368 [label="X[1] <= 64.5\ngini = 0.167\nsamples = 2\nvalue = [[0, 0, 0 ... 0, 0, 0]\n[0, 0, 0 ... 0, 0, 0]\n[0, 0, 0 ... 0, 0, 0]\n[2, 0, 0 ... 0, 0, 0]\n[2, 0, 0 ... 0, 0, 0]\n[0, 0, 0 ... 0, 0, 0]]"] ;
367 -> 368 ;
369 [label="gini = 0.0\nsamples = 1\nvalue = [[0, 0, 0 ... 0, 0, 0]\n[0, 0, 0 ... 0, 0, 0]\n[0, 0, 0 ... 0, 0, 0]\n[1, 0, 0 ... 0, 0, 0]\n[1, 0, 0 ... 0, 0, 0]\n[0, 0, 0 ... 0, 0, 0]]"] ;
368 -> 369 ;
370 [label="gini = 0.0\nsamples = 1\nvalue = [[0, 0, 0 ... 0, 0, 0]\n[0, 0, 0 ... 0, 0, 0]\n[0, 0, 0 ... 0, 0, 0]\n[1, 0, 0 ... 0, 0, 0]\n[1, 0, 0 ... 0, 0, 0]\n[0, 0, 0 ... 0, 0, 0]]"] ;
368 -> 370 ;
371 [label="X[0] <= 19665.5\ngini = 0.167\nsamples = 2\nvalue = [[0, 0, 0 ... 0, 0, 0]\n[0, 0, 0 ... 0, 0, 0]\n[0, 0, 0 ... 0, 0, 0]\n[2, 0, 0 ... 0, 0, 0]\n[2, 0, 0 ... 0, 0, 0]\n[0, 0, 0 ... 0, 0, 0]]"] ;
367 -> 371 ;
372 [label="gini = 0.0\nsamples = 1\nvalue = [[0, 0, 0 ... 0, 0, 0]\n[0, 0, 0 ... 0, 0, 0]\n[0, 0, 0 ... 0, 0, 0]\n[1, 0, 0 ... 0, 0, 0]\n[1, 0, 0 ... 0, 0, 0]\n[0, 0, 0 ... 0, 0, 0]]"] ;
371 -> 372 ;
373 [label="gini = 0.0\nsamples = 1\nvalue = [[0, 0, 0 ... 0, 0, 0]\n[0, 0, 0 ... 0, 0, 0]\n[0, 0, 0 ... 0, 0, 0]\n[1, 0, 0 ... 0, 0, 0]\n[1, 0, 0 ... 0, 0, 0]\n[0, 0, 0 ... 0, 0, 0]]"] ;
371 -> 373 ;
374 [label="X[2] <= 14576.0\ngini = 0.436\nsamples = 9\nvalue = [[0, 0, 0 ... 0, 0, 0]\n[0, 0, 0 ... 0, 0, 0]\n[0, 0, 0 ... 0, 0, 0]\n[9, 0, 0 ... 0, 0, 0]\n[9, 0, 0 ... 0, 0, 0]\n[0, 0, 0 ... 0, 0, 0]]"] ;
350 -> 374 ;
375 [label="X[6] <= 55.5\ngini = 0.167\nsamples = 2\nvalue = [[0, 0, 0 ... 0, 0, 0]\n[0, 0, 0 ... 0, 0, 0]\n[0, 0, 0 ... 0, 0, 0]\n[2, 0, 0 ... 0, 0, 0]\n[2, 0, 0 ... 0, 0, 0]\n[0, 0, 0 ... 0, 0, 0]]"] ;
374 -> 375 ;
376 [label="gini = 0.0\nsamples = 1\nvalue = [[0, 0, 0 ... 0, 0, 0]\n[0, 0, 0 ... 0, 0, 0]\n[0, 0, 0 ... 0, 0, 0]\n[1, 0, 0 ... 0, 0, 0]\n[1, 0, 0 ... 0, 0, 0]\n[0, 0, 0 ... 0, 0, 0]]"] ;
375 -> 376 ;
377 [label="gini = 0.0\nsamples = 1\nvalue = [[0, 0, 0 ... 0, 0, 0]\n[0, 0, 0 ... 0, 0, 0]\n[0, 0, 0 ... 0, 0, 0]\n[1, 0, 0 ... 0, 0, 0]\n[1, 0, 0 ... 0, 0, 0]\n[0, 0, 0 ... 0, 0, 0]]"] ;
375 -> 377 ;
378 [label="X[12] <= 10595.5\ngini = 0.422\nsamples = 7\nvalue = [[0, 0, 0 ... 0, 0, 0]\n[0, 0, 0 ... 0, 0, 0]\n[0, 0, 0 ... 0, 0, 0]\n[7, 0, 0 ... 0, 0, 0]\n[7, 0, 0 ... 0, 0, 0]\n[0, 0, 0 ... 0, 0, 0]]"] ;
374 -> 378 ;
379 [label="X[0] <= 16932.0\ngini = 0.296\nsamples = 3\nvalue = [[0, 0, 0 ... 0, 0, 0]\n[0, 0, 0 ... 0, 0, 0]\n[0, 0, 0 ... 0, 0, 0]\n[3, 0, 0 ... 0, 0, 0]\n[3, 0, 0 ... 0, 0, 0]\n[0, 0, 0 ... 0, 0, 0]]"] ;
378 -> 379 ;
380 [label="gini = 0.0\nsamples = 1\nvalue = [[0, 0, 0 ... 0, 0, 0]\n[0, 0, 0 ... 0, 0, 0]\n[0, 0, 0 ... 0, 0, 0]\n[1, 0, 0 ... 0, 0, 0]\n[1, 0, 0 ... 0, 0, 0]\n[0, 0, 0 ... 0, 0, 0]]"] ;
379 -> 380 ;
381 [label="X[0] <= 19594.0\ngini = 0.167\nsamples = 2\nvalue = [[0, 0, 0 ... 0, 0, 0]\n[0, 0, 0 ... 0, 0, 0]\n[0, 0, 0 ... 0, 0, 0]\n[2, 0, 0 ... 0, 0, 0]\n[2, 0, 0 ... 0, 0, 0]\n[0, 0, 0 ... 0, 0, 0]]"] ;
379 -> 381 ;
382 [label="gini = 0.0\nsamples = 1\nvalue = [[0, 0, 0 ... 0, 0, 0]\n[0, 0, 0 ... 0, 0, 0]\n[0, 0, 0 ... 0, 0, 0]\n[1, 0, 0 ... 0, 0, 0]\n[1, 0, 0 ... 0, 0, 0]\n[0, 0, 0 ... 0, 0, 0]]"] ;
381 -> 382 ;
383 [label="gini = 0.0\nsamples = 1\nvalue = [[0, 0, 0 ... 0, 0, 0]\n[0, 0, 0 ... 0, 0, 0]\n[0, 0, 0 ... 0, 0, 0]\n[1, 0, 0 ... 0, 0, 0]\n[1, 0, 0 ... 0, 0, 0]\n[0, 0, 0 ... 0, 0, 0]]"] ;
381 -> 383 ;
384 [label="X[5] <= 77.5\ngini = 0.375\nsamples = 4\nvalue = [[0, 0, 0 ... 0, 0, 0]\n[0, 0, 0 ... 0, 0, 0]\n[0, 0, 0 ... 0, 0, 0]\n[4, 0, 0 ... 0, 0, 0]\n[4, 0, 0 ... 0, 0, 0]\n[0, 0, 0 ... 0, 0, 0]]"] ;
378 -> 384 ;
385 [label="X[6] <= 15.5\ngini = 0.333\nsamples = 3\nvalue = [[0, 0, 0 ... 0, 0, 0]\n[0, 0, 0 ... 0, 0, 0]\n[0, 0, 0 ... 0, 0, 0]\n[3, 0, 0 ... 0, 0, 0]\n[3, 0, 0 ... 0, 0, 0]\n[0, 0, 0 ... 0, 0, 0]]"] ;
384 -> 385 ;
386 [label="gini = 0.0\nsamples = 1\nvalue = [[0, 0, 0 ... 0, 0, 0]\n[0, 0, 0 ... 0, 0, 0]\n[0, 0, 0 ... 0, 0, 0]\n[1, 0, 0 ... 0, 0, 0]\n[1, 0, 0 ... 0, 0, 0]\n[0, 0, 0 ... 0, 0, 0]]"] ;
385 -> 386 ;
387 [label="X[6] <= 57.0\ngini = 0.25\nsamples = 2\nvalue = [[0, 0, 0 ... 0, 0, 0]\n[0, 0, 0 ... 0, 0, 0]\n[0, 0, 0 ... 0, 0, 0]\n[2, 0, 0 ... 0, 0, 0]\n[2, 0, 0 ... 0, 0, 0]\n[0, 0, 0 ... 0, 0, 0]]"] ;
385 -> 387 ;
388 [label="gini = 0.0\nsamples = 1\nvalue = [[0, 0, 0 ... 0, 0, 0]\n[0, 0, 0 ... 0, 0, 0]\n[0, 0, 0 ... 0, 0, 0]\n[1, 0, 0 ... 0, 0, 0]\n[1, 0, 0 ... 0, 0, 0]\n[0, 0, 0 ... 0, 0, 0]]"] ;
387 -> 388 ;
389 [label="gini = 0.0\nsamples = 1\nvalue = [[0, 0, 0 ... 0, 0, 0]\n[0, 0, 0 ... 0, 0, 0]\n[0, 0, 0 ... 0, 0, 0]\n[1, 0, 0 ... 0, 0, 0]\n[1, 0, 0 ... 0, 0, 0]\n[0, 0, 0 ... 0, 0, 0]]"] ;
387 -> 389 ;
390 [label="gini = 0.0\nsamples = 1\nvalue = [[0, 0, 0 ... 0, 0, 0]\n[0, 0, 0 ... 0, 0, 0]\n[0, 0, 0 ... 0, 0, 0]\n[1, 0, 0 ... 0, 0, 0]\n[1, 0, 0 ... 0, 0, 0]\n[0, 0, 0 ... 0, 0, 0]]"] ;
384 -> 390 ;
391 [label="X[2] <= 4646.5\ngini = 0.444\nsamples = 3\nvalue = [[0, 0, 0 ... 0, 0, 0]\n[0, 0, 0 ... 0, 0, 0]\n[0, 0, 0 ... 0, 0, 0]\n[0, 0, 0 ... 0, 0, 0]\n[3, 0, 0 ... 0, 0, 0]\n[0, 0, 0 ... 0, 0, 0]]"] ;
349 -> 391 ;
392 [label="gini = 0.0\nsamples = 1\nvalue = [[0, 0, 0 ... 0, 0, 0]\n[0, 0, 0 ... 0, 0, 0]\n[0, 0, 0 ... 0, 0, 0]\n[0, 0, 0 ... 0, 0, 0]\n[1, 0, 0 ... 0, 0, 0]\n[0, 0, 0 ... 0, 0, 0]]"] ;
391 -> 392 ;
393 [label="X[7] <= 54.5\ngini = 0.333\nsamples = 2\nvalue = [[0, 0, 0 ... 0, 0, 0]\n[0, 0, 0 ... 0, 0, 0]\n[0, 0, 0 ... 0, 0, 0]\n[0, 0, 0 ... 0, 0, 0]\n[2, 0, 0 ... 0, 0, 0]\n[0, 0, 0 ... 0, 0, 0]]"] ;
391 -> 393 ;
394 [label="gini = 0.0\nsamples = 1\nvalue = [[0, 0, 0 ... 0, 0, 0]\n[0, 0, 0 ... 0, 0, 0]\n[0, 0, 0 ... 0, 0, 0]\n[0, 0, 0 ... 0, 0, 0]\n[1, 0, 0 ... 0, 0, 0]\n[0, 0, 0 ... 0, 0, 0]]"] ;
393 -> 394 ;
395 [label="gini = 0.0\nsamples = 1\nvalue = [[0, 0, 0 ... 0, 0, 0]\n[0, 0, 0 ... 0, 0, 0]\n[0, 0, 0 ... 0, 0, 0]\n[0, 0, 0 ... 0, 0, 0]\n[1, 0, 0 ... 0, 0, 0]\n[0, 0, 0 ... 0, 0, 0]]"] ;
393 -> 395 ;
396 [label="X[7] <= 57.0\ngini = 0.333\nsamples = 3\nvalue = [[0, 0, 0 ... 0, 0, 0]\n[0, 0, 0 ... 0, 0, 0]\n[0, 0, 0 ... 0, 0, 0]\n[3, 0, 0 ... 0, 0, 0]\n[0, 0, 0 ... 0, 0, 0]\n[0, 0, 0 ... 0, 0, 0]]"] ;
348 -> 396 ;
397 [label="X[0] <= 19382.5\ngini = 0.25\nsamples = 2\nvalue = [[0, 0, 0 ... 0, 0, 0]\n[0, 0, 0 ... 0, 0, 0]\n[0, 0, 0 ... 0, 0, 0]\n[2, 0, 0 ... 0, 0, 0]\n[0, 0, 0 ... 0, 0, 0]\n[0, 0, 0 ... 0, 0, 0]]"] ;
396 -> 397 ;
398 [label="gini = 0.0\nsamples = 1\nvalue = [[0, 0, 0 ... 0, 0, 0]\n[0, 0, 0 ... 0, 0, 0]\n[0, 0, 0 ... 0, 0, 0]\n[1, 0, 0 ... 0, 0, 0]\n[0, 0, 0 ... 0, 0, 0]\n[0, 0, 0 ... 0, 0, 0]]"] ;
397 -> 398 ;
399 [label="gini = 0.0\nsamples = 1\nvalue = [[0, 0, 0 ... 0, 0, 0]\n[0, 0, 0 ... 0, 0, 0]\n[0, 0, 0 ... 0, 0, 0]\n[1, 0, 0 ... 0, 0, 0]\n[0, 0, 0 ... 0, 0, 0]\n[0, 0, 0 ... 0, 0, 0]]"] ;
397 -> 399 ;
400 [label="gini = 0.0\nsamples = 1\nvalue = [[0, 0, 0 ... 0, 0, 0]\n[0, 0, 0 ... 0, 0, 0]\n[0, 0, 0 ... 0, 0, 0]\n[1, 0, 0 ... 0, 0, 0]\n[0, 0, 0 ... 0, 0, 0]\n[0, 0, 0 ... 0, 0, 0]]"] ;
396 -> 400 ;
401 [label="X[0] <= 18022.5\ngini = 0.453\nsamples = 9\nvalue = [[2, 2, 0 ... 0, 0, 0]\n[0, 0, 0 ... 0, 0, 0]\n[0, 0, 0 ... 0, 0, 0]\n[8, 0, 0 ... 0, 0, 0]\n[9, 0, 0 ... 0, 0, 0]\n[0, 0, 0 ... 0, 0, 0]]"] ;
309 -> 401 ;
402 [label="X[0] <= 6273.0\ngini = 0.389\nsamples = 6\nvalue = [[2, 2, 0 ... 0, 0, 0]\n[0, 0, 0 ... 0, 0, 0]\n[0, 0, 0 ... 0, 0, 0]\n[6, 0, 0 ... 0, 0, 0]\n[6, 0, 0 ... 0, 0, 0]\n[0, 0, 0 ... 0, 0, 0]]"] ;
401 -> 402 ;
403 [label="X[6] <= 53.5\ngini = 0.167\nsamples = 2\nvalue = [[2, 0, 0 ... 0, 0, 0]\n[0, 0, 0 ... 0, 0, 0]\n[0, 0, 0 ... 0, 0, 0]\n[2, 0, 0 ... 0, 0, 0]\n[2, 0, 0 ... 0, 0, 0]\n[0, 0, 0 ... 0, 0, 0]]"] ;
402 -> 403 ;
404 [label="gini = 0.0\nsamples = 1\nvalue = [[1, 0, 0 ... 0, 0, 0]\n[0, 0, 0 ... 0, 0, 0]\n[0, 0, 0 ... 0, 0, 0]\n[1, 0, 0 ... 0, 0, 0]\n[1, 0, 0 ... 0, 0, 0]\n[0, 0, 0 ... 0, 0, 0]]"] ;
403 -> 404 ;
405 [label="gini = 0.0\nsamples = 1\nvalue = [[1, 0, 0 ... 0, 0, 0]\n[0, 0, 0 ... 0, 0, 0]\n[0, 0, 0 ... 0, 0, 0]\n[1, 0, 0 ... 0, 0, 0]\n[1, 0, 0 ... 0, 0, 0]\n[0, 0, 0 ... 0, 0, 0]]"] ;
403 -> 405 ;
406 [label="X[0] <= 11863.0\ngini = 0.333\nsamples = 4\nvalue = [[0, 2, 0 ... 0, 0, 0]\n[0, 0, 0 ... 0, 0, 0]\n[0, 0, 0 ... 0, 0, 0]\n[4, 0, 0 ... 0, 0, 0]\n[4, 0, 0 ... 0, 0, 0]\n[0, 0, 0 ... 0, 0, 0]]"] ;
402 -> 406 ;
407 [label="X[6] <= 31.5\ngini = 0.167\nsamples = 2\nvalue = [[0, 2, 0 ... 0, 0, 0]\n[0, 0, 0 ... 0, 0, 0]\n[0, 0, 0 ... 0, 0, 0]\n[2, 0, 0 ... 0, 0, 0]\n[2, 0, 0 ... 0, 0, 0]\n[0, 0, 0 ... 0, 0, 0]]"] ;
406 -> 407 ;
408 [label="gini = 0.0\nsamples = 1\nvalue = [[0, 1, 0 ... 0, 0, 0]\n[0, 0, 0 ... 0, 0, 0]\n[0, 0, 0 ... 0, 0, 0]\n[1, 0, 0 ... 0, 0, 0]\n[1, 0, 0 ... 0, 0, 0]\n[0, 0, 0 ... 0, 0, 0]]"] ;
407 -> 408 ;
409 [label="gini = 0.0\nsamples = 1\nvalue = [[0, 1, 0 ... 0, 0, 0]\n[0, 0, 0 ... 0, 0, 0]\n[0, 0, 0 ... 0, 0, 0]\n[1, 0, 0 ... 0, 0, 0]\n[1, 0, 0 ... 0, 0, 0]\n[0, 0, 0 ... 0, 0, 0]]"] ;
407 -> 409 ;
410 [label="X[6] <= 56.0\ngini = 0.167\nsamples = 2\nvalue = [[0, 0, 0 ... 0, 0, 0]\n[0, 0, 0 ... 0, 0, 0]\n[0, 0, 0 ... 0, 0, 0]\n[2, 0, 0 ... 0, 0, 0]\n[2, 0, 0 ... 0, 0, 0]\n[0, 0, 0 ... 0, 0, 0]]"] ;
406 -> 410 ;
411 [label="gini = 0.0\nsamples = 1\nvalue = [[0, 0, 0 ... 0, 0, 0]\n[0, 0, 0 ... 0, 0, 0]\n[0, 0, 0 ... 0, 0, 0]\n[1, 0, 0 ... 0, 0, 0]\n[1, 0, 0 ... 0, 0, 0]\n[0, 0, 0 ... 0, 0, 0]]"] ;
410 -> 411 ;
412 [label="gini = 0.0\nsamples = 1\nvalue = [[0, 0, 0 ... 0, 0, 0]\n[0, 0, 0 ... 0, 0, 0]\n[0, 0, 0 ... 0, 0, 0]\n[1, 0, 0 ... 0, 0, 0]\n[1, 0, 0 ... 0, 0, 0]\n[0, 0, 0 ... 0, 0, 0]]"] ;
410 -> 412 ;
413 [label="X[10] <= 10029.0\ngini = 0.296\nsamples = 3\nvalue = [[0, 0, 0 ... 0, 0, 0]\n[0, 0, 0 ... 0, 0, 0]\n[0, 0, 0 ... 0, 0, 0]\n[2, 0, 0 ... 0, 0, 0]\n[3, 0, 0 ... 0, 0, 0]\n[0, 0, 0 ... 0, 0, 0]]"] ;
401 -> 413 ;
414 [label="X[13] <= 72.0\ngini = 0.167\nsamples = 2\nvalue = [[0, 0, 0 ... 0, 0, 0]\n[0, 0, 0 ... 0, 0, 0]\n[0, 0, 0 ... 0, 0, 0]\n[2, 0, 0 ... 0, 0, 0]\n[2, 0, 0 ... 0, 0, 0]\n[0, 0, 0 ... 0, 0, 0]]"] ;
413 -> 414 ;
415 [label="gini = 0.0\nsamples = 1\nvalue = [[0, 0, 0 ... 0, 0, 0]\n[0, 0, 0 ... 0, 0, 0]\n[0, 0, 0 ... 0, 0, 0]\n[1, 0, 0 ... 0, 0, 0]\n[1, 0, 0 ... 0, 0, 0]\n[0, 0, 0 ... 0, 0, 0]]"] ;
414 -> 415 ;
416 [label="gini = 0.0\nsamples = 1\nvalue = [[0, 0, 0 ... 0, 0, 0]\n[0, 0, 0 ... 0, 0, 0]\n[0, 0, 0 ... 0, 0, 0]\n[1, 0, 0 ... 0, 0, 0]\n[1, 0, 0 ... 0, 0, 0]\n[0, 0, 0 ... 0, 0, 0]]"] ;
414 -> 416 ;
417 [label="gini = 0.0\nsamples = 1\nvalue = [[0, 0, 0 ... 0, 0, 0]\n[0, 0, 0 ... 0, 0, 0]\n[0, 0, 0 ... 0, 0, 0]\n[0, 0, 0 ... 0, 0, 0]\n[1, 0, 0 ... 0, 0, 0]\n[0, 0, 0 ... 0, 0, 0]]"] ;
413 -> 417 ;
418 [label="X[3] <= 20.5\ngini = 0.604\nsamples = 246\nvalue = [[0, 0, 0 ... 0, 0, 0]\n[0, 0, 0 ... 0, 1, 1]\n[2, 0, 0 ... 0, 0, 0]\n[211, 1, 1 ... 0, 0, 0]\n[229, 0, 1 ... 0, 0, 0]\n[1, 1, 0 ... 0, 0, 0]]"] ;
2 -> 418 ;
419 [label="X[12] <= 18291.0\ngini = 0.503\nsamples = 166\nvalue = [[0, 0, 0 ... 0, 0, 0]\n[0, 0, 0 ... 0, 0, 0]\n[0, 0, 0 ... 0, 0, 0]\n[146, 1, 0 ... 0, 0, 0]\n[158, 0, 1 ... 0, 0, 0]\n[0, 0, 0 ... 0, 0, 0]]"] ;
418 -> 419 ;
420 [label="X[12] <= 17786.0\ngini = 0.438\nsamples = 99\nvalue = [[0, 0, 0 ... 0, 0, 0]\n[0, 0, 0 ... 0, 0, 0]\n[0, 0, 0 ... 0, 0, 0]\n[89, 1, 0 ... 0, 0, 0]\n[93, 0, 1 ... 0, 0, 0]\n[0, 0, 0 ... 0, 0, 0]]"] ;
419 -> 420 ;
421 [label="X[12] <= 15973.0\ngini = 0.465\nsamples = 21\nvalue = [[0, 0, 0 ... 0, 0, 0]\n[0, 0, 0 ... 0, 0, 0]\n[0, 0, 0 ... 0, 0, 0]\n[20, 0, 0 ... 0, 0, 0]\n[21, 0, 0 ... 0, 0, 0]\n[0, 0, 0 ... 0, 0, 0]]"] ;
420 -> 421 ;
422 [label="X[5] <= 59.0\ngini = 0.43\nsamples = 16\nvalue = [[0, 0, 0 ... 0, 0, 0]\n[0, 0, 0 ... 0, 0, 0]\n[0, 0, 0 ... 0, 0, 0]\n[16, 0, 0 ... 0, 0, 0]\n[16, 0, 0 ... 0, 0, 0]\n[0, 0, 0 ... 0, 0, 0]]"] ;
421 -> 422 ;
423 [label="X[1] <= 54.0\ngini = 0.375\nsamples = 4\nvalue = [[0, 0, 0 ... 0, 0, 0]\n[0, 0, 0 ... 0, 0, 0]\n[0, 0, 0 ... 0, 0, 0]\n[4, 0, 0 ... 0, 0, 0]\n[4, 0, 0 ... 0, 0, 0]\n[0, 0, 0 ... 0, 0, 0]]"] ;
422 -> 423 ;
424 [label="gini = 0.0\nsamples = 1\nvalue = [[0, 0, 0 ... 0, 0, 0]\n[0, 0, 0 ... 0, 0, 0]\n[0, 0, 0 ... 0, 0, 0]\n[1, 0, 0 ... 0, 0, 0]\n[1, 0, 0 ... 0, 0, 0]\n[0, 0, 0 ... 0, 0, 0]]"] ;
423 -> 424 ;
425 [label="X[2] <= 7654.0\ngini = 0.333\nsamples = 3\nvalue = [[0, 0, 0 ... 0, 0, 0]\n[0, 0, 0 ... 0, 0, 0]\n[0, 0, 0 ... 0, 0, 0]\n[3, 0, 0 ... 0, 0, 0]\n[3, 0, 0 ... 0, 0, 0]\n[0, 0, 0 ... 0, 0, 0]]"] ;
423 -> 425 ;
426 [label="gini = 0.0\nsamples = 1\nvalue = [[0, 0, 0 ... 0, 0, 0]\n[0, 0, 0 ... 0, 0, 0]\n[0, 0, 0 ... 0, 0, 0]\n[1, 0, 0 ... 0, 0, 0]\n[1, 0, 0 ... 0, 0, 0]\n[0, 0, 0 ... 0, 0, 0]]"] ;
425 -> 426 ;
427 [label="X[0] <= 19252.0\ngini = 0.25\nsamples = 2\nvalue = [[0, 0, 0 ... 0, 0, 0]\n[0, 0, 0 ... 0, 0, 0]\n[0, 0, 0 ... 0, 0, 0]\n[2, 0, 0 ... 0, 0, 0]\n[2, 0, 0 ... 0, 0, 0]\n[0, 0, 0 ... 0, 0, 0]]"] ;
425 -> 427 ;
428 [label="gini = 0.0\nsamples = 1\nvalue = [[0, 0, 0 ... 0, 0, 0]\n[0, 0, 0 ... 0, 0, 0]\n[0, 0, 0 ... 0, 0, 0]\n[1, 0, 0 ... 0, 0, 0]\n[1, 0, 0 ... 0, 0, 0]\n[0, 0, 0 ... 0, 0, 0]]"] ;
427 -> 428 ;
429 [label="gini = 0.0\nsamples = 1\nvalue = [[0, 0, 0 ... 0, 0, 0]\n[0, 0, 0 ... 0, 0, 0]\n[0, 0, 0 ... 0, 0, 0]\n[1, 0, 0 ... 0, 0, 0]\n[1, 0, 0 ... 0, 0, 0]\n[0, 0, 0 ... 0, 0, 0]]"] ;
427 -> 429 ;
430 [label="X[12] <= 6553.0\ngini = 0.389\nsamples = 12\nvalue = [[0, 0, 0 ... 0, 0, 0]\n[0, 0, 0 ... 0, 0, 0]\n[0, 0, 0 ... 0, 0, 0]\n[12, 0, 0 ... 0, 0, 0]\n[12, 0, 0 ... 0, 0, 0]\n[0, 0, 0 ... 0, 0, 0]]"] ;
422 -> 430 ;
431 [label="X[8] <= 57.0\ngini = 0.167\nsamples = 2\nvalue = [[0, 0, 0 ... 0, 0, 0]\n[0, 0, 0 ... 0, 0, 0]\n[0, 0, 0 ... 0, 0, 0]\n[2, 0, 0 ... 0, 0, 0]\n[2, 0, 0 ... 0, 0, 0]\n[0, 0, 0 ... 0, 0, 0]]"] ;
430 -> 431 ;
432 [label="gini = 0.0\nsamples = 1\nvalue = [[0, 0, 0 ... 0, 0, 0]\n[0, 0, 0 ... 0, 0, 0]\n[0, 0, 0 ... 0, 0, 0]\n[1, 0, 0 ... 0, 0, 0]\n[1, 0, 0 ... 0, 0, 0]\n[0, 0, 0 ... 0, 0, 0]]"] ;
431 -> 432 ;
433 [label="gini = 0.0\nsamples = 1\nvalue = [[0, 0, 0 ... 0, 0, 0]\n[0, 0, 0 ... 0, 0, 0]\n[0, 0, 0 ... 0, 0, 0]\n[1, 0, 0 ... 0, 0, 0]\n[1, 0, 0 ... 0, 0, 0]\n[0, 0, 0 ... 0, 0, 0]]"] ;
431 -> 433 ;
434 [label="X[12] <= 10886.5\ngini = 0.36\nsamples = 10\nvalue = [[0, 0, 0 ... 0, 0, 0]\n[0, 0, 0 ... 0, 0, 0]\n[0, 0, 0 ... 0, 0, 0]\n[10, 0, 0 ... 0, 0, 0]\n[10, 0, 0 ... 0, 0, 0]\n[0, 0, 0 ... 0, 0, 0]]"] ;
430 -> 434 ;
435 [label="X[0] <= 11796.5\ngini = 0.279\nsamples = 7\nvalue = [[0, 0, 0 ... 0, 0, 0]\n[0, 0, 0 ... 0, 0, 0]\n[0, 0, 0 ... 0, 0, 0]\n[7, 0, 0 ... 0, 0, 0]\n[7, 0, 0 ... 0, 0, 0]\n[0, 0, 0 ... 0, 0, 0]]"] ;
434 -> 435 ;
436 [label="X[0] <= 11134.0\ngini = 0.185\nsamples = 3\nvalue = [[0, 0, 0 ... 0, 0, 0]\n[0, 0, 0 ... 0, 0, 0]\n[0, 0, 0 ... 0, 0, 0]\n[3, 0, 0 ... 0, 0, 0]\n[3, 0, 0 ... 0, 0, 0]\n[0, 0, 0 ... 0, 0, 0]]"] ;
435 -> 436 ;
437 [label="gini = 0.0\nsamples = 1\nvalue = [[0, 0, 0 ... 0, 0, 0]\n[0, 0, 0 ... 0, 0, 0]\n[0, 0, 0 ... 0, 0, 0]\n[1, 0, 0 ... 0, 0, 0]\n[1, 0, 0 ... 0, 0, 0]\n[0, 0, 0 ... 0, 0, 0]]"] ;
436 -> 437 ;
438 [label="X[1] <= 82.0\ngini = 0.083\nsamples = 2\nvalue = [[0, 0, 0 ... 0, 0, 0]\n[0, 0, 0 ... 0, 0, 0]\n[0, 0, 0 ... 0, 0, 0]\n[2, 0, 0 ... 0, 0, 0]\n[2, 0, 0 ... 0, 0, 0]\n[0, 0, 0 ... 0, 0, 0]]"] ;
436 -> 438 ;
439 [label="gini = 0.0\nsamples = 1\nvalue = [[0, 0, 0 ... 0, 0, 0]\n[0, 0, 0 ... 0, 0, 0]\n[0, 0, 0 ... 0, 0, 0]\n[1, 0, 0 ... 0, 0, 0]\n[1, 0, 0 ... 0, 0, 0]\n[0, 0, 0 ... 0, 0, 0]]"] ;
438 -> 439 ;
440 [label="gini = 0.0\nsamples = 1\nvalue = [[0, 0, 0 ... 0, 0, 0]\n[0, 0, 0 ... 0, 0, 0]\n[0, 0, 0 ... 0, 0, 0]\n[1, 0, 0 ... 0, 0, 0]\n[1, 0, 0 ... 0, 0, 0]\n[0, 0, 0 ... 0, 0, 0]]"] ;
438 -> 440 ;
441 [label="X[0] <= 13927.5\ngini = 0.25\nsamples = 4\nvalue = [[0, 0, 0 ... 0, 0, 0]\n[0, 0, 0 ... 0, 0, 0]\n[0, 0, 0 ... 0, 0, 0]\n[4, 0, 0 ... 0, 0, 0]\n[4, 0, 0 ... 0, 0, 0]\n[0, 0, 0 ... 0, 0, 0]]"] ;
435 -> 441 ;
442 [label="X[2] <= 3336.0\ngini = 0.167\nsamples = 2\nvalue = [[0, 0, 0 ... 0, 0, 0]\n[0, 0, 0 ... 0, 0, 0]\n[0, 0, 0 ... 0, 0, 0]\n[2, 0, 0 ... 0, 0, 0]\n[2, 0, 0 ... 0, 0, 0]\n[0, 0, 0 ... 0, 0, 0]]"] ;
441 -> 442 ;
443 [label="gini = 0.0\nsamples = 1\nvalue = [[0, 0, 0 ... 0, 0, 0]\n[0, 0, 0 ... 0, 0, 0]\n[0, 0, 0 ... 0, 0, 0]\n[1, 0, 0 ... 0, 0, 0]\n[1, 0, 0 ... 0, 0, 0]\n[0, 0, 0 ... 0, 0, 0]]"] ;
442 -> 443 ;
444 [label="gini = 0.0\nsamples = 1\nvalue = [[0, 0, 0 ... 0, 0, 0]\n[0, 0, 0 ... 0, 0, 0]\n[0, 0, 0 ... 0, 0, 0]\n[1, 0, 0 ... 0, 0, 0]\n[1, 0, 0 ... 0, 0, 0]\n[0, 0, 0 ... 0, 0, 0]]"] ;
442 -> 444 ;
445 [label="X[6] <= 50.0\ngini = 0.167\nsamples = 2\nvalue = [[0, 0, 0 ... 0, 0, 0]\n[0, 0, 0 ... 0, 0, 0]\n[0, 0, 0 ... 0, 0, 0]\n[2, 0, 0 ... 0, 0, 0]\n[2, 0, 0 ... 0, 0, 0]\n[0, 0, 0 ... 0, 0, 0]]"] ;
441 -> 445 ;
446 [label="gini = 0.0\nsamples = 1\nvalue = [[0, 0, 0 ... 0, 0, 0]\n[0, 0, 0 ... 0, 0, 0]\n[0, 0, 0 ... 0, 0, 0]\n[1, 0, 0 ... 0, 0, 0]\n[1, 0, 0 ... 0, 0, 0]\n[0, 0, 0 ... 0, 0, 0]]"] ;
445 -> 446 ;
447 [label="gini = 0.0\nsamples = 1\nvalue = [[0, 0, 0 ... 0, 0, 0]\n[0, 0, 0 ... 0, 0, 0]\n[0, 0, 0 ... 0, 0, 0]\n[1, 0, 0 ... 0, 0, 0]\n[1, 0, 0 ... 0, 0, 0]\n[0, 0, 0 ... 0, 0, 0]]"] ;
445 -> 447 ;
448 [label="X[0] <= 13445.0\ngini = 0.296\nsamples = 3\nvalue = [[0, 0, 0 ... 0, 0, 0]\n[0, 0, 0 ... 0, 0, 0]\n[0, 0, 0 ... 0, 0, 0]\n[3, 0, 0 ... 0, 0, 0]\n[3, 0, 0 ... 0, 0, 0]\n[0, 0, 0 ... 0, 0, 0]]"] ;
434 -> 448 ;
449 [label="X[2] <= 5844.5\ngini = 0.167\nsamples = 2\nvalue = [[0, 0, 0 ... 0, 0, 0]\n[0, 0, 0 ... 0, 0, 0]\n[0, 0, 0 ... 0, 0, 0]\n[2, 0, 0 ... 0, 0, 0]\n[2, 0, 0 ... 0, 0, 0]\n[0, 0, 0 ... 0, 0, 0]]"] ;
448 -> 449 ;
450 [label="gini = 0.0\nsamples = 1\nvalue = [[0, 0, 0 ... 0, 0, 0]\n[0, 0, 0 ... 0, 0, 0]\n[0, 0, 0 ... 0, 0, 0]\n[1, 0, 0 ... 0, 0, 0]\n[1, 0, 0 ... 0, 0, 0]\n[0, 0, 0 ... 0, 0, 0]]"] ;
449 -> 450 ;
451 [label="gini = 0.0\nsamples = 1\nvalue = [[0, 0, 0 ... 0, 0, 0]\n[0, 0, 0 ... 0, 0, 0]\n[0, 0, 0 ... 0, 0, 0]\n[1, 0, 0 ... 0, 0, 0]\n[1, 0, 0 ... 0, 0, 0]\n[0, 0, 0 ... 0, 0, 0]]"] ;
449 -> 451 ;
452 [label="gini = 0.0\nsamples = 1\nvalue = [[0, 0, 0 ... 0, 0, 0]\n[0, 0, 0 ... 0, 0, 0]\n[0, 0, 0 ... 0, 0, 0]\n[1, 0, 0 ... 0, 0, 0]\n[1, 0, 0 ... 0, 0, 0]\n[0, 0, 0 ... 0, 0, 0]]"] ;
448 -> 452 ;
453 [label="X[10] <= 10339.5\ngini = 0.4\nsamples = 5\nvalue = [[0, 0, 0 ... 0, 0, 0]\n[0, 0, 0 ... 0, 0, 0]\n[0, 0, 0 ... 0, 0, 0]\n[4, 0, 0 ... 0, 0, 0]\n[5, 0, 0 ... 0, 0, 0]\n[0, 0, 0 ... 0, 0, 0]]"] ;
421 -> 453 ;
454 [label="X[12] <= 17181.5\ngini = 0.312\nsamples = 4\nvalue = [[0, 0, 0 ... 0, 0, 0]\n[0, 0, 0 ... 0, 0, 0]\n[0, 0, 0 ... 0, 0, 0]\n[4, 0, 0 ... 0, 0, 0]\n[4, 0, 0 ... 0, 0, 0]\n[0, 0, 0 ... 0, 0, 0]]"] ;
453 -> 454 ;
455 [label="X[2] <= 7601.0\ngini = 0.222\nsamples = 3\nvalue = [[0, 0, 0 ... 0, 0, 0]\n[0, 0, 0 ... 0, 0, 0]\n[0, 0, 0 ... 0, 0, 0]\n[3, 0, 0 ... 0, 0, 0]\n[3, 0, 0 ... 0, 0, 0]\n[0, 0, 0 ... 0, 0, 0]]"] ;
454 -> 455 ;
456 [label="gini = 0.0\nsamples = 1\nvalue = [[0, 0, 0 ... 0, 0, 0]\n[0, 0, 0 ... 0, 0, 0]\n[0, 0, 0 ... 0, 0, 0]\n[1, 0, 0 ... 0, 0, 0]\n[1, 0, 0 ... 0, 0, 0]\n[0, 0, 0 ... 0, 0, 0]]"] ;
455 -> 456 ;
457 [label="X[2] <= 14016.0\ngini = 0.167\nsamples = 2\nvalue = [[0, 0, 0 ... 0, 0, 0]\n[0, 0, 0 ... 0, 0, 0]\n[0, 0, 0 ... 0, 0, 0]\n[2, 0, 0 ... 0, 0, 0]\n[2, 0, 0 ... 0, 0, 0]\n[0, 0, 0 ... 0, 0, 0]]"] ;
455 -> 457 ;
458 [label="gini = 0.0\nsamples = 1\nvalue = [[0, 0, 0 ... 0, 0, 0]\n[0, 0, 0 ... 0, 0, 0]\n[0, 0, 0 ... 0, 0, 0]\n[1, 0, 0 ... 0, 0, 0]\n[1, 0, 0 ... 0, 0, 0]\n[0, 0, 0 ... 0, 0, 0]]"] ;
457 -> 458 ;
459 [label="gini = 0.0\nsamples = 1\nvalue = [[0, 0, 0 ... 0, 0, 0]\n[0, 0, 0 ... 0, 0, 0]\n[0, 0, 0 ... 0, 0, 0]\n[1, 0, 0 ... 0, 0, 0]\n[1, 0, 0 ... 0, 0, 0]\n[0, 0, 0 ... 0, 0, 0]]"] ;
457 -> 459 ;
460 [label="gini = 0.0\nsamples = 1\nvalue = [[0, 0, 0 ... 0, 0, 0]\n[0, 0, 0 ... 0, 0, 0]\n[0, 0, 0 ... 0, 0, 0]\n[1, 0, 0 ... 0, 0, 0]\n[1, 0, 0 ... 0, 0, 0]\n[0, 0, 0 ... 0, 0, 0]]"] ;
454 -> 460 ;
461 [label="gini = 0.0\nsamples = 1\nvalue = [[0, 0, 0 ... 0, 0, 0]\n[0, 0, 0 ... 0, 0, 0]\n[0, 0, 0 ... 0, 0, 0]\n[0, 0, 0 ... 0, 0, 0]\n[1, 0, 0 ... 0, 0, 0]\n[0, 0, 0 ... 0, 0, 0]]"] ;
453 -> 461 ;
462 [label="X[10] <= 329.0\ngini = 0.385\nsamples = 78\nvalue = [[0, 0, 0 ... 0, 0, 0]\n[0, 0, 0 ... 0, 0, 0]\n[0, 0, 0 ... 0, 0, 0]\n[69, 1, 0 ... 0, 0, 0]\n[72, 0, 1 ... 0, 0, 0]\n[0, 0, 0 ... 0, 0, 0]]"] ;
420 -> 462 ;
463 [label="X[11] <= 1610.5\ngini = 0.352\nsamples = 69\nvalue = [[0, 0, 0 ... 0, 0, 0]\n[0, 0, 0 ... 0, 0, 0]\n[0, 0, 0 ... 0, 0, 0]\n[69, 0, 0 ... 0, 0, 0]\n[63, 0, 1 ... 0, 0, 0]\n[0, 0, 0 ... 0, 0, 0]]"] ;
462 -> 463 ;
464 [label="X[0] <= 15223.5\ngini = 0.324\nsamples = 63\nvalue = [[0, 0, 0 ... 0, 0, 0]\n[0, 0, 0 ... 0, 0, 0]\n[0, 0, 0 ... 0, 0, 0]\n[63, 0, 0 ... 0, 0, 0]\n[63, 0, 0 ... 0, 0, 0]\n[0, 0, 0 ... 0, 0, 0]]"] ;
463 -> 464 ;
465 [label="X[0] <= 14826.5\ngini = 0.304\nsamples = 23\nvalue = [[0, 0, 0 ... 0, 0, 0]\n[0, 0, 0 ... 0, 0, 0]\n[0, 0, 0 ... 0, 0, 0]\n[23, 0, 0 ... 0, 0, 0]\n[23, 0, 0 ... 0, 0, 0]\n[0, 0, 0 ... 0, 0, 0]]"] ;
464 -> 465 ;
466 [label="X[0] <= 14393.5\ngini = 0.3\nsamples = 18\nvalue = [[0, 0, 0 ... 0, 0, 0]\n[0, 0, 0 ... 0, 0, 0]\n[0, 0, 0 ... 0, 0, 0]\n[18, 0, 0 ... 0, 0, 0]\n[18, 0, 0 ... 0, 0, 0]\n[0, 0, 0 ... 0, 0, 0]]"] ;
465 -> 466 ;
467 [label="X[5] <= 59.0\ngini = 0.295\nsamples = 15\nvalue = [[0, 0, 0 ... 0, 0, 0]\n[0, 0, 0 ... 0, 0, 0]\n[0, 0, 0 ... 0, 0, 0]\n[15, 0, 0 ... 0, 0, 0]\n[15, 0, 0 ... 0, 0, 0]\n[0, 0, 0 ... 0, 0, 0]]"] ;
466 -> 467 ;
468 [label="X[1] <= 82.0\ngini = 0.111\nsamples = 3\nvalue = [[0, 0, 0 ... 0, 0, 0]\n[0, 0, 0 ... 0, 0, 0]\n[0, 0, 0 ... 0, 0, 0]\n[3, 0, 0 ... 0, 0, 0]\n[3, 0, 0 ... 0, 0, 0]\n[0, 0, 0 ... 0, 0, 0]]"] ;
467 -> 468 ;
469 [label="X[2] <= 15660.5\ngini = 0.083\nsamples = 2\nvalue = [[0, 0, 0 ... 0, 0, 0]\n[0, 0, 0 ... 0, 0, 0]\n[0, 0, 0 ... 0, 0, 0]\n[2, 0, 0 ... 0, 0, 0]\n[2, 0, 0 ... 0, 0, 0]\n[0, 0, 0 ... 0, 0, 0]]"] ;
468 -> 469 ;
470 [label="gini = 0.0\nsamples = 1\nvalue = [[0, 0, 0 ... 0, 0, 0]\n[0, 0, 0 ... 0, 0, 0]\n[0, 0, 0 ... 0, 0, 0]\n[1, 0, 0 ... 0, 0, 0]\n[1, 0, 0 ... 0, 0, 0]\n[0, 0, 0 ... 0, 0, 0]]"] ;
469 -> 470 ;
471 [label="gini = 0.0\nsamples = 1\nvalue = [[0, 0, 0 ... 0, 0, 0]\n[0, 0, 0 ... 0, 0, 0]\n[0, 0, 0 ... 0, 0, 0]\n[1, 0, 0 ... 0, 0, 0]\n[1, 0, 0 ... 0, 0, 0]\n[0, 0, 0 ... 0, 0, 0]]"] ;
469 -> 471 ;
472 [label="gini = 0.0\nsamples = 1\nvalue = [[0, 0, 0 ... 0, 0, 0]\n[0, 0, 0 ... 0, 0, 0]\n[0, 0, 0 ... 0, 0, 0]\n[1, 0, 0 ... 0, 0, 0]\n[1, 0, 0 ... 0, 0, 0]\n[0, 0, 0 ... 0, 0, 0]]"] ;
468 -> 472 ;
473 [label="X[0] <= 12954.0\ngini = 0.287\nsamples = 12\nvalue = [[0, 0, 0 ... 0, 0, 0]\n[0, 0, 0 ... 0, 0, 0]\n[0, 0, 0 ... 0, 0, 0]\n[12, 0, 0 ... 0, 0, 0]\n[12, 0, 0 ... 0, 0, 0]\n[0, 0, 0 ... 0, 0, 0]]"] ;
467 -> 473 ;
474 [label="X[0] <= 12408.0\ngini = 0.266\nsamples = 8\nvalue = [[0, 0, 0 ... 0, 0, 0]\n[0, 0, 0 ... 0, 0, 0]\n[0, 0, 0 ... 0, 0, 0]\n[8, 0, 0 ... 0, 0, 0]\n[8, 0, 0 ... 0, 0, 0]\n[0, 0, 0 ... 0, 0, 0]]"] ;
473 -> 474 ;
475 [label="X[0] <= 11796.5\ngini = 0.241\nsamples = 6\nvalue = [[0, 0, 0 ... 0, 0, 0]\n[0, 0, 0 ... 0, 0, 0]\n[0, 0, 0 ... 0, 0, 0]\n[6, 0, 0 ... 0, 0, 0]\n[6, 0, 0 ... 0, 0, 0]\n[0, 0, 0 ... 0, 0, 0]]"] ;
474 -> 475 ;
